<?xml version="1.0"?>
<opencv_storage>
<cascade>
  <stageType>BOOST</stageType>
  <featureType>HAAR</featureType>
  <height>27</height>
  <width>22</width>
  <stageParams>
    <boostType>GAB</boostType>
    <minHitRate>9.9900001287460327e-01</minHitRate>
    <maxFalseAlarm>5.0000000000000000e-01</maxFalseAlarm>
    <weightTrimRate>9.4999999999999996e-01</weightTrimRate>
    <maxDepth>1</maxDepth>
    <maxWeakCount>100</maxWeakCount></stageParams>
  <featureParams>
    <maxCatCount>0</maxCatCount>
    <featSize>1</featSize>
    <mode>ALL</mode></featureParams>
  <stageNum>15</stageNum>
  <stages>
    <!-- stage 0 -->
    <_>
      <maxWeakCount>6</maxWeakCount>
      <stageThreshold>-1.9968662261962891e+00</stageThreshold>
      <weakClassifiers>
        <_>
          <internalNodes>
            0 -1 38 5.1611699163913727e-02</internalNodes>
          <leafValues>
            -8.6881470680236816e-01 6.6755086183547974e-01</leafValues></_>
        <_>
          <internalNodes>
            0 -1 47 2.5208748877048492e-02</internalNodes>
          <leafValues>
            -7.8353077173233032e-01 5.4587930440902710e-01</leafValues></_>
        <_>
          <internalNodes>
            0 -1 7 2.9615942388772964e-02</internalNodes>
          <leafValues>
            -5.3704410791397095e-01 4.6355170011520386e-01</leafValues></_>
        <_>
          <internalNodes>
            0 -1 124 -5.0383824855089188e-03</internalNodes>
          <leafValues>
            5.4676669836044312e-01 -4.5665657520294189e-01</leafValues></_>
        <_>
          <internalNodes>
            0 -1 206 7.9075861722230911e-03</internalNodes>
          <leafValues>
            -7.7953380346298218e-01 3.2466506958007812e-01</leafValues></_>
        <_>
          <internalNodes>
            0 -1 37 3.1870463863015175e-03</internalNodes>
          <leafValues>
            -5.0304847955703735e-01 4.2811802029609680e-01</leafValues></_></weakClassifiers></_>
    <!-- stage 1 -->
    <_>
      <maxWeakCount>13</maxWeakCount>
      <stageThreshold>-1.9365359544754028e+00</stageThreshold>
      <weakClassifiers>
        <_>
          <internalNodes>
            0 -1 23 6.4461007714271545e-02</internalNodes>
          <leafValues>
            -7.9349362850189209e-01 4.3387469649314880e-01</leafValues></_>
        <_>
          <internalNodes>
            0 -1 46 2.7296878397464752e-02</internalNodes>
          <leafValues>
            -6.9349169731140137e-01 4.3514552712440491e-01</leafValues></_>
        <_>
          <internalNodes>
            0 -1 121 -5.3473552688956261e-03</internalNodes>
          <leafValues>
            4.1416808962821960e-01 -5.0664407014846802e-01</leafValues></_>
        <_>
          <internalNodes>
            0 -1 14 6.2706977128982544e-02</internalNodes>
          <leafValues>
            -3.2275968790054321e-01 5.0781887769699097e-01</leafValues></_>
        <_>
          <internalNodes>
            0 -1 28 -4.0713455528020859e-03</internalNodes>
          <leafValues>
            2.4760413169860840e-01 -6.4140975475311279e-01</leafValues></_>
        <_>
          <internalNodes>
            0 -1 119 3.9522266015410423e-03</internalNodes>
          <leafValues>
            -6.7175942659378052e-01 2.0571936666965485e-01</leafValues></_>
        <_>
          <internalNodes>
            0 -1 195 -1.1746197706088424e-03</internalNodes>
          <leafValues>
            -8.3793467283248901e-01 1.2786510586738586e-01</leafValues></_>
        <_>
          <internalNodes>
            0 -1 220 -6.9438584614545107e-04</internalNodes>
          <leafValues>
            -7.0296168327331543e-01 1.7559698224067688e-01</leafValues></_>
        <_>
          <internalNodes>
            0 -1 73 -6.1623943038284779e-03</internalNodes>
          <leafValues>
            6.8785095214843750e-01 -2.2863130271434784e-01</leafValues></_>
        <_>
          <internalNodes>
            0 -1 42 5.8119548484683037e-03</internalNodes>
          <leafValues>
            -3.6191490292549133e-01 3.7440598011016846e-01</leafValues></_>
        <_>
          <internalNodes>
            0 -1 143 1.5198984183371067e-02</internalNodes>
          <leafValues>
            -1.5544569492340088e-01 8.8004624843597412e-01</leafValues></_>
        <_>
          <internalNodes>
            0 -1 10 2.7799482923001051e-03</internalNodes>
          <leafValues>
            -3.8696083426475525e-01 3.5275876522064209e-01</leafValues></_>
        <_>
          <internalNodes>
            0 -1 224 1.5052732778713107e-03</internalNodes>
          <leafValues>
            1.6899368166923523e-01 -7.6784592866897583e-01</leafValues></_></weakClassifiers></_>
    <!-- stage 2 -->
    <_>
      <maxWeakCount>14</maxWeakCount>
      <stageThreshold>-1.7200211286544800e+00</stageThreshold>
      <weakClassifiers>
        <_>
          <internalNodes>
            0 -1 26 5.1518891006708145e-02</internalNodes>
          <leafValues>
            -7.5659227371215820e-01 2.4751161038875580e-01</leafValues></_>
        <_>
          <internalNodes>
            0 -1 48 2.9163446277379990e-02</internalNodes>
          <leafValues>
            -7.0127296447753906e-01 2.9581925272941589e-01</leafValues></_>
        <_>
          <internalNodes>
            0 -1 122 -4.6659931540489197e-03</internalNodes>
          <leafValues>
            4.5131251215934753e-01 -3.8775044679641724e-01</leafValues></_>
        <_>
          <internalNodes>
            0 -1 210 -1.7580891726538539e-03</internalNodes>
          <leafValues>
            -6.5525609254837036e-01 2.3806485533714294e-01</leafValues></_>
        <_>
          <internalNodes>
            0 -1 221 -2.2814227268099785e-03</internalNodes>
          <leafValues>
            -7.6957547664642334e-01 1.6298606991767883e-01</leafValues></_>
        <_>
          <internalNodes>
            0 -1 71 -9.2858094722032547e-03</internalNodes>
          <leafValues>
            5.1283133029937744e-01 -2.6314434409141541e-01</leafValues></_>
        <_>
          <internalNodes>
            0 -1 199 -6.2038074247539043e-04</internalNodes>
          <leafValues>
            -6.9258433580398560e-01 1.7876702547073364e-01</leafValues></_>
        <_>
          <internalNodes>
            0 -1 53 4.2873090133070946e-03</internalNodes>
          <leafValues>
            -3.3962595462799072e-01 3.9654424786567688e-01</leafValues></_>
        <_>
          <internalNodes>
            0 -1 88 5.0591282546520233e-02</internalNodes>
          <leafValues>
            -3.2710233330726624e-01 3.8657379150390625e-01</leafValues></_>
        <_>
          <internalNodes>
            0 -1 85 4.2102235555648804e-01</internalNodes>
          <leafValues>
            -2.7203622460365295e-01 5.1328581571578979e-01</leafValues></_>
        <_>
          <internalNodes>
            0 -1 128 -6.1361985281109810e-03</internalNodes>
          <leafValues>
            5.6310611963272095e-01 -2.3392979800701141e-01</leafValues></_>
        <_>
          <internalNodes>
            0 -1 204 -7.1226293221116066e-04</internalNodes>
          <leafValues>
            -7.3087054491043091e-01 1.8148931860923767e-01</leafValues></_>
        <_>
          <internalNodes>
            0 -1 202 5.7370979338884354e-03</internalNodes>
          <leafValues>
            1.6304890811443329e-01 -7.7993577718734741e-01</leafValues></_>
        <_>
          <internalNodes>
            0 -1 156 -4.0956605225801468e-03</internalNodes>
          <leafValues>
            7.4892479181289673e-01 -2.0001779496669769e-01</leafValues></_></weakClassifiers></_>
    <!-- stage 3 -->
    <_>
      <maxWeakCount>14</maxWeakCount>
      <stageThreshold>-1.2326427698135376e+00</stageThreshold>
      <weakClassifiers>
        <_>
          <internalNodes>
            0 -1 124 -1.8292728345841169e-03</internalNodes>
          <leafValues>
            3.1674957275390625e-01 -4.8110830783843994e-01</leafValues></_>
        <_>
          <internalNodes>
            0 -1 34 6.4281746745109558e-02</internalNodes>
          <leafValues>
            -7.5248491764068604e-01 2.0403963327407837e-01</leafValues></_>
        <_>
          <internalNodes>
            0 -1 35 2.3640897125005722e-02</internalNodes>
          <leafValues>
            -6.8543487787246704e-01 2.8418138623237610e-01</leafValues></_>
        <_>
          <internalNodes>
            0 -1 101 2.5227410718798637e-02</internalNodes>
          <leafValues>
            -2.1804559230804443e-01 8.3697241544723511e-01</leafValues></_>
        <_>
          <internalNodes>
            0 -1 30 -9.7574163228273392e-03</internalNodes>
          <leafValues>
            5.0378948450088501e-01 -3.1171223521232605e-01</leafValues></_>
        <_>
          <internalNodes>
            0 -1 191 6.8888557143509388e-04</internalNodes>
          <leafValues>
            2.6934230327606201e-01 -6.2586379051208496e-01</leafValues></_>
        <_>
          <internalNodes>
            0 -1 223 6.4817059319466352e-04</internalNodes>
          <leafValues>
            9.4711259007453918e-02 -7.1219265460968018e-01</leafValues></_>
        <_>
          <internalNodes>
            0 -1 180 -6.3638464780524373e-04</internalNodes>
          <leafValues>
            -6.5797859430313110e-01 1.8310119211673737e-01</leafValues></_>
        <_>
          <internalNodes>
            0 -1 69 2.4467114359140396e-02</internalNodes>
          <leafValues>
            -1.8748703598976135e-01 7.3285406827926636e-01</leafValues></_>
        <_>
          <internalNodes>
            0 -1 58 -1.3564333319664001e-02</internalNodes>
          <leafValues>
            6.1085218191146851e-01 -1.9092318415641785e-01</leafValues></_>
        <_>
          <internalNodes>
            0 -1 153 -6.5253549255430698e-03</internalNodes>
          <leafValues>
            4.0676730871200562e-01 -2.8632810711860657e-01</leafValues></_>
        <_>
          <internalNodes>
            0 -1 22 4.8088294267654419e-01</internalNodes>
          <leafValues>
            -2.3312458395957947e-01 5.7211524248123169e-01</leafValues></_>
        <_>
          <internalNodes>
            0 -1 205 6.9540907861664891e-04</internalNodes>
          <leafValues>
            2.0674748718738556e-01 -6.5867894887924194e-01</leafValues></_>
        <_>
          <internalNodes>
            0 -1 97 2.2088848054409027e-03</internalNodes>
          <leafValues>
            -2.2991074621677399e-01 5.6249809265136719e-01</leafValues></_></weakClassifiers></_>
    <!-- stage 4 -->
    <_>
      <maxWeakCount>15</maxWeakCount>
      <stageThreshold>-1.4821219444274902e+00</stageThreshold>
      <weakClassifiers>
        <_>
          <internalNodes>
            0 -1 114 1.5637770295143127e-02</internalNodes>
          <leafValues>
            -2.1490353345870972e-01 6.4989942312240601e-01</leafValues></_>
        <_>
          <internalNodes>
            0 -1 39 3.7014717236161232e-03</internalNodes>
          <leafValues>
            1.9295628368854523e-01 -7.8780460357666016e-01</leafValues></_>
        <_>
          <internalNodes>
            0 -1 166 -6.8558962084352970e-04</internalNodes>
          <leafValues>
            -7.5436198711395264e-01 1.2976717948913574e-01</leafValues></_>
        <_>
          <internalNodes>
            0 -1 141 -3.4338496625423431e-03</internalNodes>
          <leafValues>
            3.7860739231109619e-01 -3.0945312976837158e-01</leafValues></_>
        <_>
          <internalNodes>
            0 -1 106 -3.3760257065296173e-02</internalNodes>
          <leafValues>
            3.7838593125343323e-01 -3.8317149877548218e-01</leafValues></_>
        <_>
          <internalNodes>
            0 -1 165 -5.9487763792276382e-04</internalNodes>
          <leafValues>
            -6.1888670921325684e-01 2.4483041465282440e-01</leafValues></_>
        <_>
          <internalNodes>
            0 -1 173 6.8277795799076557e-04</internalNodes>
          <leafValues>
            1.4648221433162689e-01 -6.7521619796752930e-01</leafValues></_>
        <_>
          <internalNodes>
            0 -1 71 -9.3400999903678894e-03</internalNodes>
          <leafValues>
            4.8943519592285156e-01 -2.5209799408912659e-01</leafValues></_>
        <_>
          <internalNodes>
            0 -1 95 -1.8688254058361053e-03</internalNodes>
          <leafValues>
            5.5624520778656006e-01 -2.2667722404003143e-01</leafValues></_>
        <_>
          <internalNodes>
            0 -1 90 3.2794673461467028e-03</internalNodes>
          <leafValues>
            -1.8052063882350922e-01 7.3427039384841919e-01</leafValues></_>
        <_>
          <internalNodes>
            0 -1 214 5.7940534316003323e-04</internalNodes>
          <leafValues>
            2.2942137718200684e-01 -6.4314627647399902e-01</leafValues></_>
        <_>
          <internalNodes>
            0 -1 214 -6.3190032960847020e-04</internalNodes>
          <leafValues>
            -6.8096184730529785e-01 1.5873901546001434e-01</leafValues></_>
        <_>
          <internalNodes>
            0 -1 102 -7.3210010305047035e-03</internalNodes>
          <leafValues>
            8.0131280422210693e-01 -1.5124796330928802e-01</leafValues></_>
        <_>
          <internalNodes>
            0 -1 140 -2.9363525100052357e-03</internalNodes>
          <leafValues>
            -9.1172355413436890e-01 1.3560102880001068e-01</leafValues></_>
        <_>
          <internalNodes>
            0 -1 60 -1.5246624127030373e-02</internalNodes>
          <leafValues>
            5.1081746816635132e-01 -2.1322056651115417e-01</leafValues></_></weakClassifiers></_>
    <!-- stage 5 -->
    <_>
      <maxWeakCount>18</maxWeakCount>
      <stageThreshold>-1.1396561861038208e+00</stageThreshold>
      <weakClassifiers>
        <_>
          <internalNodes>
            0 -1 29 4.8231091350317001e-03</internalNodes>
          <leafValues>
            -3.2316491007804871e-01 3.5646688938140869e-01</leafValues></_>
        <_>
          <internalNodes>
            0 -1 156 -5.3002452477812767e-03</internalNodes>
          <leafValues>
            8.4516984224319458e-01 -1.2877739965915680e-01</leafValues></_>
        <_>
          <internalNodes>
            0 -1 150 -7.4522872455418110e-04</internalNodes>
          <leafValues>
            -7.9713577032089233e-01 1.4865504205226898e-01</leafValues></_>
        <_>
          <internalNodes>
            0 -1 38 4.7638095915317535e-02</internalNodes>
          <leafValues>
            -7.7202200889587402e-01 1.4875976741313934e-01</leafValues></_>
        <_>
          <internalNodes>
            0 -1 112 -5.7715969160199165e-03</internalNodes>
          <leafValues>
            3.2581195235252380e-01 -3.3649092912673950e-01</leafValues></_>
        <_>
          <internalNodes>
            0 -1 213 1.6806975472718477e-03</internalNodes>
          <leafValues>
            2.1100935339927673e-01 -6.3964253664016724e-01</leafValues></_>
        <_>
          <internalNodes>
            0 -1 143 1.6560655087232590e-02</internalNodes>
          <leafValues>
            -1.7326045036315918e-01 7.4662739038467407e-01</leafValues></_>
        <_>
          <internalNodes>
            0 -1 226 -7.4980990029871464e-04</internalNodes>
          <leafValues>
            -7.8159791231155396e-01 1.4616692066192627e-01</leafValues></_>
        <_>
          <internalNodes>
            0 -1 92 -3.1525321304798126e-02</internalNodes>
          <leafValues>
            7.4669289588928223e-01 -1.4172175526618958e-01</leafValues></_>
        <_>
          <internalNodes>
            0 -1 93 5.3608743473887444e-03</internalNodes>
          <leafValues>
            -2.5061473250389099e-01 5.1387321949005127e-01</leafValues></_>
        <_>
          <internalNodes>
            0 -1 174 -6.7654787562787533e-04</internalNodes>
          <leafValues>
            -6.6641306877136230e-01 1.9365209341049194e-01</leafValues></_>
        <_>
          <internalNodes>
            0 -1 67 7.2441194206476212e-03</internalNodes>
          <leafValues>
            -6.1993050575256348e-01 1.4913402497768402e-01</leafValues></_>
        <_>
          <internalNodes>
            0 -1 55 -5.1429234445095062e-03</internalNodes>
          <leafValues>
            4.6345937252044678e-01 -2.5550121068954468e-01</leafValues></_>
        <_>
          <internalNodes>
            0 -1 215 5.6209333706647158e-04</internalNodes>
          <leafValues>
            1.8093457818031311e-01 -6.0213655233383179e-01</leafValues></_>
        <_>
          <internalNodes>
            0 -1 160 5.3599581588059664e-04</internalNodes>
          <leafValues>
            1.9211369752883911e-01 -5.4039406776428223e-01</leafValues></_>
        <_>
          <internalNodes>
            0 -1 74 7.7642658725380898e-03</internalNodes>
          <leafValues>
            -1.5561106801033020e-01 6.8880140781402588e-01</leafValues></_>
        <_>
          <internalNodes>
            0 -1 160 -7.9729722347110510e-04</internalNodes>
          <leafValues>
            -7.5434875488281250e-01 1.8109093606472015e-01</leafValues></_>
        <_>
          <internalNodes>
            0 -1 76 2.3695032577961683e-03</internalNodes>
          <leafValues>
            -1.8894578516483307e-01 6.6015332937240601e-01</leafValues></_></weakClassifiers></_>
    <!-- stage 6 -->
    <_>
      <maxWeakCount>19</maxWeakCount>
      <stageThreshold>-1.4948878288269043e+00</stageThreshold>
      <weakClassifiers>
        <_>
          <internalNodes>
            0 -1 108 -1.4243090525269508e-02</internalNodes>
          <leafValues>
            3.7083333730697632e-01 -3.4230768680572510e-01</leafValues></_>
        <_>
          <internalNodes>
            0 -1 156 -4.3571665883064270e-03</internalNodes>
          <leafValues>
            7.5581151247024536e-01 -1.3850498199462891e-01</leafValues></_>
        <_>
          <internalNodes>
            0 -1 222 -1.4956588856875896e-03</internalNodes>
          <leafValues>
            -7.2654563188552856e-01 1.6167026758193970e-01</leafValues></_>
        <_>
          <internalNodes>
            0 -1 158 -4.7313505783677101e-03</internalNodes>
          <leafValues>
            8.7143212556838989e-01 -1.3978375494480133e-01</leafValues></_>
        <_>
          <internalNodes>
            0 -1 19 3.4250864386558533e-01</internalNodes>
          <leafValues>
            1.7206998169422150e-01 -9.0309423208236694e-01</leafValues></_>
        <_>
          <internalNodes>
            0 -1 65 1.6291074454784393e-02</internalNodes>
          <leafValues>
            1.5440660715103149e-01 -6.1392772197723389e-01</leafValues></_>
        <_>
          <internalNodes>
            0 -1 9 -1.4797502662986517e-03</internalNodes>
          <leafValues>
            1.3861702382564545e-01 -6.7708367109298706e-01</leafValues></_>
        <_>
          <internalNodes>
            0 -1 78 -3.4473869018256664e-03</internalNodes>
          <leafValues>
            8.9399808645248413e-01 -1.1511997878551483e-01</leafValues></_>
        <_>
          <internalNodes>
            0 -1 149 6.2988093122839928e-04</internalNodes>
          <leafValues>
            2.1638713777065277e-01 -5.0568258762359619e-01</leafValues></_>
        <_>
          <internalNodes>
            0 -1 189 -8.4608234465122223e-04</internalNodes>
          <leafValues>
            -5.9834831953048706e-01 1.5517072379589081e-01</leafValues></_>
        <_>
          <internalNodes>
            0 -1 232 -8.2754675531759858e-04</internalNodes>
          <leafValues>
            -7.2169947624206543e-01 1.2578517198562622e-01</leafValues></_>
        <_>
          <internalNodes>
            0 -1 77 -9.8797092214226723e-03</internalNodes>
          <leafValues>
            5.3169661760330200e-01 -1.9586782157421112e-01</leafValues></_>
        <_>
          <internalNodes>
            0 -1 76 2.4627926759421825e-03</internalNodes>
          <leafValues>
            -1.8722604215145111e-01 6.6516858339309692e-01</leafValues></_>
        <_>
          <internalNodes>
            0 -1 183 -8.4009254351258278e-04</internalNodes>
          <leafValues>
            -5.2568161487579346e-01 2.2850859165191650e-01</leafValues></_>
        <_>
          <internalNodes>
            0 -1 233 1.1674303095787764e-03</internalNodes>
          <leafValues>
            1.4129769802093506e-01 -6.1385458707809448e-01</leafValues></_>
        <_>
          <internalNodes>
            0 -1 154 -1.1202292516827583e-02</internalNodes>
          <leafValues>
            3.8691574335098267e-01 -2.4878367781639099e-01</leafValues></_>
        <_>
          <internalNodes>
            0 -1 44 5.4691941477358341e-04</internalNodes>
          <leafValues>
            1.7764016985893250e-01 -5.6513881683349609e-01</leafValues></_>
        <_>
          <internalNodes>
            0 -1 70 2.0271809771656990e-03</internalNodes>
          <leafValues>
            -1.6066402196884155e-01 6.2927800416946411e-01</leafValues></_>
        <_>
          <internalNodes>
            0 -1 208 9.8572717979550362e-04</internalNodes>
          <leafValues>
            1.2509331107139587e-01 -7.8612667322158813e-01</leafValues></_></weakClassifiers></_>
    <!-- stage 7 -->
    <_>
      <maxWeakCount>17</maxWeakCount>
      <stageThreshold>-1.5888282060623169e+00</stageThreshold>
      <weakClassifiers>
        <_>
          <internalNodes>
            0 -1 49 9.8082497715950012e-02</internalNodes>
          <leafValues>
            -3.7384897470474243e-01 4.4420132040977478e-01</leafValues></_>
        <_>
          <internalNodes>
            0 -1 186 -7.9466856550425291e-04</internalNodes>
          <leafValues>
            -4.9000850319862366e-01 2.2031795978546143e-01</leafValues></_>
        <_>
          <internalNodes>
            0 -1 193 6.2931785359978676e-03</internalNodes>
          <leafValues>
            1.2450746446847916e-01 -8.1128776073455811e-01</leafValues></_>
        <_>
          <internalNodes>
            0 -1 86 -1.2465529143810272e-01</internalNodes>
          <leafValues>
            -8.6478388309478760e-01 1.3674624264240265e-01</leafValues></_>
        <_>
          <internalNodes>
            0 -1 6 4.1980948299169540e-02</internalNodes>
          <leafValues>
            -2.5747776031494141e-01 4.5455726981163025e-01</leafValues></_>
        <_>
          <internalNodes>
            0 -1 212 1.0751951485872269e-03</internalNodes>
          <leafValues>
            1.6377951204776764e-01 -6.4571303129196167e-01</leafValues></_>
        <_>
          <internalNodes>
            0 -1 61 -1.9939269870519638e-02</internalNodes>
          <leafValues>
            4.6657714247703552e-01 -2.3967525362968445e-01</leafValues></_>
        <_>
          <internalNodes>
            0 -1 217 1.2553377309814095e-03</internalNodes>
          <leafValues>
            2.0491454005241394e-01 -5.1029396057128906e-01</leafValues></_>
        <_>
          <internalNodes>
            0 -1 161 1.1998270638287067e-03</internalNodes>
          <leafValues>
            2.0923146605491638e-01 -5.1097780466079712e-01</leafValues></_>
        <_>
          <internalNodes>
            0 -1 110 -6.2910653650760651e-03</internalNodes>
          <leafValues>
            7.5404602289199829e-01 -1.9740182161331177e-01</leafValues></_>
        <_>
          <internalNodes>
            0 -1 113 -5.4834876209497452e-03</internalNodes>
          <leafValues>
            5.4776370525360107e-01 -1.5631790459156036e-01</leafValues></_>
        <_>
          <internalNodes>
            0 -1 134 -3.1421356834471226e-03</internalNodes>
          <leafValues>
            -7.6841586828231812e-01 1.4735378324985504e-01</leafValues></_>
        <_>
          <internalNodes>
            0 -1 146 -3.4214658662676811e-03</internalNodes>
          <leafValues>
            7.2067779302597046e-01 -1.8842253088951111e-01</leafValues></_>
        <_>
          <internalNodes>
            0 -1 145 -4.1830185800790787e-03</internalNodes>
          <leafValues>
            6.6039621829986572e-01 -1.5265157818794250e-01</leafValues></_>
        <_>
          <internalNodes>
            0 -1 168 5.0161639228463173e-03</internalNodes>
          <leafValues>
            1.8043035268783569e-01 -6.9914650917053223e-01</leafValues></_>
        <_>
          <internalNodes>
            0 -1 187 -7.8459584619849920e-04</internalNodes>
          <leafValues>
            -6.5717053413391113e-01 1.3554951548576355e-01</leafValues></_>
        <_>
          <internalNodes>
            0 -1 40 -5.8699682354927063e-02</internalNodes>
          <leafValues>
            -9.7096520662307739e-01 9.7001112997531891e-02</leafValues></_></weakClassifiers></_>
    <!-- stage 8 -->
    <_>
      <maxWeakCount>16</maxWeakCount>
      <stageThreshold>-1.4748787879943848e+00</stageThreshold>
      <weakClassifiers>
        <_>
          <internalNodes>
            0 -1 126 -2.2002167534083128e-03</internalNodes>
          <leafValues>
            3.9963832497596741e-01 -4.9440714716911316e-01</leafValues></_>
        <_>
          <internalNodes>
            0 -1 135 3.3053823281079531e-03</internalNodes>
          <leafValues>
            -4.8122000694274902e-01 2.7164214849472046e-01</leafValues></_>
        <_>
          <internalNodes>
            0 -1 77 -8.3631761372089386e-03</internalNodes>
          <leafValues>
            5.5368947982788086e-01 -2.3374189436435699e-01</leafValues></_>
        <_>
          <internalNodes>
            0 -1 89 -2.0324750803411007e-03</internalNodes>
          <leafValues>
            5.8591502904891968e-01 -2.9005274176597595e-01</leafValues></_>
        <_>
          <internalNodes>
            0 -1 188 -4.5677763409912586e-03</internalNodes>
          <leafValues>
            3.0403769016265869e-01 -4.9290636181831360e-01</leafValues></_>
        <_>
          <internalNodes>
            0 -1 96 1.6725223977118731e-03</internalNodes>
          <leafValues>
            -2.0392569899559021e-01 6.9604808092117310e-01</leafValues></_>
        <_>
          <internalNodes>
            0 -1 8 6.9973587989807129e-02</internalNodes>
          <leafValues>
            1.9693158566951752e-01 -9.3980079889297485e-01</leafValues></_>
        <_>
          <internalNodes>
            0 -1 27 1.1540035484358668e-03</internalNodes>
          <leafValues>
            -4.1204959154129028e-01 3.3335572481155396e-01</leafValues></_>
        <_>
          <internalNodes>
            0 -1 218 -9.4189699739217758e-03</internalNodes>
          <leafValues>
            3.5438877344131470e-01 -3.3398666977882385e-01</leafValues></_>
        <_>
          <internalNodes>
            0 -1 96 -2.5217127986252308e-03</internalNodes>
          <leafValues>
            6.9598847627639771e-01 -1.4598268270492554e-01</leafValues></_>
        <_>
          <internalNodes>
            0 -1 41 2.4508293718099594e-02</internalNodes>
          <leafValues>
            -5.0687652826309204e-01 2.2203442454338074e-01</leafValues></_>
        <_>
          <internalNodes>
            0 -1 156 -2.8206799179315567e-03</internalNodes>
          <leafValues>
            5.8986639976501465e-01 -1.8372668325901031e-01</leafValues></_>
        <_>
          <internalNodes>
            0 -1 159 1.3111159205436707e-03</internalNodes>
          <leafValues>
            2.0149162411689758e-01 -6.3399660587310791e-01</leafValues></_>
        <_>
          <internalNodes>
            0 -1 80 3.3900262787938118e-03</internalNodes>
          <leafValues>
            -1.6834230720996857e-01 8.1758463382720947e-01</leafValues></_>
        <_>
          <internalNodes>
            0 -1 56 2.6384480297565460e-03</internalNodes>
          <leafValues>
            -1.3328602910041809e-01 5.5703788995742798e-01</leafValues></_>
        <_>
          <internalNodes>
            0 -1 138 -5.6890747509896755e-03</internalNodes>
          <leafValues>
            3.6392325162887573e-01 -2.3964753746986389e-01</leafValues></_></weakClassifiers></_>
    <!-- stage 9 -->
    <_>
      <maxWeakCount>20</maxWeakCount>
      <stageThreshold>-1.3343855142593384e+00</stageThreshold>
      <weakClassifiers>
        <_>
          <internalNodes>
            0 -1 5 4.0520045906305313e-02</internalNodes>
          <leafValues>
            -2.9362416267395020e-01 4.3316832184791565e-01</leafValues></_>
        <_>
          <internalNodes>
            0 -1 122 -5.3987130522727966e-03</internalNodes>
          <leafValues>
            3.6323863267898560e-01 -2.8259137272834778e-01</leafValues></_>
        <_>
          <internalNodes>
            0 -1 207 -1.0881751077249646e-03</internalNodes>
          <leafValues>
            -5.0561386346817017e-01 1.9540764391422272e-01</leafValues></_>
        <_>
          <internalNodes>
            0 -1 20 -9.7528593614697456e-03</internalNodes>
          <leafValues>
            4.9511528015136719e-01 -1.8745937943458557e-01</leafValues></_>
        <_>
          <internalNodes>
            0 -1 0 -1.0084214154630899e-03</internalNodes>
          <leafValues>
            -5.6379365921020508e-01 1.5948891639709473e-01</leafValues></_>
        <_>
          <internalNodes>
            0 -1 11 9.8218861967325211e-04</internalNodes>
          <leafValues>
            2.0751744508743286e-01 -5.0799417495727539e-01</leafValues></_>
        <_>
          <internalNodes>
            0 -1 167 -9.3694368842989206e-04</internalNodes>
          <leafValues>
            -7.5403326749801636e-01 8.1114232540130615e-02</leafValues></_>
        <_>
          <internalNodes>
            0 -1 87 -6.8849414587020874e-02</internalNodes>
          <leafValues>
            -8.1115871667861938e-01 1.1921416968107224e-01</leafValues></_>
        <_>
          <internalNodes>
            0 -1 144 -4.1742576286196709e-03</internalNodes>
          <leafValues>
            8.4108620882034302e-01 -1.1901850253343582e-01</leafValues></_>
        <_>
          <internalNodes>
            0 -1 172 1.2677421327680349e-03</internalNodes>
          <leafValues>
            1.9264402985572815e-01 -5.5139023065567017e-01</leafValues></_>
        <_>
          <internalNodes>
            0 -1 225 -8.6880859453231096e-04</internalNodes>
          <leafValues>
            -5.0014984607696533e-01 1.8667967617511749e-01</leafValues></_>
        <_>
          <internalNodes>
            0 -1 133 -3.2287538051605225e-03</internalNodes>
          <leafValues>
            6.9263356924057007e-01 -1.6663399338722229e-01</leafValues></_>
        <_>
          <internalNodes>
            0 -1 200 3.4239608794450760e-03</internalNodes>
          <leafValues>
            1.9928364455699921e-01 -6.0597389936447144e-01</leafValues></_>
        <_>
          <internalNodes>
            0 -1 84 4.6113715507090092e-04</internalNodes>
          <leafValues>
            2.1352301537990570e-01 -4.9685016274452209e-01</leafValues></_>
        <_>
          <internalNodes>
            0 -1 43 4.6364113222807646e-04</internalNodes>
          <leafValues>
            1.8060518801212311e-01 -5.5005997419357300e-01</leafValues></_>
        <_>
          <internalNodes>
            0 -1 117 5.4780382197350264e-04</internalNodes>
          <leafValues>
            2.0494756102561951e-01 -5.3016954660415649e-01</leafValues></_>
        <_>
          <internalNodes>
            0 -1 182 1.8753476440906525e-02</internalNodes>
          <leafValues>
            1.4265033602714539e-01 -6.9797617197036743e-01</leafValues></_>
        <_>
          <internalNodes>
            0 -1 96 2.5032123085111380e-03</internalNodes>
          <leafValues>
            -1.4280509948730469e-01 7.8795230388641357e-01</leafValues></_>
        <_>
          <internalNodes>
            0 -1 71 -3.9099976420402527e-03</internalNodes>
          <leafValues>
            3.6953184008598328e-01 -2.7127140760421753e-01</leafValues></_>
        <_>
          <internalNodes>
            0 -1 107 1.1091510765254498e-02</internalNodes>
          <leafValues>
            -2.0996917784214020e-01 5.2193903923034668e-01</leafValues></_></weakClassifiers></_>
    <!-- stage 10 -->
    <_>
      <maxWeakCount>16</maxWeakCount>
      <stageThreshold>-1.2987499237060547e+00</stageThreshold>
      <weakClassifiers>
        <_>
          <internalNodes>
            0 -1 103 9.7088571637868881e-03</internalNodes>
          <leafValues>
            -1.7520557343959808e-01 6.6109782457351685e-01</leafValues></_>
        <_>
          <internalNodes>
            0 -1 176 8.8136788690462708e-04</internalNodes>
          <leafValues>
            2.4757222831249237e-01 -4.3461844325065613e-01</leafValues></_>
        <_>
          <internalNodes>
            0 -1 15 3.5137142986059189e-02</internalNodes>
          <leafValues>
            -4.8944765329360962e-01 1.8327192962169647e-01</leafValues></_>
        <_>
          <internalNodes>
            0 -1 192 -1.0285457829013467e-03</internalNodes>
          <leafValues>
            -6.1288660764694214e-01 1.8406014144420624e-01</leafValues></_>
        <_>
          <internalNodes>
            0 -1 99 6.5430076792836189e-03</internalNodes>
          <leafValues>
            -1.8463709950447083e-01 8.7308937311172485e-01</leafValues></_>
        <_>
          <internalNodes>
            0 -1 105 5.4595468100160360e-04</internalNodes>
          <leafValues>
            2.5826656818389893e-01 -4.5136004686355591e-01</leafValues></_>
        <_>
          <internalNodes>
            0 -1 99 -3.5325987264513969e-03</internalNodes>
          <leafValues>
            6.5732634067535400e-01 -1.5079802274703979e-01</leafValues></_>
        <_>
          <internalNodes>
            0 -1 198 -1.3269223272800446e-03</internalNodes>
          <leafValues>
            -5.5735468864440918e-01 1.7696145176887512e-01</leafValues></_>
        <_>
          <internalNodes>
            0 -1 98 5.9374561533331871e-03</internalNodes>
          <leafValues>
            -8.6122326552867889e-02 8.7812656164169312e-01</leafValues></_>
        <_>
          <internalNodes>
            0 -1 18 -2.6301555335521698e-02</internalNodes>
          <leafValues>
            -7.8544759750366211e-01 1.4541442692279816e-01</leafValues></_>
        <_>
          <internalNodes>
            0 -1 31 2.7694337069988251e-02</internalNodes>
          <leafValues>
            -1.4328518509864807e-01 7.6321464776992798e-01</leafValues></_>
        <_>
          <internalNodes>
            0 -1 230 -7.2017143247649074e-04</internalNodes>
          <leafValues>
            -5.0184422731399536e-01 2.0988216996192932e-01</leafValues></_>
        <_>
          <internalNodes>
            0 -1 1 4.7712206840515137e-01</internalNodes>
          <leafValues>
            9.7764790058135986e-02 -8.0807298421859741e-01</leafValues></_>
        <_>
          <internalNodes>
            0 -1 197 -4.1955139022320509e-04</internalNodes>
          <leafValues>
            -5.7501053810119629e-01 1.5362915396690369e-01</leafValues></_>
        <_>
          <internalNodes>
            0 -1 164 2.1207905374467373e-03</internalNodes>
          <leafValues>
            2.0860159397125244e-01 -4.6522763371467590e-01</leafValues></_>
        <_>
          <internalNodes>
            0 -1 59 8.7943673133850098e-03</internalNodes>
          <leafValues>
            -1.6337820887565613e-01 6.7655718326568604e-01</leafValues></_></weakClassifiers></_>
    <!-- stage 11 -->
    <_>
      <maxWeakCount>20</maxWeakCount>
      <stageThreshold>-1.2495280504226685e+00</stageThreshold>
      <weakClassifiers>
        <_>
          <internalNodes>
            0 -1 185 -8.7384297512471676e-04</internalNodes>
          <leafValues>
            -4.4839254021644592e-01 1.8807664513587952e-01</leafValues></_>
        <_>
          <internalNodes>
            0 -1 169 6.0226004570722580e-03</internalNodes>
          <leafValues>
            1.2934648990631104e-01 -6.9086599349975586e-01</leafValues></_>
        <_>
          <internalNodes>
            0 -1 131 -1.9878577440977097e-03</internalNodes>
          <leafValues>
            5.2121281623840332e-01 -1.7669247090816498e-01</leafValues></_>
        <_>
          <internalNodes>
            0 -1 131 5.2848425693809986e-03</internalNodes>
          <leafValues>
            -1.4043477177619934e-01 7.3509377241134644e-01</leafValues></_>
        <_>
          <internalNodes>
            0 -1 211 1.1487066512927413e-03</internalNodes>
          <leafValues>
            1.5866455435752869e-01 -5.8793008327484131e-01</leafValues></_>
        <_>
          <internalNodes>
            0 -1 33 4.1298080235719681e-02</internalNodes>
          <leafValues>
            -3.2144117355346680e-01 2.5252717733383179e-01</leafValues></_>
        <_>
          <internalNodes>
            0 -1 178 -8.3067063242197037e-03</internalNodes>
          <leafValues>
            3.7992575764656067e-01 -2.4785172939300537e-01</leafValues></_>
        <_>
          <internalNodes>
            0 -1 184 -7.5927173020318151e-04</internalNodes>
          <leafValues>
            -5.1275199651718140e-01 1.8498560786247253e-01</leafValues></_>
        <_>
          <internalNodes>
            0 -1 227 1.8377507803961635e-03</internalNodes>
          <leafValues>
            1.1089717596769333e-01 -5.4436773061752319e-01</leafValues></_>
        <_>
          <internalNodes>
            0 -1 4 1.4595407247543335e-01</internalNodes>
          <leafValues>
            1.1112260818481445e-01 -9.1252523660659790e-01</leafValues></_>
        <_>
          <internalNodes>
            0 -1 16 4.8444554209709167e-02</internalNodes>
          <leafValues>
            -2.4161358177661896e-01 3.7783381342887878e-01</leafValues></_>
        <_>
          <internalNodes>
            0 -1 152 -9.6744187176227570e-03</internalNodes>
          <leafValues>
            2.7948671579360962e-01 -3.0026739835739136e-01</leafValues></_>
        <_>
          <internalNodes>
            0 -1 129 -3.3808881416916847e-03</internalNodes>
          <leafValues>
            2.9863628745079041e-01 -2.7529180049896240e-01</leafValues></_>
        <_>
          <internalNodes>
            0 -1 190 -9.7314978484064341e-04</internalNodes>
          <leafValues>
            -7.3757880926132202e-01 9.5364324748516083e-02</leafValues></_>
        <_>
          <internalNodes>
            0 -1 179 1.0222062701359391e-03</internalNodes>
          <leafValues>
            1.2695923447608948e-01 -5.9337061643600464e-01</leafValues></_>
        <_>
          <internalNodes>
            0 -1 68 -4.0934579446911812e-03</internalNodes>
          <leafValues>
            3.6200615763664246e-01 -2.2079148888587952e-01</leafValues></_>
        <_>
          <internalNodes>
            0 -1 82 -2.3504272103309631e-03</internalNodes>
          <leafValues>
            6.7893451452255249e-01 -1.1915746331214905e-01</leafValues></_>
        <_>
          <internalNodes>
            0 -1 163 -6.3045858405530453e-03</internalNodes>
          <leafValues>
            -7.6729524135589600e-01 1.1147918552160263e-01</leafValues></_>
        <_>
          <internalNodes>
            0 -1 109 -6.2623764388263226e-03</internalNodes>
          <leafValues>
            6.1943507194519043e-01 -1.3924665749073029e-01</leafValues></_>
        <_>
          <internalNodes>
            0 -1 203 7.8228283673524857e-03</internalNodes>
          <leafValues>
            8.6418323218822479e-02 -9.0629518032073975e-01</leafValues></_></weakClassifiers></_>
    <!-- stage 12 -->
    <_>
      <maxWeakCount>21</maxWeakCount>
      <stageThreshold>-1.1881415843963623e+00</stageThreshold>
      <weakClassifiers>
        <_>
          <internalNodes>
            0 -1 120 -5.3946059197187424e-03</internalNodes>
          <leafValues>
            4.2782834172248840e-01 -2.6726239919662476e-01</leafValues></_>
        <_>
          <internalNodes>
            0 -1 25 3.7608530372381210e-02</internalNodes>
          <leafValues>
            -7.0909774303436279e-01 1.3786359131336212e-01</leafValues></_>
        <_>
          <internalNodes>
            0 -1 50 -1.4211194589734077e-02</internalNodes>
          <leafValues>
            -7.0340144634246826e-01 1.3263985514640808e-01</leafValues></_>
        <_>
          <internalNodes>
            0 -1 55 -4.7305813059210777e-03</internalNodes>
          <leafValues>
            3.8107392191886902e-01 -2.3860988020896912e-01</leafValues></_>
        <_>
          <internalNodes>
            0 -1 58 -1.6355924308300018e-02</internalNodes>
          <leafValues>
            4.5808097720146179e-01 -2.0672613382339478e-01</leafValues></_>
        <_>
          <internalNodes>
            0 -1 76 3.3071008510887623e-03</internalNodes>
          <leafValues>
            -1.2050864100456238e-01 6.6177064180374146e-01</leafValues></_>
        <_>
          <internalNodes>
            0 -1 228 -7.7612133463844657e-04</internalNodes>
          <leafValues>
            -5.4894900321960449e-01 1.5415059030056000e-01</leafValues></_>
        <_>
          <internalNodes>
            0 -1 177 1.3698155526071787e-03</internalNodes>
          <leafValues>
            1.3074794411659241e-01 -5.4398763179779053e-01</leafValues></_>
        <_>
          <internalNodes>
            0 -1 111 3.9550215005874634e-03</internalNodes>
          <leafValues>
            -2.8689584136009216e-01 2.9221490025520325e-01</leafValues></_>
        <_>
          <internalNodes>
            0 -1 175 1.8472347408533096e-02</internalNodes>
          <leafValues>
            -2.2402524948120117e-01 3.5513111948966980e-01</leafValues></_>
        <_>
          <internalNodes>
            0 -1 96 2.9836301691830158e-03</internalNodes>
          <leafValues>
            -9.9367476999759674e-02 7.4968785047531128e-01</leafValues></_>
        <_>
          <internalNodes>
            0 -1 137 -1.0222604032605886e-03</internalNodes>
          <leafValues>
            -6.8569684028625488e-01 1.2448330223560333e-01</leafValues></_>
        <_>
          <internalNodes>
            0 -1 115 -2.5650018360465765e-03</internalNodes>
          <leafValues>
            5.0258034467697144e-01 -1.6432529687881470e-01</leafValues></_>
        <_>
          <internalNodes>
            0 -1 3 -1.8055012449622154e-02</internalNodes>
          <leafValues>
            4.8341608047485352e-01 -1.4131553471088409e-01</leafValues></_>
        <_>
          <internalNodes>
            0 -1 181 -1.0865146294236183e-02</internalNodes>
          <leafValues>
            -7.2072792053222656e-01 1.1086115986108780e-01</leafValues></_>
        <_>
          <internalNodes>
            0 -1 157 6.7639364860951900e-03</internalNodes>
          <leafValues>
            -1.0041357576847076e-01 8.4636819362640381e-01</leafValues></_>
        <_>
          <internalNodes>
            0 -1 194 -2.9922499379608780e-05</internalNodes>
          <leafValues>
            1.8916021287441254e-01 -4.1558289527893066e-01</leafValues></_>
        <_>
          <internalNodes>
            0 -1 118 2.7655102312564850e-02</internalNodes>
          <leafValues>
            -1.3976460695266724e-01 5.9928578138351440e-01</leafValues></_>
        <_>
          <internalNodes>
            0 -1 232 7.3005561716854572e-04</internalNodes>
          <leafValues>
            1.5331299602985382e-01 -5.6725865602493286e-01</leafValues></_>
        <_>
          <internalNodes>
            0 -1 100 -2.5393897667527199e-03</internalNodes>
          <leafValues>
            3.9242407679557800e-01 -2.0921652019023895e-01</leafValues></_>
        <_>
          <internalNodes>
            0 -1 123 -4.5698703615926206e-05</internalNodes>
          <leafValues>
            1.8165239691734314e-01 -4.4960808753967285e-01</leafValues></_></weakClassifiers></_>
    <!-- stage 13 -->
    <_>
      <maxWeakCount>25</maxWeakCount>
      <stageThreshold>-1.2794781923294067e+00</stageThreshold>
      <weakClassifiers>
        <_>
          <internalNodes>
            0 -1 146 6.5885968506336212e-03</internalNodes>
          <leafValues>
            -8.9906230568885803e-02 8.7165772914886475e-01</leafValues></_>
        <_>
          <internalNodes>
            0 -1 146 -3.8036787882447243e-03</internalNodes>
          <leafValues>
            6.2804979085922241e-01 -1.5676330029964447e-01</leafValues></_>
        <_>
          <internalNodes>
            0 -1 104 2.8400083465385251e-05</internalNodes>
          <leafValues>
            -5.8477705717086792e-01 1.4003545045852661e-01</leafValues></_>
        <_>
          <internalNodes>
            0 -1 155 7.3806913569569588e-03</internalNodes>
          <leafValues>
            -9.9912159144878387e-02 7.7848535776138306e-01</leafValues></_>
        <_>
          <internalNodes>
            0 -1 130 -5.4478459787787870e-05</internalNodes>
          <leafValues>
            3.2101616263389587e-01 -2.0638971030712128e-01</leafValues></_>
        <_>
          <internalNodes>
            0 -1 231 9.8414183594286442e-04</internalNodes>
          <leafValues>
            1.4403691887855530e-01 -6.3495808839797974e-01</leafValues></_>
        <_>
          <internalNodes>
            0 -1 75 6.0224812477827072e-03</internalNodes>
          <leafValues>
            -1.5003655850887299e-01 6.8817251920700073e-01</leafValues></_>
        <_>
          <internalNodes>
            0 -1 57 -6.1627244576811790e-03</internalNodes>
          <leafValues>
            4.7345927357673645e-01 -1.5986891090869904e-01</leafValues></_>
        <_>
          <internalNodes>
            0 -1 132 1.6832184046506882e-02</internalNodes>
          <leafValues>
            -9.5672950148582458e-02 7.5029182434082031e-01</leafValues></_>
        <_>
          <internalNodes>
            0 -1 54 -2.1137211471796036e-02</internalNodes>
          <leafValues>
            1.6734579205513000e-01 -5.4847043752670288e-01</leafValues></_>
        <_>
          <internalNodes>
            0 -1 219 -1.3903549406677485e-03</internalNodes>
          <leafValues>
            -7.4692869186401367e-01 8.6145773530006409e-02</leafValues></_>
        <_>
          <internalNodes>
            0 -1 64 5.9991798480041325e-05</internalNodes>
          <leafValues>
            -2.7036365866661072e-01 2.6558449864387512e-01</leafValues></_>
        <_>
          <internalNodes>
            0 -1 62 -4.1546560823917389e-03</internalNodes>
          <leafValues>
            5.2839797735214233e-01 -1.2302819639444351e-01</leafValues></_>
        <_>
          <internalNodes>
            0 -1 21 -7.7993096783757210e-03</internalNodes>
          <leafValues>
            3.5501492023468018e-01 -2.0660142600536346e-01</leafValues></_>
        <_>
          <internalNodes>
            0 -1 2 -9.5712728798389435e-03</internalNodes>
          <leafValues>
            3.0092504620552063e-01 -2.2544120252132416e-01</leafValues></_>
        <_>
          <internalNodes>
            0 -1 12 4.7655142843723297e-02</internalNodes>
          <leafValues>
            -1.2778176367282867e-01 6.3388103246688843e-01</leafValues></_>
        <_>
          <internalNodes>
            0 -1 216 2.0551451016217470e-03</internalNodes>
          <leafValues>
            1.3051839172840118e-01 -6.3171499967575073e-01</leafValues></_>
        <_>
          <internalNodes>
            0 -1 17 1.7335270345211029e-01</internalNodes>
          <leafValues>
            9.9795781075954437e-02 -6.2400752305984497e-01</leafValues></_>
        <_>
          <internalNodes>
            0 -1 51 1.0780496522784233e-02</internalNodes>
          <leafValues>
            -9.2952519655227661e-01 7.1711562573909760e-02</leafValues></_>
        <_>
          <internalNodes>
            0 -1 83 5.5809346958994865e-03</internalNodes>
          <leafValues>
            6.7607462406158447e-02 -7.5814014673233032e-01</leafValues></_>
        <_>
          <internalNodes>
            0 -1 127 -4.2934929952025414e-03</internalNodes>
          <leafValues>
            6.7357665300369263e-01 -1.1846341192722321e-01</leafValues></_>
        <_>
          <internalNodes>
            0 -1 139 2.7033137157559395e-03</internalNodes>
          <leafValues>
            1.3728527724742889e-01 -5.5214548110961914e-01</leafValues></_>
        <_>
          <internalNodes>
            0 -1 94 1.9002818735316396e-03</internalNodes>
          <leafValues>
            -1.5699933469295502e-01 4.1499128937721252e-01</leafValues></_>
        <_>
          <internalNodes>
            0 -1 52 6.8601965904235840e-03</internalNodes>
          <leafValues>
            1.0976220667362213e-01 -5.8643305301666260e-01</leafValues></_>
        <_>
          <internalNodes>
            0 -1 209 -9.2323299031704664e-04</internalNodes>
          <leafValues>
            -4.9151206016540527e-01 1.2345668673515320e-01</leafValues></_></weakClassifiers></_>
    <!-- stage 14 -->
    <_>
      <maxWeakCount>25</maxWeakCount>
      <stageThreshold>-1.2692716121673584e+00</stageThreshold>
      <weakClassifiers>
        <_>
          <internalNodes>
            0 -1 142 3.6698495969176292e-03</internalNodes>
          <leafValues>
            -2.3701298236846924e-01 3.8020834326744080e-01</leafValues></_>
        <_>
          <internalNodes>
            0 -1 170 2.3697783035458997e-05</internalNodes>
          <leafValues>
            -3.0854532122612000e-01 2.5498265027999878e-01</leafValues></_>
        <_>
          <internalNodes>
            0 -1 66 2.1573541685938835e-02</internalNodes>
          <leafValues>
            -5.2917772531509399e-01 1.2826174497604370e-01</leafValues></_>
        <_>
          <internalNodes>
            0 -1 136 -5.9976743068546057e-04</internalNodes>
          <leafValues>
            -5.4553395509719849e-01 1.4671206474304199e-01</leafValues></_>
        <_>
          <internalNodes>
            0 -1 91 1.0258477181196213e-02</internalNodes>
          <leafValues>
            -9.3482188880443573e-02 6.6401088237762451e-01</leafValues></_>
        <_>
          <internalNodes>
            0 -1 24 3.7066053599119186e-02</internalNodes>
          <leafValues>
            -2.1768538653850555e-01 3.0979219079017639e-01</leafValues></_>
        <_>
          <internalNodes>
            0 -1 45 -1.6543878614902496e-01</internalNodes>
          <leafValues>
            -9.7314047813415527e-01 6.6301599144935608e-02</leafValues></_>
        <_>
          <internalNodes>
            0 -1 125 -5.9309946373105049e-03</internalNodes>
          <leafValues>
            3.1600129604339600e-01 -2.1506442129611969e-01</leafValues></_>
        <_>
          <internalNodes>
            0 -1 201 8.8170147500932217e-04</internalNodes>
          <leafValues>
            1.0323096066713333e-01 -7.2407931089401245e-01</leafValues></_>
        <_>
          <internalNodes>
            0 -1 229 -1.0788643267005682e-03</internalNodes>
          <leafValues>
            -4.4921323657035828e-01 1.4064773917198181e-01</leafValues></_>
        <_>
          <internalNodes>
            0 -1 147 1.7961423509404995e-05</internalNodes>
          <leafValues>
            -2.2586354613304138e-01 2.9277190566062927e-01</leafValues></_>
        <_>
          <internalNodes>
            0 -1 63 -1.9967155531048775e-02</internalNodes>
          <leafValues>
            4.2413079738616943e-01 -1.5176607668399811e-01</leafValues></_>
        <_>
          <internalNodes>
            0 -1 116 -5.3645437583327293e-04</internalNodes>
          <leafValues>
            -3.2161170244216919e-01 2.0389993488788605e-01</leafValues></_>
        <_>
          <internalNodes>
            0 -1 81 -3.3523552119731903e-03</internalNodes>
          <leafValues>
            4.8199740052223206e-01 -1.4771185815334320e-01</leafValues></_>
        <_>
          <internalNodes>
            0 -1 79 -3.6636791191995144e-03</internalNodes>
          <leafValues>
            5.8199256658554077e-01 -1.0535246133804321e-01</leafValues></_>
        <_>
          <internalNodes>
            0 -1 162 1.0328863281756639e-03</internalNodes>
          <leafValues>
            1.8337485194206238e-01 -4.2825293540954590e-01</leafValues></_>
        <_>
          <internalNodes>
            0 -1 196 7.5225962791591883e-04</internalNodes>
          <leafValues>
            -9.6851551532745361e-01 4.3230213224887848e-02</leafValues></_>
        <_>
          <internalNodes>
            0 -1 72 -6.9203609600663185e-03</internalNodes>
          <leafValues>
            6.5792834758758545e-01 -1.1656917631626129e-01</leafValues></_>
        <_>
          <internalNodes>
            0 -1 13 -4.1382908821105957e-02</internalNodes>
          <leafValues>
            5.7809215784072876e-01 -1.0780204832553864e-01</leafValues></_>
        <_>
          <internalNodes>
            0 -1 32 3.5155314952135086e-02</internalNodes>
          <leafValues>
            -1.1909895390272141e-01 5.6953310966491699e-01</leafValues></_>
        <_>
          <internalNodes>
            0 -1 148 1.2415506877005100e-02</internalNodes>
          <leafValues>
            -3.3268338441848755e-01 2.3857669532299042e-01</leafValues></_>
        <_>
          <internalNodes>
            0 -1 171 4.2670813854783773e-04</internalNodes>
          <leafValues>
            1.7566750943660736e-01 -3.8068819046020508e-01</leafValues></_>
        <_>
          <internalNodes>
            0 -1 99 -2.4090004153549671e-03</internalNodes>
          <leafValues>
            4.0266752243041992e-01 -1.6771459579467773e-01</leafValues></_>
        <_>
          <internalNodes>
            0 -1 151 3.0293944291770458e-03</internalNodes>
          <leafValues>
            1.2692159414291382e-01 -5.3615379333496094e-01</leafValues></_>
        <_>
          <internalNodes>
            0 -1 36 3.8260862231254578e-02</internalNodes>
          <leafValues>
            5.6439768522977829e-02 -8.7315672636032104e-01</leafValues></_></weakClassifiers></_></stages>
  <features>
    <_>
      <rects>
        <_>
          0 0 2 2 -1.</_>
        <_>
          1 0 1 2 2.</_></rects>
      <tilted>0</tilted></_>
    <_>
      <rects>
        <_>
          0 0 22 21 -1.</_>
        <_>
          11 0 11 21 2.</_></rects>
      <tilted>0</tilted></_>
    <_>
      <rects>
        <_>
          0 2 16 6 -1.</_>
        <_>
          0 4 16 2 3.</_></rects>
      <tilted>0</tilted></_>
    <_>
      <rects>
        <_>
          0 8 6 7 -1.</_>
        <_>
          2 8 2 7 3.</_></rects>
      <tilted>0</tilted></_>
    <_>
      <rects>
        <_>
          0 8 22 5 -1.</_>
        <_>
          11 8 11 5 2.</_></rects>
      <tilted>0</tilted></_>
    <_>
      <rects>
        <_>
          0 8 14 12 -1.</_>
        <_>
          0 11 14 6 2.</_></rects>
      <tilted>0</tilted></_>
    <_>
      <rects>
        <_>
          1 0 20 8 -1.</_>
        <_>
          1 0 10 4 2.</_>
        <_>
          11 4 10 4 2.</_></rects>
      <tilted>0</tilted></_>
    <_>
      <rects>
        <_>
          1 7 18 4 -1.</_>
        <_>
          10 7 9 4 2.</_></rects>
      <tilted>0</tilted></_>
    <_>
      <rects>
        <_>
          1 7 18 14 -1.</_>
        <_>
          1 14 18 7 2.</_></rects>
      <tilted>0</tilted></_>
    <_>
      <rects>
        <_>
          1 7 19 16 -1.</_>
        <_>
          1 15 19 8 2.</_></rects>
      <tilted>0</tilted></_>
    <_>
      <rects>
        <_>
          1 8 19 6 -1.</_>
        <_>
          1 11 19 3 2.</_></rects>
      <tilted>0</tilted></_>
    <_>
      <rects>
        <_>
          2 0 1 2 -1.</_>
        <_>
          2 0 1 1 2.</_></rects>
      <tilted>1</tilted></_>
    <_>
      <rects>
        <_>
          2 0 11 9 -1.</_>
        <_>
          2 3 11 3 3.</_></rects>
      <tilted>0</tilted></_>
    <_>
      <rects>
        <_>
          2 1 9 8 -1.</_>
        <_>
          2 5 9 4 2.</_></rects>
      <tilted>0</tilted></_>
    <_>
      <rects>
        <_>
          2 5 14 7 -1.</_>
        <_>
          9 5 7 7 2.</_></rects>
      <tilted>0</tilted></_>
    <_>
      <rects>
        <_>
          2 5 16 15 -1.</_>
        <_>
          2 10 16 5 3.</_></rects>
      <tilted>0</tilted></_>
    <_>
      <rects>
        <_>
          2 7 16 9 -1.</_>
        <_>
          6 7 8 9 2.</_></rects>
      <tilted>0</tilted></_>
    <_>
      <rects>
        <_>
          2 9 20 9 -1.</_>
        <_>
          12 9 10 9 2.</_></rects>
      <tilted>0</tilted></_>
    <_>
      <rects>
        <_>
          2 11 8 5 -1.</_>
        <_>
          6 11 4 5 2.</_></rects>
      <tilted>0</tilted></_>
    <_>
      <rects>
        <_>
          2 11 20 16 -1.</_>
        <_>
          12 11 10 16 2.</_></rects>
      <tilted>0</tilted></_>
    <_>
      <rects>
        <_>
          2 12 8 6 -1.</_>
        <_>
          2 14 8 2 3.</_></rects>
      <tilted>0</tilted></_>
    <_>
      <rects>
        <_>
          2 13 6 3 -1.</_>
        <_>
          4 14 2 1 9.</_></rects>
      <tilted>0</tilted></_>
    <_>
      <rects>
        <_>
          3 0 18 24 -1.</_>
        <_>
          9 8 6 8 9.</_></rects>
      <tilted>0</tilted></_>
    <_>
      <rects>
        <_>
          3 8 16 12 -1.</_>
        <_>
          11 8 8 12 2.</_></rects>
      <tilted>0</tilted></_>
    <_>
      <rects>
        <_>
          3 9 15 10 -1.</_>
        <_>
          8 9 5 10 3.</_></rects>
      <tilted>0</tilted></_>
    <_>
      <rects>
        <_>
          3 9 16 9 -1.</_>
        <_>
          11 9 8 9 2.</_></rects>
      <tilted>0</tilted></_>
    <_>
      <rects>
        <_>
          3 9 18 11 -1.</_>
        <_>
          12 9 9 11 2.</_></rects>
      <tilted>0</tilted></_>
    <_>
      <rects>
        <_>
          3 9 11 6 -1.</_>
        <_>
          3 12 11 3 2.</_></rects>
      <tilted>0</tilted></_>
    <_>
      <rects>
        <_>
          3 10 18 10 -1.</_>
        <_>
          3 15 18 5 2.</_></rects>
      <tilted>0</tilted></_>
    <_>
      <rects>
        <_>
          3 12 8 3 -1.</_>
        <_>
          5 12 4 3 2.</_></rects>
      <tilted>0</tilted></_>
    <_>
      <rects>
        <_>
          3 13 6 6 -1.</_>
        <_>
          3 15 6 2 3.</_></rects>
      <tilted>0</tilted></_>
    <_>
      <rects>
        <_>
          4 0 18 4 -1.</_>
        <_>
          4 0 9 2 2.</_>
        <_>
          13 2 9 2 2.</_></rects>
      <tilted>0</tilted></_>
    <_>
      <rects>
        <_>
          4 2 10 9 -1.</_>
        <_>
          4 5 10 3 3.</_></rects>
      <tilted>0</tilted></_>
    <_>
      <rects>
        <_>
          4 5 18 6 -1.</_>
        <_>
          10 5 6 6 3.</_></rects>
      <tilted>0</tilted></_>
    <_>
      <rects>
        <_>
          4 5 14 19 -1.</_>
        <_>
          11 5 7 19 2.</_></rects>
      <tilted>0</tilted></_>
    <_>
      <rects>
        <_>
          4 5 18 15 -1.</_>
        <_>
          4 10 18 5 3.</_></rects>
      <tilted>0</tilted></_>
    <_>
      <rects>
        <_>
          4 7 10 2 -1.</_>
        <_>
          4 7 5 2 2.</_></rects>
      <tilted>1</tilted></_>
    <_>
      <rects>
        <_>
          4 8 7 6 -1.</_>
        <_>
          4 11 7 3 2.</_></rects>
      <tilted>0</tilted></_>
    <_>
      <rects>
        <_>
          4 8 14 13 -1.</_>
        <_>
          11 8 7 13 2.</_></rects>
      <tilted>0</tilted></_>
    <_>
      <rects>
        <_>
          4 9 13 12 -1.</_>
        <_>
          4 15 13 6 2.</_></rects>
      <tilted>0</tilted></_>
    <_>
      <rects>
        <_>
          4 10 6 12 -1.</_>
        <_>
          7 10 3 12 2.</_></rects>
      <tilted>0</tilted></_>
    <_>
      <rects>
        <_>
          4 13 12 7 -1.</_>
        <_>
          10 13 6 7 2.</_></rects>
      <tilted>0</tilted></_>
    <_>
      <rects>
        <_>
          4 17 12 1 -1.</_>
        <_>
          10 17 6 1 2.</_></rects>
      <tilted>0</tilted></_>
    <_>
      <rects>
        <_>
          4 21 2 1 -1.</_>
        <_>
          5 21 1 1 2.</_></rects>
      <tilted>0</tilted></_>
    <_>
      <rects>
        <_>
          4 26 2 1 -1.</_>
        <_>
          5 26 1 1 2.</_></rects>
      <tilted>0</tilted></_>
    <_>
      <rects>
        <_>
          5 4 16 5 -1.</_>
        <_>
          5 4 8 5 2.</_></rects>
      <tilted>1</tilted></_>
    <_>
      <rects>
        <_>
          5 5 11 16 -1.</_>
        <_>
          5 9 11 8 2.</_></rects>
      <tilted>0</tilted></_>
    <_>
      <rects>
        <_>
          5 5 14 16 -1.</_>
        <_>
          5 9 14 8 2.</_></rects>
      <tilted>0</tilted></_>
    <_>
      <rects>
        <_>
          5 5 15 16 -1.</_>
        <_>
          5 9 15 8 2.</_></rects>
      <tilted>0</tilted></_>
    <_>
      <rects>
        <_>
          5 5 16 18 -1.</_>
        <_>
          5 11 16 6 3.</_></rects>
      <tilted>0</tilted></_>
    <_>
      <rects>
        <_>
          5 6 13 8 -1.</_>
        <_>
          5 10 13 4 2.</_></rects>
      <tilted>0</tilted></_>
    <_>
      <rects>
        <_>
          5 7 12 13 -1.</_>
        <_>
          11 7 6 13 2.</_></rects>
      <tilted>0</tilted></_>
    <_>
      <rects>
        <_>
          5 8 4 2 -1.</_>
        <_>
          5 8 2 2 2.</_></rects>
      <tilted>1</tilted></_>
    <_>
      <rects>
        <_>
          5 9 5 4 -1.</_>
        <_>
          5 11 5 2 2.</_></rects>
      <tilted>0</tilted></_>
    <_>
      <rects>
        <_>
          5 10 17 12 -1.</_>
        <_>
          5 16 17 6 2.</_></rects>
      <tilted>0</tilted></_>
    <_>
      <rects>
        <_>
          5 11 3 3 -1.</_>
        <_>
          6 12 1 1 9.</_></rects>
      <tilted>0</tilted></_>
    <_>
      <rects>
        <_>
          5 11 4 2 -1.</_>
        <_>
          5 11 2 1 2.</_>
        <_>
          7 12 2 1 2.</_></rects>
      <tilted>0</tilted></_>
    <_>
      <rects>
        <_>
          5 12 3 3 -1.</_>
        <_>
          6 13 1 1 9.</_></rects>
      <tilted>0</tilted></_>
    <_>
      <rects>
        <_>
          5 12 6 3 -1.</_>
        <_>
          7 13 2 1 9.</_></rects>
      <tilted>0</tilted></_>
    <_>
      <rects>
        <_>
          5 12 4 4 -1.</_>
        <_>
          5 12 2 2 2.</_>
        <_>
          7 14 2 2 2.</_></rects>
      <tilted>0</tilted></_>
    <_>
      <rects>
        <_>
          5 13 6 3 -1.</_>
        <_>
          7 14 2 1 9.</_></rects>
      <tilted>0</tilted></_>
    <_>
      <rects>
        <_>
          5 13 5 9 -1.</_>
        <_>
          5 16 5 3 3.</_></rects>
      <tilted>0</tilted></_>
    <_>
      <rects>
        <_>
          5 14 2 3 -1.</_>
        <_>
          5 15 2 1 3.</_></rects>
      <tilted>0</tilted></_>
    <_>
      <rects>
        <_>
          5 14 6 3 -1.</_>
        <_>
          7 15 2 1 9.</_></rects>
      <tilted>0</tilted></_>
    <_>
      <rects>
        <_>
          5 16 5 4 -1.</_>
        <_>
          5 18 5 2 2.</_></rects>
      <tilted>0</tilted></_>
    <_>
      <rects>
        <_>
          6 5 14 5 -1.</_>
        <_>
          6 5 7 5 2.</_></rects>
      <tilted>1</tilted></_>
    <_>
      <rects>
        <_>
          6 5 12 16 -1.</_>
        <_>
          6 9 12 8 2.</_></rects>
      <tilted>0</tilted></_>
    <_>
      <rects>
        <_>
          6 6 12 15 -1.</_>
        <_>
          6 11 12 5 3.</_></rects>
      <tilted>0</tilted></_>
    <_>
      <rects>
        <_>
          6 10 3 3 -1.</_>
        <_>
          7 11 1 1 9.</_></rects>
      <tilted>0</tilted></_>
    <_>
      <rects>
        <_>
          6 10 3 6 -1.</_>
        <_>
          7 12 1 2 9.</_></rects>
      <tilted>0</tilted></_>
    <_>
      <rects>
        <_>
          6 11 2 2 -1.</_>
        <_>
          6 11 1 1 2.</_>
        <_>
          7 12 1 1 2.</_></rects>
      <tilted>0</tilted></_>
    <_>
      <rects>
        <_>
          6 11 3 3 -1.</_>
        <_>
          7 12 1 1 9.</_></rects>
      <tilted>0</tilted></_>
    <_>
      <rects>
        <_>
          6 11 4 2 -1.</_>
        <_>
          6 11 2 1 2.</_>
        <_>
          8 12 2 1 2.</_></rects>
      <tilted>0</tilted></_>
    <_>
      <rects>
        <_>
          6 11 4 4 -1.</_>
        <_>
          6 11 2 2 2.</_>
        <_>
          8 13 2 2 2.</_></rects>
      <tilted>0</tilted></_>
    <_>
      <rects>
        <_>
          6 11 4 3 -1.</_>
        <_>
          6 12 4 1 3.</_></rects>
      <tilted>0</tilted></_>
    <_>
      <rects>
        <_>
          6 12 1 3 -1.</_>
        <_>
          6 13 1 1 3.</_></rects>
      <tilted>0</tilted></_>
    <_>
      <rects>
        <_>
          6 12 2 2 -1.</_>
        <_>
          6 12 1 1 2.</_>
        <_>
          7 13 1 1 2.</_></rects>
      <tilted>0</tilted></_>
    <_>
      <rects>
        <_>
          6 12 3 3 -1.</_>
        <_>
          7 13 1 1 9.</_></rects>
      <tilted>0</tilted></_>
    <_>
      <rects>
        <_>
          6 13 1 2 -1.</_>
        <_>
          6 14 1 1 2.</_></rects>
      <tilted>0</tilted></_>
    <_>
      <rects>
        <_>
          6 13 1 3 -1.</_>
        <_>
          6 14 1 1 3.</_></rects>
      <tilted>0</tilted></_>
    <_>
      <rects>
        <_>
          6 13 2 2 -1.</_>
        <_>
          6 13 1 1 2.</_>
        <_>
          7 14 1 1 2.</_></rects>
      <tilted>0</tilted></_>
    <_>
      <rects>
        <_>
          6 13 4 2 -1.</_>
        <_>
          6 13 2 1 2.</_>
        <_>
          8 14 2 1 2.</_></rects>
      <tilted>0</tilted></_>
    <_>
      <rects>
        <_>
          6 14 2 2 -1.</_>
        <_>
          6 14 1 1 2.</_>
        <_>
          7 15 1 1 2.</_></rects>
      <tilted>0</tilted></_>
    <_>
      <rects>
        <_>
          6 17 14 2 -1.</_>
        <_>
          6 18 14 1 2.</_></rects>
      <tilted>0</tilted></_>
    <_>
      <rects>
        <_>
          6 21 2 1 -1.</_>
        <_>
          7 21 1 1 2.</_></rects>
      <tilted>0</tilted></_>
    <_>
      <rects>
        <_>
          7 0 15 24 -1.</_>
        <_>
          12 8 5 8 9.</_></rects>
      <tilted>0</tilted></_>
    <_>
      <rects>
        <_>
          7 5 14 5 -1.</_>
        <_>
          7 5 7 5 2.</_></rects>
      <tilted>1</tilted></_>
    <_>
      <rects>
        <_>
          7 8 14 3 -1.</_>
        <_>
          7 8 7 3 2.</_></rects>
      <tilted>1</tilted></_>
    <_>
      <rects>
        <_>
          7 9 11 6 -1.</_>
        <_>
          7 9 11 3 2.</_></rects>
      <tilted>1</tilted></_>
    <_>
      <rects>
        <_>
          7 11 1 3 -1.</_>
        <_>
          7 12 1 1 3.</_></rects>
      <tilted>0</tilted></_>
    <_>
      <rects>
        <_>
          7 11 1 4 -1.</_>
        <_>
          7 12 1 2 2.</_></rects>
      <tilted>0</tilted></_>
    <_>
      <rects>
        <_>
          7 11 3 1 -1.</_>
        <_>
          8 12 1 1 3.</_></rects>
      <tilted>1</tilted></_>
    <_>
      <rects>
        <_>
          7 11 6 3 -1.</_>
        <_>
          9 12 2 1 9.</_></rects>
      <tilted>0</tilted></_>
    <_>
      <rects>
        <_>
          7 11 6 2 -1.</_>
        <_>
          9 11 2 2 3.</_></rects>
      <tilted>0</tilted></_>
    <_>
      <rects>
        <_>
          7 12 2 1 -1.</_>
        <_>
          8 12 1 1 2.</_></rects>
      <tilted>0</tilted></_>
    <_>
      <rects>
        <_>
          7 12 1 3 -1.</_>
        <_>
          7 13 1 1 3.</_></rects>
      <tilted>0</tilted></_>
    <_>
      <rects>
        <_>
          7 12 2 2 -1.</_>
        <_>
          7 12 1 1 2.</_>
        <_>
          8 13 1 1 2.</_></rects>
      <tilted>0</tilted></_>
    <_>
      <rects>
        <_>
          7 12 2 2 -1.</_>
        <_>
          7 13 2 1 2.</_></rects>
      <tilted>0</tilted></_>
    <_>
      <rects>
        <_>
          7 12 4 2 -1.</_>
        <_>
          7 12 2 1 2.</_>
        <_>
          9 13 2 1 2.</_></rects>
      <tilted>0</tilted></_>
    <_>
      <rects>
        <_>
          7 13 1 3 -1.</_>
        <_>
          7 14 1 1 3.</_></rects>
      <tilted>0</tilted></_>
    <_>
      <rects>
        <_>
          7 13 2 3 -1.</_>
        <_>
          7 14 2 1 3.</_></rects>
      <tilted>0</tilted></_>
    <_>
      <rects>
        <_>
          7 13 4 6 -1.</_>
        <_>
          7 15 4 2 3.</_></rects>
      <tilted>0</tilted></_>
    <_>
      <rects>
        <_>
          7 14 2 4 -1.</_>
        <_>
          7 15 2 2 2.</_></rects>
      <tilted>0</tilted></_>
    <_>
      <rects>
        <_>
          7 14 4 4 -1.</_>
        <_>
          7 15 4 2 2.</_></rects>
      <tilted>0</tilted></_>
    <_>
      <rects>
        <_>
          7 18 10 1 -1.</_>
        <_>
          12 18 5 1 2.</_></rects>
      <tilted>0</tilted></_>
    <_>
      <rects>
        <_>
          7 21 2 1 -1.</_>
        <_>
          8 21 1 1 2.</_></rects>
      <tilted>0</tilted></_>
    <_>
      <rects>
        <_>
          8 3 6 7 -1.</_>
        <_>
          8 3 3 7 2.</_></rects>
      <tilted>1</tilted></_>
    <_>
      <rects>
        <_>
          8 9 4 4 -1.</_>
        <_>
          9 10 2 4 2.</_></rects>
      <tilted>1</tilted></_>
    <_>
      <rects>
        <_>
          8 10 6 6 -1.</_>
        <_>
          10 12 2 2 9.</_></rects>
      <tilted>0</tilted></_>
    <_>
      <rects>
        <_>
          8 11 1 3 -1.</_>
        <_>
          7 12 1 1 3.</_></rects>
      <tilted>1</tilted></_>
    <_>
      <rects>
        <_>
          8 11 2 4 -1.</_>
        <_>
          8 12 2 2 2.</_></rects>
      <tilted>0</tilted></_>
    <_>
      <rects>
        <_>
          8 11 6 4 -1.</_>
        <_>
          8 11 3 2 2.</_>
        <_>
          11 13 3 2 2.</_></rects>
      <tilted>0</tilted></_>
    <_>
      <rects>
        <_>
          8 11 4 6 -1.</_>
        <_>
          8 13 4 2 3.</_></rects>
      <tilted>0</tilted></_>
    <_>
      <rects>
        <_>
          8 12 2 6 -1.</_>
        <_>
          8 14 2 2 3.</_></rects>
      <tilted>0</tilted></_>
    <_>
      <rects>
        <_>
          8 13 3 6 -1.</_>
        <_>
          8 15 3 2 3.</_></rects>
      <tilted>0</tilted></_>
    <_>
      <rects>
        <_>
          8 14 1 3 -1.</_>
        <_>
          8 15 1 1 3.</_></rects>
      <tilted>0</tilted></_>
    <_>
      <rects>
        <_>
          8 17 2 2 -1.</_>
        <_>
          8 18 2 1 2.</_></rects>
      <tilted>0</tilted></_>
    <_>
      <rects>
        <_>
          8 22 2 1 -1.</_>
        <_>
          9 22 1 1 2.</_></rects>
      <tilted>0</tilted></_>
    <_>
      <rects>
        <_>
          9 0 6 5 -1.</_>
        <_>
          9 0 3 5 2.</_></rects>
      <tilted>1</tilted></_>
    <_>
      <rects>
        <_>
          9 7 6 20 -1.</_>
        <_>
          12 7 3 20 2.</_></rects>
      <tilted>0</tilted></_>
    <_>
      <rects>
        <_>
          9 9 4 4 -1.</_>
        <_>
          9 9 4 2 2.</_></rects>
      <tilted>1</tilted></_>
    <_>
      <rects>
        <_>
          9 10 3 6 -1.</_>
        <_>
          10 12 1 2 9.</_></rects>
      <tilted>0</tilted></_>
    <_>
      <rects>
        <_>
          9 10 2 6 -1.</_>
        <_>
          9 12 2 2 3.</_></rects>
      <tilted>0</tilted></_>
    <_>
      <rects>
        <_>
          9 10 3 4 -1.</_>
        <_>
          9 12 3 2 2.</_></rects>
      <tilted>0</tilted></_>
    <_>
      <rects>
        <_>
          9 10 3 6 -1.</_>
        <_>
          9 12 3 2 3.</_></rects>
      <tilted>0</tilted></_>
    <_>
      <rects>
        <_>
          9 10 3 4 -1.</_>
        <_>
          9 10 3 2 2.</_></rects>
      <tilted>1</tilted></_>
    <_>
      <rects>
        <_>
          9 10 4 6 -1.</_>
        <_>
          9 12 4 2 3.</_></rects>
      <tilted>0</tilted></_>
    <_>
      <rects>
        <_>
          9 11 1 3 -1.</_>
        <_>
          9 12 1 1 3.</_></rects>
      <tilted>0</tilted></_>
    <_>
      <rects>
        <_>
          9 11 2 6 -1.</_>
        <_>
          9 13 2 2 3.</_></rects>
      <tilted>0</tilted></_>
    <_>
      <rects>
        <_>
          9 11 5 6 -1.</_>
        <_>
          9 13 5 2 3.</_></rects>
      <tilted>0</tilted></_>
    <_>
      <rects>
        <_>
          9 13 2 2 -1.</_>
        <_>
          9 13 1 1 2.</_>
        <_>
          10 14 1 1 2.</_></rects>
      <tilted>0</tilted></_>
    <_>
      <rects>
        <_>
          9 14 1 3 -1.</_>
        <_>
          9 15 1 1 3.</_></rects>
      <tilted>0</tilted></_>
    <_>
      <rects>
        <_>
          9 14 2 6 -1.</_>
        <_>
          9 16 2 2 3.</_></rects>
      <tilted>0</tilted></_>
    <_>
      <rects>
        <_>
          9 15 1 3 -1.</_>
        <_>
          9 16 1 1 3.</_></rects>
      <tilted>0</tilted></_>
    <_>
      <rects>
        <_>
          9 17 8 3 -1.</_>
        <_>
          13 17 4 3 2.</_></rects>
      <tilted>0</tilted></_>
    <_>
      <rects>
        <_>
          9 17 10 3 -1.</_>
        <_>
          14 17 5 3 2.</_></rects>
      <tilted>0</tilted></_>
    <_>
      <rects>
        <_>
          9 18 1 2 -1.</_>
        <_>
          9 19 1 1 2.</_></rects>
      <tilted>0</tilted></_>
    <_>
      <rects>
        <_>
          10 9 4 1 -1.</_>
        <_>
          12 9 2 1 2.</_></rects>
      <tilted>0</tilted></_>
    <_>
      <rects>
        <_>
          10 9 2 9 -1.</_>
        <_>
          10 12 2 3 3.</_></rects>
      <tilted>0</tilted></_>
    <_>
      <rects>
        <_>
          10 9 3 3 -1.</_>
        <_>
          10 10 3 1 3.</_></rects>
      <tilted>0</tilted></_>
    <_>
      <rects>
        <_>
          10 9 8 2 -1.</_>
        <_>
          10 10 8 1 2.</_></rects>
      <tilted>0</tilted></_>
    <_>
      <rects>
        <_>
          10 11 3 1 -1.</_>
        <_>
          11 12 1 1 3.</_></rects>
      <tilted>1</tilted></_>
    <_>
      <rects>
        <_>
          10 11 2 6 -1.</_>
        <_>
          10 14 2 3 2.</_></rects>
      <tilted>0</tilted></_>
    <_>
      <rects>
        <_>
          10 12 2 6 -1.</_>
        <_>
          10 14 2 2 3.</_></rects>
      <tilted>0</tilted></_>
    <_>
      <rects>
        <_>
          10 14 1 3 -1.</_>
        <_>
          10 15 1 1 3.</_></rects>
      <tilted>0</tilted></_>
    <_>
      <rects>
        <_>
          10 14 2 3 -1.</_>
        <_>
          10 15 2 1 3.</_></rects>
      <tilted>0</tilted></_>
    <_>
      <rects>
        <_>
          10 15 1 3 -1.</_>
        <_>
          10 16 1 1 3.</_></rects>
      <tilted>0</tilted></_>
    <_>
      <rects>
        <_>
          10 16 1 2 -1.</_>
        <_>
          10 17 1 1 2.</_></rects>
      <tilted>0</tilted></_>
    <_>
      <rects>
        <_>
          10 17 12 9 -1.</_>
        <_>
          14 17 4 9 3.</_></rects>
      <tilted>0</tilted></_>
    <_>
      <rects>
        <_>
          10 20 2 1 -1.</_>
        <_>
          11 20 1 1 2.</_></rects>
      <tilted>0</tilted></_>
    <_>
      <rects>
        <_>
          11 6 2 1 -1.</_>
        <_>
          12 6 1 1 2.</_></rects>
      <tilted>0</tilted></_>
    <_>
      <rects>
        <_>
          11 7 6 4 -1.</_>
        <_>
          11 8 6 2 2.</_></rects>
      <tilted>0</tilted></_>
    <_>
      <rects>
        <_>
          11 8 6 3 -1.</_>
        <_>
          11 8 3 3 2.</_></rects>
      <tilted>1</tilted></_>
    <_>
      <rects>
        <_>
          11 10 3 3 -1.</_>
        <_>
          12 11 1 3 3.</_></rects>
      <tilted>1</tilted></_>
    <_>
      <rects>
        <_>
          11 10 3 6 -1.</_>
        <_>
          12 11 1 6 3.</_></rects>
      <tilted>1</tilted></_>
    <_>
      <rects>
        <_>
          11 13 1 3 -1.</_>
        <_>
          11 14 1 1 3.</_></rects>
      <tilted>0</tilted></_>
    <_>
      <rects>
        <_>
          11 14 1 3 -1.</_>
        <_>
          11 15 1 1 3.</_></rects>
      <tilted>0</tilted></_>
    <_>
      <rects>
        <_>
          11 14 4 2 -1.</_>
        <_>
          11 14 2 1 2.</_>
        <_>
          13 15 2 1 2.</_></rects>
      <tilted>0</tilted></_>
    <_>
      <rects>
        <_>
          11 15 1 3 -1.</_>
        <_>
          11 16 1 1 3.</_></rects>
      <tilted>0</tilted></_>
    <_>
      <rects>
        <_>
          11 18 2 1 -1.</_>
        <_>
          11 18 1 1 2.</_></rects>
      <tilted>1</tilted></_>
    <_>
      <rects>
        <_>
          11 22 2 1 -1.</_>
        <_>
          12 22 1 1 2.</_></rects>
      <tilted>0</tilted></_>
    <_>
      <rects>
        <_>
          12 4 2 3 -1.</_>
        <_>
          13 4 1 3 2.</_></rects>
      <tilted>0</tilted></_>
    <_>
      <rects>
        <_>
          12 6 1 2 -1.</_>
        <_>
          12 6 1 1 2.</_></rects>
      <tilted>1</tilted></_>
    <_>
      <rects>
        <_>
          12 6 2 20 -1.</_>
        <_>
          13 6 1 20 2.</_></rects>
      <tilted>0</tilted></_>
    <_>
      <rects>
        <_>
          12 6 4 3 -1.</_>
        <_>
          14 6 2 3 2.</_></rects>
      <tilted>0</tilted></_>
    <_>
      <rects>
        <_>
          12 7 1 2 -1.</_>
        <_>
          12 8 1 1 2.</_></rects>
      <tilted>0</tilted></_>
    <_>
      <rects>
        <_>
          12 8 2 1 -1.</_>
        <_>
          13 8 1 1 2.</_></rects>
      <tilted>0</tilted></_>
    <_>
      <rects>
        <_>
          12 8 2 2 -1.</_>
        <_>
          12 9 2 1 2.</_></rects>
      <tilted>0</tilted></_>
    <_>
      <rects>
        <_>
          12 14 6 2 -1.</_>
        <_>
          15 14 3 2 2.</_></rects>
      <tilted>0</tilted></_>
    <_>
      <rects>
        <_>
          12 14 8 2 -1.</_>
        <_>
          16 14 4 2 2.</_></rects>
      <tilted>0</tilted></_>
    <_>
      <rects>
        <_>
          12 15 8 1 -1.</_>
        <_>
          16 15 4 1 2.</_></rects>
      <tilted>0</tilted></_>
    <_>
      <rects>
        <_>
          12 19 2 1 -1.</_>
        <_>
          13 19 1 1 2.</_></rects>
      <tilted>0</tilted></_>
    <_>
      <rects>
        <_>
          12 24 2 2 -1.</_>
        <_>
          13 24 1 2 2.</_></rects>
      <tilted>0</tilted></_>
    <_>
      <rects>
        <_>
          13 0 2 1 -1.</_>
        <_>
          14 0 1 1 2.</_></rects>
      <tilted>0</tilted></_>
    <_>
      <rects>
        <_>
          13 0 1 2 -1.</_>
        <_>
          13 1 1 1 2.</_></rects>
      <tilted>0</tilted></_>
    <_>
      <rects>
        <_>
          13 0 8 8 -1.</_>
        <_>
          13 4 8 4 2.</_></rects>
      <tilted>0</tilted></_>
    <_>
      <rects>
        <_>
          13 5 1 2 -1.</_>
        <_>
          13 5 1 1 2.</_></rects>
      <tilted>1</tilted></_>
    <_>
      <rects>
        <_>
          13 6 3 2 -1.</_>
        <_>
          13 7 3 1 2.</_></rects>
      <tilted>0</tilted></_>
    <_>
      <rects>
        <_>
          13 7 3 10 -1.</_>
        <_>
          14 8 1 10 3.</_></rects>
      <tilted>1</tilted></_>
    <_>
      <rects>
        <_>
          13 7 4 1 -1.</_>
        <_>
          15 7 2 1 2.</_></rects>
      <tilted>0</tilted></_>
    <_>
      <rects>
        <_>
          13 8 2 1 -1.</_>
        <_>
          14 8 1 1 2.</_></rects>
      <tilted>0</tilted></_>
    <_>
      <rects>
        <_>
          13 8 4 13 -1.</_>
        <_>
          15 8 2 13 2.</_></rects>
      <tilted>0</tilted></_>
    <_>
      <rects>
        <_>
          13 8 4 18 -1.</_>
        <_>
          15 8 2 18 2.</_></rects>
      <tilted>0</tilted></_>
    <_>
      <rects>
        <_>
          13 10 4 1 -1.</_>
        <_>
          15 10 2 1 2.</_></rects>
      <tilted>0</tilted></_>
    <_>
      <rects>
        <_>
          13 11 4 1 -1.</_>
        <_>
          15 11 2 1 2.</_></rects>
      <tilted>0</tilted></_>
    <_>
      <rects>
        <_>
          13 14 6 1 -1.</_>
        <_>
          16 14 3 1 2.</_></rects>
      <tilted>0</tilted></_>
    <_>
      <rects>
        <_>
          13 15 6 1 -1.</_>
        <_>
          16 15 3 1 2.</_></rects>
      <tilted>0</tilted></_>
    <_>
      <rects>
        <_>
          13 16 4 1 -1.</_>
        <_>
          15 16 2 1 2.</_></rects>
      <tilted>0</tilted></_>
    <_>
      <rects>
        <_>
          14 2 4 7 -1.</_>
        <_>
          14 2 2 7 2.</_></rects>
      <tilted>1</tilted></_>
    <_>
      <rects>
        <_>
          14 5 2 4 -1.</_>
        <_>
          14 7 2 2 2.</_></rects>
      <tilted>0</tilted></_>
    <_>
      <rects>
        <_>
          14 7 2 1 -1.</_>
        <_>
          15 7 1 1 2.</_></rects>
      <tilted>0</tilted></_>
    <_>
      <rects>
        <_>
          14 7 1 2 -1.</_>
        <_>
          14 8 1 1 2.</_></rects>
      <tilted>0</tilted></_>
    <_>
      <rects>
        <_>
          14 7 1 2 -1.</_>
        <_>
          14 7 1 1 2.</_></rects>
      <tilted>1</tilted></_>
    <_>
      <rects>
        <_>
          14 9 4 6 -1.</_>
        <_>
          16 9 2 6 2.</_></rects>
      <tilted>0</tilted></_>
    <_>
      <rects>
        <_>
          14 9 8 2 -1.</_>
        <_>
          18 9 4 2 2.</_></rects>
      <tilted>0</tilted></_>
    <_>
      <rects>
        <_>
          14 10 4 1 -1.</_>
        <_>
          15 10 2 1 2.</_></rects>
      <tilted>0</tilted></_>
    <_>
      <rects>
        <_>
          14 10 3 8 -1.</_>
        <_>
          14 10 3 4 2.</_></rects>
      <tilted>1</tilted></_>
    <_>
      <rects>
        <_>
          14 15 2 1 -1.</_>
        <_>
          15 15 1 1 2.</_></rects>
      <tilted>0</tilted></_>
    <_>
      <rects>
        <_>
          14 17 4 2 -1.</_>
        <_>
          16 17 2 2 2.</_></rects>
      <tilted>0</tilted></_>
    <_>
      <rects>
        <_>
          14 21 2 1 -1.</_>
        <_>
          15 21 1 1 2.</_></rects>
      <tilted>0</tilted></_>
    <_>
      <rects>
        <_>
          15 1 4 6 -1.</_>
        <_>
          17 1 2 6 2.</_></rects>
      <tilted>0</tilted></_>
    <_>
      <rects>
        <_>
          15 2 2 1 -1.</_>
        <_>
          16 2 1 1 2.</_></rects>
      <tilted>0</tilted></_>
    <_>
      <rects>
        <_>
          15 8 3 3 -1.</_>
        <_>
          16 9 1 1 9.</_></rects>
      <tilted>0</tilted></_>
    <_>
      <rects>
        <_>
          15 8 2 12 -1.</_>
        <_>
          15 14 2 6 2.</_></rects>
      <tilted>0</tilted></_>
    <_>
      <rects>
        <_>
          15 9 2 1 -1.</_>
        <_>
          16 9 1 1 2.</_></rects>
      <tilted>0</tilted></_>
    <_>
      <rects>
        <_>
          15 9 1 2 -1.</_>
        <_>
          15 10 1 1 2.</_></rects>
      <tilted>0</tilted></_>
    <_>
      <rects>
        <_>
          15 10 3 8 -1.</_>
        <_>
          15 10 3 4 2.</_></rects>
      <tilted>1</tilted></_>
    <_>
      <rects>
        <_>
          15 13 4 1 -1.</_>
        <_>
          17 13 2 1 2.</_></rects>
      <tilted>0</tilted></_>
    <_>
      <rects>
        <_>
          15 17 2 1 -1.</_>
        <_>
          16 17 1 1 2.</_></rects>
      <tilted>0</tilted></_>
    <_>
      <rects>
        <_>
          15 18 2 2 -1.</_>
        <_>
          15 19 2 1 2.</_></rects>
      <tilted>0</tilted></_>
    <_>
      <rects>
        <_>
          16 6 4 1 -1.</_>
        <_>
          16 6 2 1 2.</_></rects>
      <tilted>1</tilted></_>
    <_>
      <rects>
        <_>
          16 8 2 2 -1.</_>
        <_>
          16 9 2 1 2.</_></rects>
      <tilted>0</tilted></_>
    <_>
      <rects>
        <_>
          16 9 4 2 -1.</_>
        <_>
          18 9 2 2 2.</_></rects>
      <tilted>0</tilted></_>
    <_>
      <rects>
        <_>
          16 9 3 2 -1.</_>
        <_>
          16 10 3 1 2.</_></rects>
      <tilted>0</tilted></_>
    <_>
      <rects>
        <_>
          16 19 2 1 -1.</_>
        <_>
          17 19 1 1 2.</_></rects>
      <tilted>0</tilted></_>
    <_>
      <rects>
        <_>
          17 7 1 2 -1.</_>
        <_>
          17 8 1 1 2.</_></rects>
      <tilted>0</tilted></_>
    <_>
      <rects>
        <_>
          17 7 3 1 -1.</_>
        <_>
          18 8 1 1 3.</_></rects>
      <tilted>1</tilted></_>
    <_>
      <rects>
        <_>
          18 6 2 2 -1.</_>
        <_>
          18 6 1 2 2.</_></rects>
      <tilted>1</tilted></_>
    <_>
      <rects>
        <_>
          18 6 4 20 -1.</_>
        <_>
          20 6 2 20 2.</_></rects>
      <tilted>0</tilted></_>
    <_>
      <rects>
        <_>
          18 8 2 1 -1.</_>
        <_>
          18 8 1 1 2.</_></rects>
      <tilted>1</tilted></_>
    <_>
      <rects>
        <_>
          18 8 2 2 -1.</_>
        <_>
          18 9 2 1 2.</_></rects>
      <tilted>0</tilted></_>
    <_>
      <rects>
        <_>
          18 8 4 1 -1.</_>
        <_>
          18 8 2 1 2.</_></rects>
      <tilted>1</tilted></_>
    <_>
      <rects>
        <_>
          18 8 2 4 -1.</_>
        <_>
          18 10 2 2 2.</_></rects>
      <tilted>0</tilted></_>
    <_>
      <rects>
        <_>
          18 10 1 2 -1.</_>
        <_>
          18 11 1 1 2.</_></rects>
      <tilted>0</tilted></_>
    <_>
      <rects>
        <_>
          18 10 2 3 -1.</_>
        <_>
          19 10 1 3 2.</_></rects>
      <tilted>0</tilted></_>
    <_>
      <rects>
        <_>
          18 13 2 2 -1.</_>
        <_>
          19 13 1 2 2.</_></rects>
      <tilted>0</tilted></_>
    <_>
      <rects>
        <_>
          19 7 1 2 -1.</_>
        <_>
          19 8 1 1 2.</_></rects>
      <tilted>0</tilted></_>
    <_>
      <rects>
        <_>
          19 9 1 6 -1.</_>
        <_>
          19 12 1 3 2.</_></rects>
      <tilted>0</tilted></_>
    <_>
      <rects>
        <_>
          19 10 2 1 -1.</_>
        <_>
          20 10 1 1 2.</_></rects>
      <tilted>0</tilted></_>
    <_>
      <rects>
        <_>
          19 14 1 4 -1.</_>
        <_>
          19 16 1 2 2.</_></rects>
      <tilted>0</tilted></_>
    <_>
      <rects>
        <_>
          19 16 1 2 -1.</_>
        <_>
          19 16 1 1 2.</_></rects>
      <tilted>1</tilted></_>
    <_>
      <rects>
        <_>
          20 8 1 2 -1.</_>
        <_>
          20 8 1 1 2.</_></rects>
      <tilted>1</tilted></_>
    <_>
      <rects>
        <_>
          20 12 1 2 -1.</_>
        <_>
          20 13 1 1 2.</_></rects>
      <tilted>0</tilted></_>
    <_>
      <rects>
        <_>
          20 18 1 2 -1.</_>
        <_>
          20 18 1 1 2.</_></rects>
      <tilted>1</tilted></_></features></cascade>
</opencv_storage>
