<?xml version="1.0"?>
<opencv_storage>
<cascade>
  <stageType>BOOST</stageType>
  <featureType>HAAR</featureType>
  <height>100</height>
  <width>100</width>
  <stageParams>
    <boostType>GAB</boostType>
    <minHitRate>9.9500000476837158e-01</minHitRate>
    <maxFalseAlarm>5.0000000000000000e-01</maxFalseAlarm>
    <weightTrimRate>9.4999999999999996e-01</weightTrimRate>
    <maxDepth>1</maxDepth>
    <maxWeakCount>100</maxWeakCount></stageParams>
  <featureParams>
    <maxCatCount>0</maxCatCount>
    <featSize>1</featSize>
    <mode>BASIC</mode></featureParams>
  <stageNum>7</stageNum>
  <stages>
    <!-- stage 0 -->
    <_>
      <maxWeakCount>3</maxWeakCount>
      <stageThreshold>-1.0363525152206421e-01</stageThreshold>
      <weakClassifiers>
        <_>
          <internalNodes>
            0 -1 7 3.4704450517892838e-03</internalNodes>
          <leafValues>
            -7.5936883687973022e-01 5.5555558204650879e-01</leafValues></_>
        <_>
          <internalNodes>
            0 -1 9 -7.8526863944716752e-05</internalNodes>
          <leafValues>
            -9.9058425426483154e-01 3.0302953720092773e-01</leafValues></_>
        <_>
          <internalNodes>
            0 -1 8 8.8778280769474804e-05</internalNodes>
          <leafValues>
            3.6557787656784058e-01 -9.6222031116485596e-01</leafValues></_></weakClassifiers></_>
    <!-- stage 1 -->
    <_>
      <maxWeakCount>4</maxWeakCount>
      <stageThreshold>-3.6324407905340195e-02</stageThreshold>
      <weakClassifiers>
        <_>
          <internalNodes>
            0 -1 15 -2.0083640265511349e-05</internalNodes>
          <leafValues>
            -9.0201729536056519e-01 3.6694020032882690e-01</leafValues></_>
        <_>
          <internalNodes>
            0 -1 1 2.7321148663759232e-03</internalNodes>
          <leafValues>
            -9.4734662771224976e-01 3.3876165747642517e-01</leafValues></_>
        <_>
          <internalNodes>
            0 -1 12 -1.0033354628831148e-03</internalNodes>
          <leafValues>
            -9.7801959514617920e-01 2.8922098875045776e-01</leafValues></_>
        <_>
          <internalNodes>
            0 -1 14 4.9883610336109996e-04</internalNodes>
          <leafValues>
            2.5486099720001221e-01 -9.8342359066009521e-01</leafValues></_></weakClassifiers></_>
    <!-- stage 2 -->
    <_>
      <maxWeakCount>3</maxWeakCount>
      <stageThreshold>-3.1988528370857239e-01</stageThreshold>
      <weakClassifiers>
        <_>
          <internalNodes>
            0 -1 13 2.1080140140838921e-04</internalNodes>
          <leafValues>
            4.1866028308868408e-01 -9.6153843402862549e-01</leafValues></_>
        <_>
          <internalNodes>
            0 -1 16 5.6620687246322632e-04</internalNodes>
          <leafValues>
            3.1779271364212036e-01 -9.7371435165405273e-01</leafValues></_>
        <_>
          <internalNodes>
            0 -1 3 -3.9547732740174979e-05</internalNodes>
          <leafValues>
            -9.7004824876785278e-01 3.2386046648025513e-01</leafValues></_></weakClassifiers></_>
    <!-- stage 3 -->
    <_>
      <maxWeakCount>3</maxWeakCount>
      <stageThreshold>-2.2875819355249405e-02</stageThreshold>
      <weakClassifiers>
        <_>
          <internalNodes>
            0 -1 17 -1.5929246728774160e-04</internalNodes>
          <leafValues>
            -7.8443115949630737e-01 5.6223177909851074e-01</leafValues></_>
        <_>
          <internalNodes>
            0 -1 4 -2.6053017791127786e-05</internalNodes>
          <leafValues>
            -9.6327435970306396e-01 4.3278694152832031e-01</leafValues></_>
        <_>
          <internalNodes>
            0 -1 5 8.7647104010102339e-06</internalNodes>
          <leafValues>
            -9.3963027000427246e-01 3.7816676497459412e-01</leafValues></_></weakClassifiers></_>
    <!-- stage 4 -->
    <_>
      <maxWeakCount>2</maxWeakCount>
      <stageThreshold>-2.9446795582771301e-01</stageThreshold>
      <weakClassifiers>
        <_>
          <internalNodes>
            0 -1 6 -2.3994763978407718e-05</internalNodes>
          <leafValues>
            -9.7083336114883423e-01 6.4722222089767456e-01</leafValues></_>
        <_>
          <internalNodes>
            0 -1 2 -2.0791735732927918e-04</internalNodes>
          <leafValues>
            -9.4169014692306519e-01 7.0193415880203247e-01</leafValues></_></weakClassifiers></_>
    <!-- stage 5 -->
    <_>
      <maxWeakCount>2</maxWeakCount>
      <stageThreshold>-1.3184763491153717e-01</stageThreshold>
      <weakClassifiers>
        <_>
          <internalNodes>
            0 -1 10 -2.1010859200032428e-05</internalNodes>
          <leafValues>
            -9.3436962366104126e-01 8.7117552757263184e-01</leafValues></_>
        <_>
          <internalNodes>
            0 -1 11 6.7043889430351555e-05</internalNodes>
          <leafValues>
            8.0252194404602051e-01 -9.6788007020950317e-01</leafValues></_></weakClassifiers></_>
    <!-- stage 6 -->
    <_>
      <maxWeakCount>1</maxWeakCount>
      <stageThreshold>1.</stageThreshold>
      <weakClassifiers>
        <_>
          <internalNodes>
            0 -1 0 -9.0304733021184802e-05</internalNodes>
          <leafValues>
            -1. 1.</leafValues></_></weakClassifiers></_></stages>
  <features>
    <_>
      <rects>
        <_>
          0 94 3 1 -1.</_>
        <_>
          1 94 1 1 3.</_></rects>
      <tilted>0</tilted></_>
    <_>
      <rects>
        <_>
          16 41 66 17 -1.</_>
        <_>
          38 41 22 17 3.</_></rects>
      <tilted>0</tilted></_>
    <_>
      <rects>
        <_>
          31 42 9 4 -1.</_>
        <_>
          34 42 3 4 3.</_></rects>
      <tilted>0</tilted></_>
    <_>
      <rects>
        <_>
          32 46 3 10 -1.</_>
        <_>
          33 46 1 10 3.</_></rects>
      <tilted>0</tilted></_>
    <_>
      <rects>
        <_>
          33 49 3 6 -1.</_>
        <_>
          34 49 1 6 3.</_></rects>
      <tilted>0</tilted></_>
    <_>
      <rects>
        <_>
          34 42 4 12 -1.</_>
        <_>
          36 42 2 12 2.</_></rects>
      <tilted>0</tilted></_>
    <_>
      <rects>
        <_>
          38 43 2 9 -1.</_>
        <_>
          39 43 1 9 2.</_></rects>
      <tilted>0</tilted></_>
    <_>
      <rects>
        <_>
          43 34 8 24 -1.</_>
        <_>
          43 42 8 8 3.</_></rects>
      <tilted>0</tilted></_>
    <_>
      <rects>
        <_>
          45 38 3 26 -1.</_>
        <_>
          46 38 1 26 3.</_></rects>
      <tilted>0</tilted></_>
    <_>
      <rects>
        <_>
          45 40 3 25 -1.</_>
        <_>
          46 40 1 25 3.</_></rects>
      <tilted>0</tilted></_>
    <_>
      <rects>
        <_>
          47 37 3 2 -1.</_>
        <_>
          48 37 1 2 3.</_></rects>
      <tilted>0</tilted></_>
    <_>
      <rects>
        <_>
          47 40 2 8 -1.</_>
        <_>
          47 40 1 4 2.</_>
        <_>
          48 44 1 4 2.</_></rects>
      <tilted>0</tilted></_>
    <_>
      <rects>
        <_>
          51 48 18 9 -1.</_>
        <_>
          57 48 6 9 3.</_></rects>
      <tilted>0</tilted></_>
    <_>
      <rects>
        <_>
          53 43 6 20 -1.</_>
        <_>
          55 43 2 20 3.</_></rects>
      <tilted>0</tilted></_>
    <_>
      <rects>
        <_>
          55 44 9 21 -1.</_>
        <_>
          58 44 3 21 3.</_></rects>
      <tilted>0</tilted></_>
    <_>
      <rects>
        <_>
          55 49 18 4 -1.</_>
        <_>
          64 49 9 4 2.</_></rects>
      <tilted>0</tilted></_>
    <_>
      <rects>
        <_>
          58 39 9 23 -1.</_>
        <_>
          61 39 3 23 3.</_></rects>
      <tilted>0</tilted></_>
    <_>
      <rects>
        <_>
          62 48 24 3 -1.</_>
        <_>
          74 48 12 3 2.</_></rects>
      <tilted>0</tilted></_></features></cascade>
</opencv_storage>
