<?xml version="1.0"?>
<opencv_storage>
<cascade>
  <stageType>BOOST</stageType>
  <featureType>LBP</featureType>
  <height>27</height>
  <width>22</width>
  <stageParams>
    <boostType>GAB</boostType>
    <minHitRate>9.9900001287460327e-01</minHitRate>
    <maxFalseAlarm>5.0000000000000000e-01</maxFalseAlarm>
    <weightTrimRate>9.4999999999999996e-01</weightTrimRate>
    <maxDepth>1</maxDepth>
    <maxWeakCount>100</maxWeakCount></stageParams>
  <featureParams>
    <maxCatCount>256</maxCatCount>
    <featSize>1</featSize></featureParams>
  <stageNum>20</stageNum>
  <stages>
    <!-- stage 0 -->
    <_>
      <maxWeakCount>3</maxWeakCount>
      <stageThreshold>-1.2680444717407227e+00</stageThreshold>
      <weakClassifiers>
        <_>
          <internalNodes>
            0 -1 16 -258285826 -1004211772 1077082078 1891685658
            -2137028161 -2071361377 -326119237 -34608453</internalNodes>
          <leafValues>
            -8.7397897243499756e-01 6.5529310703277588e-01</leafValues></_>
        <_>
          <internalNodes>
            0 -1 96 -845359876 -1439906983 -1793862145 -1970797458
            -812467457 -894902641 -1381049349 -1930437890</internalNodes>
          <leafValues>
            -8.5844928026199341e-01 5.2208495140075684e-01</leafValues></_>
        <_>
          <internalNodes>
            0 -1 47 -1279197448 -1599595710 -704517901 -1601273774
            -442650689 853273739 -1448367361 -17827585</internalNodes>
          <leafValues>
            -8.2523012161254883e-01 4.6438378095626831e-01</leafValues></_></weakClassifiers></_>
    <!-- stage 1 -->
    <_>
      <maxWeakCount>4</maxWeakCount>
      <stageThreshold>-1.5138916969299316e+00</stageThreshold>
      <weakClassifiers>
        <_>
          <internalNodes>
            0 -1 23 -44236802 -179267586 -717631009 -997960230
            -1144288849 -2136944193 -1182024705 -453001745</internalNodes>
          <leafValues>
            -8.0985915660858154e-01 6.0104531049728394e-01</leafValues></_>
        <_>
          <internalNodes>
            0 -1 63 -1901527312 9183327 -779020193 546508535 -250350349
            -139336277 -476060997 -352325697</internalNodes>
          <leafValues>
            -7.8021299839019775e-01 4.6180325746536255e-01</leafValues></_>
        <_>
          <internalNodes>
            0 -1 33 -441650731 1358975249 898865631 1074460478
            -503589644 -187787209 -906521185 -12846645</internalNodes>
          <leafValues>
            -6.1976039409637451e-01 6.0384273529052734e-01</leafValues></_>
        <_>
          <internalNodes>
            0 -1 129 -880353656 -74336447 218894717 -1073979828
            -358579027 -106451959 -527894312 -1195071302</internalNodes>
          <leafValues>
            -7.1496367454528809e-01 5.0503402948379517e-01</leafValues></_></weakClassifiers></_>
    <!-- stage 2 -->
    <_>
      <maxWeakCount>7</maxWeakCount>
      <stageThreshold>-1.5868597030639648e+00</stageThreshold>
      <weakClassifiers>
        <_>
          <internalNodes>
            0 -1 66 1541185532 -866352613 -170542117 1089533530
            -618928833 -864195781 -325078529 -321913889</internalNodes>
          <leafValues>
            -7.8333336114883423e-01 4.4062501192092896e-01</leafValues></_>
        <_>
          <internalNodes>
            0 -1 21 -982584322 541760876 -875696912 -1582309131
            1728836027 30380187 -14158405 -69226325</internalNodes>
          <leafValues>
            -7.7059864997863770e-01 4.1032445430755615e-01</leafValues></_>
        <_>
          <internalNodes>
            0 -1 15 -1090603724 -130489342 -1820471075 -234711265
            -194266444 -254819991 720854412 -13489417</internalNodes>
          <leafValues>
            -6.7177361249923706e-01 4.7454208135604858e-01</leafValues></_>
        <_>
          <internalNodes>
            0 -1 139 -778467840 -551188883 2019348991 -318118452
            1152371972 -107746891 -1446066028 -576869716</internalNodes>
          <leafValues>
            -7.5290608406066895e-01 4.3282878398895264e-01</leafValues></_>
        <_>
          <internalNodes>
            0 -1 91 259538559 102891723 -1626188931 582505026
            -1406051745 1715634505 -1892959237 -159989957</internalNodes>
          <leafValues>
            -7.0015478134155273e-01 4.4589564204216003e-01</leafValues></_>
        <_>
          <internalNodes>
            0 -1 86 389337596 -136449011 1694713119 -1390642771
            -2013134469 477102512 -2035984325 -1364529153</internalNodes>
          <leafValues>
            -5.9996962547302246e-01 4.9054372310638428e-01</leafValues></_>
        <_>
          <internalNodes>
            0 -1 83 -676864001 -584987528 -979952517 2760992 -1330593573
            167762363 -1048405761 143551407</internalNodes>
          <leafValues>
            -7.3042225837707520e-01 4.1429409384727478e-01</leafValues></_></weakClassifiers></_>
    <!-- stage 3 -->
    <_>
      <maxWeakCount>8</maxWeakCount>
      <stageThreshold>-1.8842240571975708e+00</stageThreshold>
      <weakClassifiers>
        <_>
          <internalNodes>
            0 -1 69 -786933828 -554433860 -1855858819 -1389049410
            -1066938177 -1066357995 -1428454433 -1401684065</internalNodes>
          <leafValues>
            -7.1390372514724731e-01 4.2651757597923279e-01</leafValues></_>
        <_>
          <internalNodes>
            0 -1 119 -917561341 223520157 -413833729 -444350187
            -863655089 -103177782 -72499241 -288362529</internalNodes>
          <leafValues>
            -6.0120630264282227e-01 5.3765207529067993e-01</leafValues></_>
        <_>
          <internalNodes>
            0 -1 78 -131542800 17354968 -38503811 -777371638 -419171919
            -286231668 -1084164451 -235936515</internalNodes>
          <leafValues>
            -7.1263456344604492e-01 4.3065023422241211e-01</leafValues></_>
        <_>
          <internalNodes>
            0 -1 122 -1557316225 -1943179856 935149564 -457639960
            -419876103 -1658546019 -303253249 -342002244</internalNodes>
          <leafValues>
            -5.0627279281616211e-01 6.3167363405227661e-01</leafValues></_>
        <_>
          <internalNodes>
            0 -1 53 1910266940 -1649045387 -780007949 -991840003
            427506587 -856709079 -1360297799 1155501019</internalNodes>
          <leafValues>
            -7.8271883726119995e-01 3.8619607686996460e-01</leafValues></_>
        <_>
          <internalNodes>
            0 -1 123 426195423 322835742 1405411188 -1246178000
            -1385235286 -625049382 -1350334092 -1398084420</internalNodes>
          <leafValues>
            -7.2406929731369019e-01 3.9594137668609619e-01</leafValues></_>
        <_>
          <internalNodes>
            0 -1 8 -100664098 642402390 -585924329 231323677 -777009669
            889953172 -930369469 -308568053</internalNodes>
          <leafValues>
            -6.4472705125808716e-01 5.0597727298736572e-01</leafValues></_>
        <_>
          <internalNodes>
            0 -1 62 2137216 874304069 -1820260633 -1862668239 791642501
            517574770 -55434581 -1499535805</internalNodes>
          <leafValues>
            -6.1356687545776367e-01 5.2294075489044189e-01</leafValues></_></weakClassifiers></_>
    <!-- stage 4 -->
    <_>
      <maxWeakCount>7</maxWeakCount>
      <stageThreshold>-1.1698526144027710e+00</stageThreshold>
      <weakClassifiers>
        <_>
          <internalNodes>
            0 -1 98 1460769751 -1727899178 1968567667 -1366764040
            433696831 -539062247 -1163919894 -1568625926</internalNodes>
          <leafValues>
            -6.0575860738754272e-01 4.9863263964653015e-01</leafValues></_>
        <_>
          <internalNodes>
            0 -1 36 -577179536 70406931 -553289957 143972767 -1257564875
            -460376765 -1320517 -1901343969</internalNodes>
          <leafValues>
            -8.2496714591979980e-01 3.6005413532257080e-01</leafValues></_>
        <_>
          <internalNodes>
            0 -1 52 -620233219 -106230507 -385759267 288164281
            -1151159553 -543579935 -1205081421 1167696619</internalNodes>
          <leafValues>
            -5.9891200065612793e-01 4.9505278468132019e-01</leafValues></_>
        <_>
          <internalNodes>
            0 -1 144 1327306545 -1065549 1021263871 -6299777 1051670391
            -1073809409 -671745 -1658275944</internalNodes>
          <leafValues>
            -5.1409369707107544e-01 6.4059990644454956e-01</leafValues></_>
        <_>
          <internalNodes>
            0 -1 82 1048869368 -1109503489 1368876125 -1359203875
            -1973858113 -664465407 -323505477 -1969590785</internalNodes>
          <leafValues>
            -6.5743458271026611e-01 4.7163841128349304e-01</leafValues></_>
        <_>
          <internalNodes>
            0 -1 104 -1442798936 -949044777 587310007 -1357278793
            -1082030149 -69531254 2064194173 -48377715</internalNodes>
          <leafValues>
            -7.7964645624160767e-01 3.7396833300590515e-01</leafValues></_>
        <_>
          <internalNodes>
            0 -1 142 -1249601259 -2119128132 -2071380655 100864144
            286235116 -8224583 -1466905472 -1466992256</internalNodes>
          <leafValues>
            -5.8186048269271851e-01 5.5187505483627319e-01</leafValues></_></weakClassifiers></_>
    <!-- stage 5 -->
    <_>
      <maxWeakCount>9</maxWeakCount>
      <stageThreshold>-1.2859172821044922e+00</stageThreshold>
      <weakClassifiers>
        <_>
          <internalNodes>
            0 -1 45 -547963274 -705903281 1999638951 1431568536
            -2147270241 161366025 -1920753137 -574987942</internalNodes>
          <leafValues>
            -6.9577467441558838e-01 3.8294574618339539e-01</leafValues></_>
        <_>
          <internalNodes>
            0 -1 54 -1076568356 -8539375 -1828253217 -1476820485
            -1094053509 -1006370780 -2138849083 -1401160961</internalNodes>
          <leafValues>
            -5.6844031810760498e-01 4.3107825517654419e-01</leafValues></_>
        <_>
          <internalNodes>
            0 -1 118 215680013 2065125497 161057135 -809715569 1731370
            -1144892798 -343660050 -1342904017</internalNodes>
          <leafValues>
            -6.2370318174362183e-01 4.4433841109275818e-01</leafValues></_>
        <_>
          <internalNodes>
            0 -1 125 -1826664261 -1744235950 -1253259269 694996
            -1576342805 149984442 337152703 -1969419857</internalNodes>
          <leafValues>
            -5.3252041339874268e-01 4.8940765857696533e-01</leafValues></_>
        <_>
          <internalNodes>
            0 -1 56 -1071516680 -942189729 -1118604899 151234711
            -1165941601 -1903064808 -367806181 -2035344641</internalNodes>
          <leafValues>
            -5.3043991327285767e-01 4.9621376395225525e-01</leafValues></_>
        <_>
          <internalNodes>
            0 -1 122 -1222200321 -1933782852 -70132835 -1397294215
            -1548930918 -1751465552 -1946123794 -350236434</internalNodes>
          <leafValues>
            -5.2716886997222900e-01 5.1712393760681152e-01</leafValues></_>
        <_>
          <internalNodes>
            0 -1 138 286269439 84447560 1901081052 -2019511412
            -620301841 -322592113 -624992544 -858973388</internalNodes>
          <leafValues>
            -5.6333869695663452e-01 4.9509766697883606e-01</leafValues></_>
        <_>
          <internalNodes>
            0 -1 67 -83323744 -14819844 -268328737 -579513935 1746594508
            -560917501 809361611 854739295</internalNodes>
          <leafValues>
            -7.2332650423049927e-01 3.8831362128257751e-01</leafValues></_>
        <_>
          <internalNodes>
            0 -1 44 1075972057 10759027 84744689 679532382 -2087444419
            1142252563 -1970792101 -267806645</internalNodes>
          <leafValues>
            -6.6912931203842163e-01 4.2302814126014709e-01</leafValues></_></weakClassifiers></_>
    <!-- stage 6 -->
    <_>
      <maxWeakCount>6</maxWeakCount>
      <stageThreshold>-1.3995980024337769e+00</stageThreshold>
      <weakClassifiers>
        <_>
          <internalNodes>
            0 -1 39 -347740180 287942109 -1065245259 564469945
            -643565607 397454233 -1950100524 -5528426</internalNodes>
          <leafValues>
            -5.9608322381973267e-01 4.1166526079177856e-01</leafValues></_>
        <_>
          <internalNodes>
            0 -1 92 -922517502 -951787373 -1560065697 -1353473551
            -522982753 -1043020272 -360591717 -884234614</internalNodes>
          <leafValues>
            -6.4393371343612671e-01 3.7998002767562866e-01</leafValues></_>
        <_>
          <internalNodes>
            0 -1 30 -1061782049 -1365333666 1906037143 -1118579594
            -1169475836 378168067 969548294 -218370253</internalNodes>
          <leafValues>
            -5.1827442646026611e-01 4.5372453331947327e-01</leafValues></_>
        <_>
          <internalNodes>
            0 -1 37 -572591408 1358993411 387586837 1157635028
            -660661080 -875623795 -1721165813 -818992613</internalNodes>
          <leafValues>
            -5.8343851566314697e-01 4.5264586806297302e-01</leafValues></_>
        <_>
          <internalNodes>
            0 -1 111 -455109125 -1749114901 -176308226 1912414291
            -2109021954 -1995601394 -1256278856 -392304910</internalNodes>
          <leafValues>
            -4.4076293706893921e-01 5.8417296409606934e-01</leafValues></_>
        <_>
          <internalNodes>
            0 -1 27 1796005368 -2020684940 1483931677 -1378024969
            -158843986 1504744715 -232775361 1180415751</internalNodes>
          <leafValues>
            -7.4136185646057129e-01 3.5898110270500183e-01</leafValues></_></weakClassifiers></_>
    <!-- stage 7 -->
    <_>
      <maxWeakCount>7</maxWeakCount>
      <stageThreshold>-1.1163244247436523e+00</stageThreshold>
      <weakClassifiers>
        <_>
          <internalNodes>
            0 -1 61 -71519428 -717959786 -778364665 -178998314 151761099
            -1055979263 -1658616959 -548108278</internalNodes>
          <leafValues>
            -6.6149872541427612e-01 4.1761827468872070e-01</leafValues></_>
        <_>
          <internalNodes>
            0 -1 107 -243204656 -709649492 1346425145 -801062783
            -106785798 -309557072 -644838968 -715868068</internalNodes>
          <leafValues>
            -6.0865044593811035e-01 4.1367974877357483e-01</leafValues></_>
        <_>
          <internalNodes>
            0 -1 130 -989695750 -933617208 -977211282 -1035595524
            -83359078 -33554416 -1283279877 -544202552</internalNodes>
          <leafValues>
            -5.7246094942092896e-01 4.4224488735198975e-01</leafValues></_>
        <_>
          <internalNodes>
            0 -1 120 501647280 -687718115 -953134628 -874098180
            -1011807941 -485846768 -281782804 -2001954628</internalNodes>
          <leafValues>
            -7.6666420698165894e-01 3.3917903900146484e-01</leafValues></_>
        <_>
          <internalNodes>
            0 -1 124 -1212664456 -342135061 -257 -125137735 -1073836033
            -1140946696 264814332 -4422515</internalNodes>
          <leafValues>
            -5.0901180505752563e-01 5.2157711982727051e-01</leafValues></_>
        <_>
          <internalNodes>
            0 -1 22 1929674876 -213989204 -720682865 -711528040
            1528610040 -22023804 -3099921 -285098006</internalNodes>
          <leafValues>
            -5.7181733846664429e-01 4.9115234613418579e-01</leafValues></_>
        <_>
          <internalNodes>
            0 -1 103 13698339 -142159727 1611694583 1908478341
            -1974416385 -377450312 -2061461084 -2049932872</internalNodes>
          <leafValues>
            -5.5825704336166382e-01 5.0415486097335815e-01</leafValues></_></weakClassifiers></_>
    <!-- stage 8 -->
    <_>
      <maxWeakCount>9</maxWeakCount>
      <stageThreshold>-1.2466963529586792e+00</stageThreshold>
      <weakClassifiers>
        <_>
          <internalNodes>
            0 -1 3 -270534162 30215603 -540492082 596267654 -474240293
            99129583 -544670769 -541859629</internalNodes>
          <leafValues>
            -6.3255238533020020e-01 4.3145501613616943e-01</leafValues></_>
        <_>
          <internalNodes>
            0 -1 113 -71806568 -926157064 1360253237 -2002217924
            -399785477 -870711072 -1182023767 148635069</internalNodes>
          <leafValues>
            -7.6486229896545410e-01 3.0368030071258545e-01</leafValues></_>
        <_>
          <internalNodes>
            0 -1 1 -141952513 -1504682668 -937623393 5285475 -1417035579
            843335684 1080099749 821951435</internalNodes>
          <leafValues>
            -7.6711577177047729e-01 2.7701547741889954e-01</leafValues></_>
        <_>
          <internalNodes>
            0 -1 99 498603349 -536985861 2119429503 -12668233 402530079
            -1094971412 2011072447 -16794882</internalNodes>
          <leafValues>
            -4.0171343088150024e-01 6.0678577423095703e-01</leafValues></_>
        <_>
          <internalNodes>
            0 -1 75 -937399057 257245701 -954981867 -1815632621
            -351414985 -944095143 -882302413 -1204597950</internalNodes>
          <leafValues>
            -4.9013164639472961e-01 4.6732705831527710e-01</leafValues></_>
        <_>
          <internalNodes>
            0 -1 90 271731925 -2086991267 -1029495045 -1944874661
            570956346 -1075111919 571368091 -1078257541</internalNodes>
          <leafValues>
            -4.9509340524673462e-01 4.9313616752624512e-01</leafValues></_>
        <_>
          <internalNodes>
            0 -1 136 -926354948 -27098548 -868830760 -1686108240
            -1702712134 -595459942 1099616138 478677160</internalNodes>
          <leafValues>
            -7.1637839078903198e-01 3.8483086228370667e-01</leafValues></_>
        <_>
          <internalNodes>
            0 -1 0 -52437816 874290436 25776159 -1055733693 -1733574619
            -327188471 -833781619 -226814421</internalNodes>
          <leafValues>
            -5.6594884395599365e-01 4.3638348579406738e-01</leafValues></_>
        <_>
          <internalNodes>
            0 -1 108 -474168840 -337932272 1133593066 -1642376101
            -216287330 -603406192 1347133619 -1744193107</internalNodes>
          <leafValues>
            -5.4217898845672607e-01 4.7567078471183777e-01</leafValues></_></weakClassifiers></_>
    <!-- stage 9 -->
    <_>
      <maxWeakCount>7</maxWeakCount>
      <stageThreshold>-1.0295925140380859e+00</stageThreshold>
      <weakClassifiers>
        <_>
          <internalNodes>
            0 -1 49 -1320374528 2074712329 -1198358113 296344568
            -1420103297 782991465 -351606325 565176360</internalNodes>
          <leafValues>
            -6.2549799680709839e-01 3.7770649790763855e-01</leafValues></_>
        <_>
          <internalNodes>
            0 -1 131 -1818372609 -1862139578 812863997 -1785425840
            -938817378 1481769218 -1851018498 -1363235592</internalNodes>
          <leafValues>
            -5.4610651731491089e-01 4.4317859411239624e-01</leafValues></_>
        <_>
          <internalNodes>
            0 -1 101 -1893198632 -573642456 -1583314017 -29725701
            -1843920242 -92141290 260470927 -1075347272</internalNodes>
          <leafValues>
            -4.8977306485176086e-01 5.0052374601364136e-01</leafValues></_>
        <_>
          <internalNodes>
            0 -1 128 1091765248 1700632697 1099004287 -1043214959
            45280341 -1067145019 -2012703596 -850883944</internalNodes>
          <leafValues>
            -6.9248729944229126e-01 3.7530180811882019e-01</leafValues></_>
        <_>
          <internalNodes>
            0 -1 79 1931088208 -882175713 332738833 1426364173
            1627717659 -813236221 -1610415821 -855900478</internalNodes>
          <leafValues>
            -6.0114097595214844e-01 3.8555195927619934e-01</leafValues></_>
        <_>
          <internalNodes>
            0 -1 122 -1279812099 -962262800 -1006521095 882431373
            -1019536398 -1696562968 -800746503 -80761652</internalNodes>
          <leafValues>
            -5.2181404829025269e-01 4.7895169258117676e-01</leafValues></_>
        <_>
          <internalNodes>
            0 -1 94 -32455008 -360574527 1163053201 -1021427568
            -1702126964 -440401756 -561804650 -109762211</internalNodes>
          <leafValues>
            -5.3195518255233765e-01 4.8990660905838013e-01</leafValues></_></weakClassifiers></_>
    <!-- stage 10 -->
    <_>
      <maxWeakCount>9</maxWeakCount>
      <stageThreshold>-1.3133891820907593e+00</stageThreshold>
      <weakClassifiers>
        <_>
          <internalNodes>
            0 -1 55 1537282992 -539115162 -788415497 153157661
            -1472036807 243700491 -1441287761 1224734942</internalNodes>
          <leafValues>
            -6.5853661298751831e-01 3.8510301709175110e-01</leafValues></_>
        <_>
          <internalNodes>
            0 -1 17 -285250560 -1402445042 -813493347 -816408211
            -281454792 -320436085 -606234211 -510395713</internalNodes>
          <leafValues>
            -6.5442174673080444e-01 3.1929057836532593e-01</leafValues></_>
        <_>
          <internalNodes>
            0 -1 76 -789917544 -2129876449 -1081816807 -1017600953
            -966807351 -23395537 -637353949 -872690605</internalNodes>
          <leafValues>
            -6.1091566085815430e-01 3.6155807971954346e-01</leafValues></_>
        <_>
          <internalNodes>
            0 -1 135 -482019160 -610033271 2055213493 -786746605
            -1650150948 -1188228952 -937625472 1292430152</internalNodes>
          <leafValues>
            -7.4631214141845703e-01 2.9967302083969116e-01</leafValues></_>
        <_>
          <internalNodes>
            0 -1 109 -259851941 -1010396921 1462865261 -1154350817
            -99579493 -2046783101 -1945337545 1830230043</internalNodes>
          <leafValues>
            -5.0130969285964966e-01 4.8913154006004333e-01</leafValues></_>
        <_>
          <internalNodes>
            0 -1 18 -1840715554 -39975412 16781371 -581582053 70412990
            811270402 415787995 -298645681</internalNodes>
          <leafValues>
            -4.9030652642250061e-01 5.0456303358078003e-01</leafValues></_>
        <_>
          <internalNodes>
            0 -1 42 -2071299233 789885278 -788474475 -280937164
            344740751 382673105 -402059867 -848334061</internalNodes>
          <leafValues>
            -4.8033058643341064e-01 4.9996292591094971e-01</leafValues></_>
        <_>
          <internalNodes>
            0 -1 126 2031639005 -16707556 422680529 -2138011557
            -2062875922 415498632 260755434 167390890</internalNodes>
          <leafValues>
            -4.8497605323791504e-01 5.2332705259323120e-01</leafValues></_>
        <_>
          <internalNodes>
            0 -1 7 -170077058 -238452726 -1793829986 92569600 2098237544
            743112704 -1375076118 -1414716021</internalNodes>
          <leafValues>
            -6.4159417152404785e-01 3.8724014163017273e-01</leafValues></_></weakClassifiers></_>
    <!-- stage 11 -->
    <_>
      <maxWeakCount>7</maxWeakCount>
      <stageThreshold>-9.7956848144531250e-01</stageThreshold>
      <weakClassifiers>
        <_>
          <internalNodes>
            0 -1 64 -340901891 499068671 -17895425 1939975615 1577057791
            1610612735 1609498623 -5636099</internalNodes>
          <leafValues>
            -4.2681857943534851e-01 5.6693828105926514e-01</leafValues></_>
        <_>
          <internalNodes>
            0 -1 51 -179031048 -1118260291 -1233125099 -1357816353
            -1559882568 -1397226998 1077953264 743650527</internalNodes>
          <leafValues>
            -6.6028684377670288e-01 3.2864451408386230e-01</leafValues></_>
        <_>
          <internalNodes>
            0 -1 85 2131271157 -1717718210 -1752852137 -1993703282
            -1165721202 -1918322686 -844986952 1571700988</internalNodes>
          <leafValues>
            -5.8773684501647949e-01 3.7801513075828552e-01</leafValues></_>
        <_>
          <internalNodes>
            0 -1 127 179504147 1610051542 782195679 -134500457
            -1351790681 -791877 805240573 -1430377682</internalNodes>
          <leafValues>
            -4.8130834102630615e-01 5.2317386865615845e-01</leafValues></_>
        <_>
          <internalNodes>
            0 -1 121 1107314683 557986938 -1877911535 -1183951650
            -1381545221 -1407022270 -1977463878 67405970</internalNodes>
          <leafValues>
            -5.3205108642578125e-01 4.3075031042098999e-01</leafValues></_>
        <_>
          <internalNodes>
            0 -1 147 767398397 -1182842574 -921594416 -1457240652
            -921977860 -1349662537 -1967055132 -1529997948</internalNodes>
          <leafValues>
            -5.8918732404708862e-01 3.9786028861999512e-01</leafValues></_>
        <_>
          <internalNodes>
            0 -1 50 -16121344 1569484696 -2147249579 291623309 303268781
            1208656071 -1979598673 636180751</internalNodes>
          <leafValues>
            -6.3521498441696167e-01 3.8151988387107849e-01</leafValues></_></weakClassifiers></_>
    <!-- stage 12 -->
    <_>
      <maxWeakCount>8</maxWeakCount>
      <stageThreshold>-1.6460602283477783e+00</stageThreshold>
      <weakClassifiers>
        <_>
          <internalNodes>
            0 -1 32 -935545636 -1804597920 223807630 -601849467
            1888070045 -922908667 1495082025 -15168120</internalNodes>
          <leafValues>
            -7.1230500936508179e-01 2.8882643580436707e-01</leafValues></_>
        <_>
          <internalNodes>
            0 -1 114 -1214734152 547734992 -40591440 279599320
            -1534383905 -1710587229 -829904706 -1937453650</internalNodes>
          <leafValues>
            -7.0907515287399292e-01 2.6527303457260132e-01</leafValues></_>
        <_>
          <internalNodes>
            0 -1 122 -1222255117 1188950580 1636012314 -535236119
            -268271246 -741440372 1363475098 -619848500</internalNodes>
          <leafValues>
            -4.6967735886573792e-01 4.6358060836791992e-01</leafValues></_>
        <_>
          <internalNodes>
            0 -1 13 -1608481239 -582784749 -251576037 -145673833
            -1702278405 -16169832 -2012633159 143675648</internalNodes>
          <leafValues>
            -5.3760749101638794e-01 3.9989095926284790e-01</leafValues></_>
        <_>
          <internalNodes>
            0 -1 93 -1617421072 -1951756368 -1759317605 -574610915
            -1736142194 -1936506872 -1693933151 -699068011</internalNodes>
          <leafValues>
            -5.7826352119445801e-01 4.1915121674537659e-01</leafValues></_>
        <_>
          <internalNodes>
            0 -1 57 -1074525027 -1217452682 -1917186311 -1232099923
            -42335230 -683958288 -285591617 -70303814</internalNodes>
          <leafValues>
            -4.0728673338890076e-01 6.4439362287521362e-01</leafValues></_>
        <_>
          <internalNodes>
            0 -1 143 1855746232 -72780871 1972254882 -557797182
            -1349899054 -1399812086 -1743877984 134273160</internalNodes>
          <leafValues>
            -7.3130762577056885e-01 3.2777926325798035e-01</leafValues></_>
        <_>
          <internalNodes>
            0 -1 82 -535297084 -216201521 105845097 -1214512577
            -2144692157 -1676615167 269713430 -1426130209</internalNodes>
          <leafValues>
            -5.5817037820816040e-01 4.2609745264053345e-01</leafValues></_></weakClassifiers></_>
    <!-- stage 13 -->
    <_>
      <maxWeakCount>8</maxWeakCount>
      <stageThreshold>-1.0239328145980835e+00</stageThreshold>
      <weakClassifiers>
        <_>
          <internalNodes>
            0 -1 43 1636373495 537831583 626872895 547047807 -653715645
            606678297 -2146906245 1686110079</internalNodes>
          <leafValues>
            -7.4237287044525146e-01 3.1063830852508545e-01</leafValues></_>
        <_>
          <internalNodes>
            0 -1 38 -349183756 597683963 -871519999 -504689129 84762657
            1153143184 -83885949 -78282733</internalNodes>
          <leafValues>
            -5.9847038984298706e-01 3.6888772249221802e-01</leafValues></_>
        <_>
          <internalNodes>
            0 -1 10 -72707908 1865056983 1895891996 -1347036845
            -1085962056 133890507 -263125876 1716256603</internalNodes>
          <leafValues>
            -6.2693804502487183e-01 3.4855690598487854e-01</leafValues></_>
        <_>
          <internalNodes>
            0 -1 48 313063552 -2135979424 -1744319183 -1164539244
            1766285315 -846613756 -485044201 -228793583</internalNodes>
          <leafValues>
            -5.3992384672164917e-01 4.0437337756156921e-01</leafValues></_>
        <_>
          <internalNodes>
            0 -1 5 1939890047 37286074 -1181716044 -128069169
            -2006902781 4849686 -1932858808 1967367955</internalNodes>
          <leafValues>
            -6.0186874866485596e-01 3.9944067597389221e-01</leafValues></_>
        <_>
          <internalNodes>
            0 -1 6 -46860898 -578223308 1476395280 -179039459 982220829
            218693893 159514627 -1190410233</internalNodes>
          <leafValues>
            -5.7837307453155518e-01 3.7548887729644775e-01</leafValues></_>
        <_>
          <internalNodes>
            0 -1 59 -1559751975 131750033 587694235 -1526905059
            -208927032 1007948361 -1373697037 1690265215</internalNodes>
          <leafValues>
            -6.6968578100204468e-01 3.2860341668128967e-01</leafValues></_>
        <_>
          <internalNodes>
            0 -1 40 1929557856 -1122782951 271002455 1370208690
            673316929 -1976328191 -1593237368 1285524001</internalNodes>
          <leafValues>
            -5.3010648488998413e-01 4.6673423051834106e-01</leafValues></_></weakClassifiers></_>
    <!-- stage 14 -->
    <_>
      <maxWeakCount>8</maxWeakCount>
      <stageThreshold>-1.7087030410766602e+00</stageThreshold>
      <weakClassifiers>
        <_>
          <internalNodes>
            0 -1 72 2136528344 495835458 470848003 168626327 -458192136
            16155110 -120478439 -156511349</internalNodes>
          <leafValues>
            -5.8611482381820679e-01 3.5091927647590637e-01</leafValues></_>
        <_>
          <internalNodes>
            0 -1 19 -836829708 1077021955 -904985447 -2110611185
            -930141851 -873791471 -450721459 -300196525</internalNodes>
          <leafValues>
            -6.5194308757781982e-01 3.2761400938034058e-01</leafValues></_>
        <_>
          <internalNodes>
            0 -1 105 -305519960 -340171813 762522163 -348966315
            1346351456 -14928759 2013808913 -585522239</internalNodes>
          <leafValues>
            -7.0433127880096436e-01 2.7030804753303528e-01</leafValues></_>
        <_>
          <internalNodes>
            0 -1 95 -653610920 -182493047 -921956333 -527528767
            1244311310 -685989248 1170899849 -782545212</internalNodes>
          <leafValues>
            -5.2589672803878784e-01 4.3274030089378357e-01</leafValues></_>
        <_>
          <internalNodes>
            0 -1 12 1899199591 -1440810515 -1856520175 903037133
            1810436678 1125286165 -1064746466 -1281268913</internalNodes>
          <leafValues>
            -5.2525889873504639e-01 4.2206895351409912e-01</leafValues></_>
        <_>
          <internalNodes>
            0 -1 88 -754396676 638900495 -1291845537 856230443
            1931086224 1326805026 1530418316 -1145216965</internalNodes>
          <leafValues>
            -5.8522003889083862e-01 3.8586723804473877e-01</leafValues></_>
        <_>
          <internalNodes>
            0 -1 84 -687672696 -1918127431 -1190133758 -1441079176
            1772610271 42565656 -1828679525 -628406065</internalNodes>
          <leafValues>
            -5.2464395761489868e-01 4.2850700020790100e-01</leafValues></_>
        <_>
          <internalNodes>
            0 -1 20 -675384418 -706805459 143081475 -1256570876
            -2144139004 -2061365087 -1895792639 -759226240</internalNodes>
          <leafValues>
            -5.1812773942947388e-01 4.3572136759757996e-01</leafValues></_></weakClassifiers></_>
    <!-- stage 15 -->
    <_>
      <maxWeakCount>10</maxWeakCount>
      <stageThreshold>-9.8649209737777710e-01</stageThreshold>
      <weakClassifiers>
        <_>
          <internalNodes>
            0 -1 132 329052540 -664070663 594674523 -2088008548
            -552421189 -1933775317 2681086 -1947250945</internalNodes>
          <leafValues>
            -4.6185567975044250e-01 4.3495145440101624e-01</leafValues></_>
        <_>
          <internalNodes>
            0 -1 65 -1422993608 126870835 -1096284775 2623760
            -1154248430 260637312 -47575861 -574783280</internalNodes>
          <leafValues>
            -7.1554678678512573e-01 2.8004971146583557e-01</leafValues></_>
        <_>
          <internalNodes>
            0 -1 112 832100828 1508709177 1436876823 936350347 433052152
            -1951465306 1626932153 755703899</internalNodes>
          <leafValues>
            -5.9566062688827515e-01 3.2550737261772156e-01</leafValues></_>
        <_>
          <internalNodes>
            0 -1 2 -19409580 -1200434891 1140949120 656425748 11240625
            -390936501 1084555268 828365775</internalNodes>
          <leafValues>
            -6.3478851318359375e-01 3.2318064570426941e-01</leafValues></_>
        <_>
          <internalNodes>
            0 -1 14 -2147123121 -216705263 25284691 555585866
            -1312758427 -1423862782 831062198 570993572</internalNodes>
          <leafValues>
            -5.4186433553695679e-01 4.0496692061424255e-01</leafValues></_>
        <_>
          <internalNodes>
            0 -1 4 -93551396 -687128568 1350586526 -1754828728
            1342238366 271262100 838920375 2002633223</internalNodes>
          <leafValues>
            -5.9282368421554565e-01 3.4901896119117737e-01</leafValues></_>
        <_>
          <internalNodes>
            0 -1 29 1809579831 71201263 -754938185 -543910568 403052394
            -62475017 1747492873 -386977756</internalNodes>
          <leafValues>
            -5.1179456710815430e-01 4.4157204031944275e-01</leafValues></_>
        <_>
          <internalNodes>
            0 -1 41 -431479638 -138171000 671795865 -672152357
            -1173709361 112332224 -1408189926 1361673231</internalNodes>
          <leafValues>
            -5.8707171678543091e-01 4.2133194208145142e-01</leafValues></_>
        <_>
          <internalNodes>
            0 -1 106 -1685906546 -1754286038 -543409763 -760799506
            402620120 -1610792494 -581346310 -3158057</internalNodes>
          <leafValues>
            -4.2273205518722534e-01 5.9170538187026978e-01</leafValues></_>
        <_>
          <internalNodes>
            0 -1 115 -1321561416 -2012684759 285323573 -2052398759
            -2146369222 -288845165 -1906138486 251340845</internalNodes>
          <leafValues>
            -6.8906968832015991e-01 3.5985895991325378e-01</leafValues></_></weakClassifiers></_>
    <!-- stage 16 -->
    <_>
      <maxWeakCount>10</maxWeakCount>
      <stageThreshold>-1.0875961780548096e+00</stageThreshold>
      <weakClassifiers>
        <_>
          <internalNodes>
            0 -1 68 -240857609 -1660222125 704709341 118163576
            -607024221 -8175599 -263516387 1169124270</internalNodes>
          <leafValues>
            -5.8263307809829712e-01 3.2348367571830750e-01</leafValues></_>
        <_>
          <internalNodes>
            0 -1 97 2130810813 97043656 18124695 -1810869536 -351263272
            700898952 104919726 -530870126</internalNodes>
          <leafValues>
            -5.1982748508453369e-01 3.5753539204597473e-01</leafValues></_>
        <_>
          <internalNodes>
            0 -1 137 972387869 -1710217412 -1898524184 -1592778036
            -945628930 -1048551144 -1410089084 -1095837372</internalNodes>
          <leafValues>
            -5.4181963205337524e-01 3.4489399194717407e-01</leafValues></_>
        <_>
          <internalNodes>
            0 -1 100 -709845828 1309967572 2015790875 677470427
            169515009 -368844264 -1278821733 1051333135</internalNodes>
          <leafValues>
            -6.4728111028671265e-01 3.2496038079261780e-01</leafValues></_>
        <_>
          <internalNodes>
            0 -1 140 -111418464 -251146192 1704663837 -327048829
            -502261224 1397393836 344057984 -1740314488</internalNodes>
          <leafValues>
            -6.3485556840896606e-01 3.3682537078857422e-01</leafValues></_>
        <_>
          <internalNodes>
            0 -1 102 -1969319777 638994463 605520237 -2112978188
            487612693 1723665152 -256204523 -531461</internalNodes>
          <leafValues>
            -5.2309072017669678e-01 3.9318248629570007e-01</leafValues></_>
        <_>
          <internalNodes>
            0 -1 35 -952700042 1429083911 -1088810166 1371097876
            -1996357460 304840964 -1551785824 -1640938865</internalNodes>
          <leafValues>
            -6.5486985445022583e-01 3.1245929002761841e-01</leafValues></_>
        <_>
          <internalNodes>
            0 -1 133 1884082232 1383408400 386109706 -1998526224
            815923896 -1467477976 1116352206 143558906</internalNodes>
          <leafValues>
            -8.1598198413848877e-01 2.8356492519378662e-01</leafValues></_>
        <_>
          <internalNodes>
            0 -1 70 2007112858 2075975053 2063507189 2013060113
            -268789010 856095741 -2099713 -539289217</internalNodes>
          <leafValues>
            -4.4759470224380493e-01 5.2815401554107666e-01</leafValues></_>
        <_>
          <internalNodes>
            0 -1 74 1243784085 669769963 787431351 -151533937 791291653
            -92307601 133887443 -1094994290</internalNodes>
          <leafValues>
            -3.9497008919715881e-01 6.1002618074417114e-01</leafValues></_></weakClassifiers></_>
    <!-- stage 17 -->
    <_>
      <maxWeakCount>10</maxWeakCount>
      <stageThreshold>-1.2204244136810303e+00</stageThreshold>
      <weakClassifiers>
        <_>
          <internalNodes>
            0 -1 69 628143000 -558517423 454230289 -1189519362 538123017
            -866020607 -2038294509 -296616961</internalNodes>
          <leafValues>
            -4.8394241929054260e-01 3.9835914969444275e-01</leafValues></_>
        <_>
          <internalNodes>
            0 -1 89 -30584323 431211823 268562495 -1069334446 2057439274
            -2004684568 2049444235 -122951489</internalNodes>
          <leafValues>
            -4.2074009776115417e-01 4.4634097814559937e-01</leafValues></_>
        <_>
          <internalNodes>
            0 -1 134 -584427012 1671532866 -619884137 -2117943291
            -1435584034 -1362976598 -1946158394 -1966416646</internalNodes>
          <leafValues>
            -4.9792277812957764e-01 3.9811450242996216e-01</leafValues></_>
        <_>
          <internalNodes>
            0 -1 60 1526383728 93930001 -1869964533 849315883 -142376623
            -1760902903 -242546480 -1576819823</internalNodes>
          <leafValues>
            -5.4384499788284302e-01 3.9348030090332031e-01</leafValues></_>
        <_>
          <internalNodes>
            0 -1 146 1024300023 -1861183553 -2071243530 -1419964104
            -1718882345 -215758697 -1922236504 -1385424732</internalNodes>
          <leafValues>
            -5.1275050640106201e-01 3.6339905858039856e-01</leafValues></_>
        <_>
          <internalNodes>
            0 -1 81 -1693800032 823093338 -1701564139 -779483277
            -833054707 -901608830 -1409119831 -137441381</internalNodes>
          <leafValues>
            -5.2715992927551270e-01 3.9155885577201843e-01</leafValues></_>
        <_>
          <internalNodes>
            0 -1 111 -2049069701 834473912 1736261436 838070362
            -1503989252 -1727165942 -1759594824 -654099214</internalNodes>
          <leafValues>
            -4.3608918786048889e-01 4.9674168229103088e-01</leafValues></_>
        <_>
          <internalNodes>
            0 -1 145 -217849725 -268999740 1898930238 2142494926
            -233971297 598563736 1031001327 -2366185</internalNodes>
          <leafValues>
            -3.7920084595680237e-01 5.9929454326629639e-01</leafValues></_>
        <_>
          <internalNodes>
            0 -1 28 -339972385 585760612 -1103300643 -1847493192
            1979667595 251655510 2145206271 -293634813</internalNodes>
          <leafValues>
            -3.6950087547302246e-01 6.0155451297760010e-01</leafValues></_>
        <_>
          <internalNodes>
            0 -1 116 -684705288 411059200 -250100525 1447800860
            -361561981 1805156994 -887094366 1454049474</internalNodes>
          <leafValues>
            -6.2752354145050049e-01 3.7733238935470581e-01</leafValues></_></weakClassifiers></_>
    <!-- stage 18 -->
    <_>
      <maxWeakCount>10</maxWeakCount>
      <stageThreshold>-1.1367180347442627e+00</stageThreshold>
      <weakClassifiers>
        <_>
          <internalNodes>
            0 -1 110 -1819264644 -1610469057 571670803 -1970660961
            -2096511177 -774213225 -871688693 -839000326</internalNodes>
          <leafValues>
            -6.1290323734283447e-01 3.3954933285713196e-01</leafValues></_>
        <_>
          <internalNodes>
            0 -1 25 -383077320 -1887054822 1074919473 231603930
            -241145778 -1636201809 360927308 654006527</internalNodes>
          <leafValues>
            -6.4238297939300537e-01 2.8070628643035889e-01</leafValues></_>
        <_>
          <internalNodes>
            0 -1 26 -887190292 2063716626 828973102 208523728
            -2029871378 289521728 1086551775 -287344097</internalNodes>
          <leafValues>
            -5.4313236474990845e-01 3.4688830375671387e-01</leafValues></_>
        <_>
          <internalNodes>
            0 -1 31 -803743265 705401821 -1849462405 -300770895
            973957155 1461436951 -1988047537 -422983636</internalNodes>
          <leafValues>
            -5.3391104936599731e-01 3.7371146678924561e-01</leafValues></_>
        <_>
          <internalNodes>
            0 -1 11 1653765881 26906964 1570345291 -678173897 2088768000
            1363165442 -516984490 -686664954</internalNodes>
          <leafValues>
            -5.6378549337387085e-01 3.5466039180755615e-01</leafValues></_>
        <_>
          <internalNodes>
            0 -1 87 1393832944 -1789537942 16843189 428048400 1800246033
            169795712 -1404499694 771154718</internalNodes>
          <leafValues>
            -5.3769600391387939e-01 3.7968629598617554e-01</leafValues></_>
        <_>
          <internalNodes>
            0 -1 71 1939230936 525993308 -1767689739 334442847
            -471195246 815285290 -460414658 -291791761</internalNodes>
          <leafValues>
            -4.8211884498596191e-01 4.6712478995323181e-01</leafValues></_>
        <_>
          <internalNodes>
            0 -1 58 117491924 555895123 -1726806641 27197542 -746581826
            1612942084 1510297947 1086283827</internalNodes>
          <leafValues>
            -6.6580373048782349e-01 3.7406682968139648e-01</leafValues></_>
        <_>
          <internalNodes>
            0 -1 149 2081370163 1267420231 4309331 1581454169 -857009809
            -56000469 -787918426 -638706998</internalNodes>
          <leafValues>
            -5.1922786235809326e-01 4.1022109985351562e-01</leafValues></_>
        <_>
          <internalNodes>
            0 -1 9 -1619394404 -806968768 1197760605 -1519252570
            659130558 1740785899 -131747732 1667061515</internalNodes>
          <leafValues>
            -6.2168049812316895e-01 3.6687949299812317e-01</leafValues></_></weakClassifiers></_>
    <!-- stage 19 -->
    <_>
      <maxWeakCount>10</maxWeakCount>
      <stageThreshold>-1.3817225694656372e+00</stageThreshold>
      <weakClassifiers>
        <_>
          <internalNodes>
            0 -1 46 -744496144 557253719 -31608039 563882527 -1055304701
            -993296119 -1618431348 -80748025</internalNodes>
          <leafValues>
            -5.2984166145324707e-01 3.6895674467086792e-01</leafValues></_>
        <_>
          <internalNodes>
            0 -1 130 -718121896 -902924934 -901341104 -488874760
            -1274913958 -851407978 -1326931109 -15694434</internalNodes>
          <leafValues>
            -4.9047169089317322e-01 3.7480553984642029e-01</leafValues></_>
        <_>
          <internalNodes>
            0 -1 24 1528408716 2137743045 1270843647 -955254785
            789028862 -2042510140 1595799551 -1090783241</internalNodes>
          <leafValues>
            -4.0492755174636841e-01 4.5651936531066895e-01</leafValues></_>
        <_>
          <internalNodes>
            0 -1 73 1711952124 1309562976 1175655481 572495916
            1217010334 189663639 -1167845201 708808281</internalNodes>
          <leafValues>
            -7.0806747674942017e-01 3.1857565045356750e-01</leafValues></_>
        <_>
          <internalNodes>
            0 -1 80 -682108230 -1825106567 453836983 1963262355
            -2137949953 -267321335 -791905027 -108696891</internalNodes>
          <leafValues>
            -4.3284985423088074e-01 4.5923602581024170e-01</leafValues></_>
        <_>
          <internalNodes>
            0 -1 34 -33605195 -1193530576 -1660479227 -2054150642
            805916676 -509269631 151214232 -338638835</internalNodes>
          <leafValues>
            -5.5916506052017212e-01 3.8428163528442383e-01</leafValues></_>
        <_>
          <internalNodes>
            0 -1 148 -1564770321 120099968 -1816944238 -1113577000
            -175143945 -1882304126 -1875628576 -1746948752</internalNodes>
          <leafValues>
            -4.6685290336608887e-01 4.7009685635566711e-01</leafValues></_>
        <_>
          <internalNodes>
            0 -1 77 152600968 -1718203888 1475524030 -802778030
            1981579950 -392245076 495689865 167746238</internalNodes>
          <leafValues>
            -6.8149232864379883e-01 2.8292489051818848e-01</leafValues></_>
        <_>
          <internalNodes>
            0 -1 141 -2056087564 -2222664 -1685794718 1565823060
            -1065178989 -1969223640 -2103384854 -1727133544</internalNodes>
          <leafValues>
            -5.2228385210037231e-01 4.2540386319160461e-01</leafValues></_>
        <_>
          <internalNodes>
            0 -1 117 1403232307 -126088188 -1609242177 -423849795
            -827352026 -134282122 -16777483 -5889</internalNodes>
          <leafValues>
            -3.3036330342292786e-01 6.4775657653808594e-01</leafValues></_></weakClassifiers></_></stages>
  <features>
    <_>
      <rect>
        0 5 4 5</rect></_>
    <_>
      <rect>
        0 6 5 7</rect></_>
    <_>
      <rect>
        0 8 4 5</rect></_>
    <_>
      <rect>
        0 8 7 3</rect></_>
    <_>
      <rect>
        0 12 3 1</rect></_>
    <_>
      <rect>
        0 17 4 2</rect></_>
    <_>
      <rect>
        1 3 7 7</rect></_>
    <_>
      <rect>
        1 3 7 8</rect></_>
    <_>
      <rect>
        1 8 5 3</rect></_>
    <_>
      <rect>
        1 12 3 2</rect></_>
    <_>
      <rect>
        1 12 4 2</rect></_>
    <_>
      <rect>
        1 16 3 3</rect></_>
    <_>
      <rect>
        1 16 4 3</rect></_>
    <_>
      <rect>
        2 0 3 4</rect></_>
    <_>
      <rect>
        2 0 6 3</rect></_>
    <_>
      <rect>
        2 4 3 6</rect></_>
    <_>
      <rect>
        2 6 6 5</rect></_>
    <_>
      <rect>
        2 8 3 3</rect></_>
    <_>
      <rect>
        2 11 2 2</rect></_>
    <_>
      <rect>
        3 2 3 6</rect></_>
    <_>
      <rect>
        3 2 5 7</rect></_>
    <_>
      <rect>
        3 7 5 3</rect></_>
    <_>
      <rect>
        3 8 2 3</rect></_>
    <_>
      <rect>
        3 9 5 4</rect></_>
    <_>
      <rect>
        3 10 2 2</rect></_>
    <_>
      <rect>
        3 11 3 2</rect></_>
    <_>
      <rect>
        3 12 2 1</rect></_>
    <_>
      <rect>
        3 13 3 2</rect></_>
    <_>
      <rect>
        3 14 2 2</rect></_>
    <_>
      <rect>
        3 16 2 2</rect></_>
    <_>
      <rect>
        3 17 3 2</rect></_>
    <_>
      <rect>
        3 18 4 1</rect></_>
    <_>
      <rect>
        4 4 3 6</rect></_>
    <_>
      <rect>
        4 5 3 5</rect></_>
    <_>
      <rect>
        4 5 3 6</rect></_>
    <_>
      <rect>
        4 5 5 5</rect></_>
    <_>
      <rect>
        4 6 3 4</rect></_>
    <_>
      <rect>
        4 7 3 4</rect></_>
    <_>
      <rect>
        4 7 4 3</rect></_>
    <_>
      <rect>
        4 7 5 3</rect></_>
    <_>
      <rect>
        4 9 5 3</rect></_>
    <_>
      <rect>
        4 12 2 1</rect></_>
    <_>
      <rect>
        4 14 2 3</rect></_>
    <_>
      <rect>
        4 16 4 2</rect></_>
    <_>
      <rect>
        4 17 3 2</rect></_>
    <_>
      <rect>
        5 6 4 5</rect></_>
    <_>
      <rect>
        5 7 3 3</rect></_>
    <_>
      <rect>
        5 8 4 2</rect></_>
    <_>
      <rect>
        5 9 1 1</rect></_>
    <_>
      <rect>
        5 9 2 2</rect></_>
    <_>
      <rect>
        5 10 2 2</rect></_>
    <_>
      <rect>
        5 10 2 4</rect></_>
    <_>
      <rect>
        5 10 4 2</rect></_>
    <_>
      <rect>
        5 10 4 3</rect></_>
    <_>
      <rect>
        5 11 3 3</rect></_>
    <_>
      <rect>
        5 11 4 2</rect></_>
    <_>
      <rect>
        5 11 5 2</rect></_>
    <_>
      <rect>
        5 13 1 1</rect></_>
    <_>
      <rect>
        5 14 2 2</rect></_>
    <_>
      <rect>
        5 14 3 2</rect></_>
    <_>
      <rect>
        6 3 2 5</rect></_>
    <_>
      <rect>
        6 5 3 6</rect></_>
    <_>
      <rect>
        6 6 1 2</rect></_>
    <_>
      <rect>
        6 6 3 3</rect></_>
    <_>
      <rect>
        6 6 3 4</rect></_>
    <_>
      <rect>
        6 8 4 3</rect></_>
    <_>
      <rect>
        6 9 4 4</rect></_>
    <_>
      <rect>
        6 10 1 2</rect></_>
    <_>
      <rect>
        6 10 3 2</rect></_>
    <_>
      <rect>
        6 11 3 3</rect></_>
    <_>
      <rect>
        6 12 1 1</rect></_>
    <_>
      <rect>
        6 13 1 1</rect></_>
    <_>
      <rect>
        6 13 3 1</rect></_>
    <_>
      <rect>
        6 14 2 1</rect></_>
    <_>
      <rect>
        6 15 1 1</rect></_>
    <_>
      <rect>
        7 1 2 5</rect></_>
    <_>
      <rect>
        7 6 2 3</rect></_>
    <_>
      <rect>
        7 8 1 2</rect></_>
    <_>
      <rect>
        7 8 2 2</rect></_>
    <_>
      <rect>
        7 8 3 4</rect></_>
    <_>
      <rect>
        7 8 5 3</rect></_>
    <_>
      <rect>
        7 10 2 1</rect></_>
    <_>
      <rect>
        7 10 2 4</rect></_>
    <_>
      <rect>
        7 10 3 2</rect></_>
    <_>
      <rect>
        7 11 1 1</rect></_>
    <_>
      <rect>
        7 11 2 2</rect></_>
    <_>
      <rect>
        7 11 2 3</rect></_>
    <_>
      <rect>
        7 11 3 2</rect></_>
    <_>
      <rect>
        7 12 1 2</rect></_>
    <_>
      <rect>
        7 12 3 1</rect></_>
    <_>
      <rect>
        7 14 1 1</rect></_>
    <_>
      <rect>
        7 17 3 2</rect></_>
    <_>
      <rect>
        8 2 4 4</rect></_>
    <_>
      <rect>
        8 9 1 2</rect></_>
    <_>
      <rect>
        8 10 1 1</rect></_>
    <_>
      <rect>
        8 10 2 1</rect></_>
    <_>
      <rect>
        8 10 3 3</rect></_>
    <_>
      <rect>
        8 12 2 1</rect></_>
    <_>
      <rect>
        8 12 4 5</rect></_>
    <_>
      <rect>
        8 13 1 1</rect></_>
    <_>
      <rect>
        8 13 1 2</rect></_>
    <_>
      <rect>
        8 14 1 1</rect></_>
    <_>
      <rect>
        8 17 2 2</rect></_>
    <_>
      <rect>
        9 0 4 4</rect></_>
    <_>
      <rect>
        9 5 3 4</rect></_>
    <_>
      <rect>
        9 5 4 4</rect></_>
    <_>
      <rect>
        9 8 1 1</rect></_>
    <_>
      <rect>
        9 8 1 2</rect></_>
    <_>
      <rect>
        9 10 1 1</rect></_>
    <_>
      <rect>
        9 10 2 2</rect></_>
    <_>
      <rect>
        9 10 2 3</rect></_>
    <_>
      <rect>
        9 12 1 1</rect></_>
    <_>
      <rect>
        9 12 1 2</rect></_>
    <_>
      <rect>
        9 12 3 2</rect></_>
    <_>
      <rect>
        9 13 2 1</rect></_>
    <_>
      <rect>
        9 13 2 2</rect></_>
    <_>
      <rect>
        9 14 1 1</rect></_>
    <_>
      <rect>
        9 17 1 1</rect></_>
    <_>
      <rect>
        10 1 3 3</rect></_>
    <_>
      <rect>
        10 1 4 4</rect></_>
    <_>
      <rect>
        10 7 3 6</rect></_>
    <_>
      <rect>
        10 10 3 2</rect></_>
    <_>
      <rect>
        10 12 1 1</rect></_>
    <_>
      <rect>
        10 12 4 5</rect></_>
    <_>
      <rect>
        10 13 1 1</rect></_>
    <_>
      <rect>
        10 14 2 1</rect></_>
    <_>
      <rect>
        10 14 3 1</rect></_>
    <_>
      <rect>
        11 0 3 3</rect></_>
    <_>
      <rect>
        11 4 3 3</rect></_>
    <_>
      <rect>
        11 5 3 6</rect></_>
    <_>
      <rect>
        11 12 1 1</rect></_>
    <_>
      <rect>
        11 12 3 5</rect></_>
    <_>
      <rect>
        11 13 2 2</rect></_>
    <_>
      <rect>
        11 13 3 2</rect></_>
    <_>
      <rect>
        11 14 3 2</rect></_>
    <_>
      <rect>
        12 6 3 5</rect></_>
    <_>
      <rect>
        12 11 2 2</rect></_>
    <_>
      <rect>
        12 15 3 4</rect></_>
    <_>
      <rect>
        12 17 3 3</rect></_>
    <_>
      <rect>
        13 4 3 5</rect></_>
    <_>
      <rect>
        13 6 3 4</rect></_>
    <_>
      <rect>
        13 13 1 1</rect></_>
    <_>
      <rect>
        13 18 3 2</rect></_>
    <_>
      <rect>
        14 11 2 2</rect></_>
    <_>
      <rect>
        15 0 2 4</rect></_>
    <_>
      <rect>
        15 7 1 1</rect></_>
    <_>
      <rect>
        15 15 2 4</rect></_>
    <_>
      <rect>
        16 14 2 4</rect></_>
    <_>
      <rect>
        16 18 2 3</rect></_>
    <_>
      <rect>
        18 0 1 4</rect></_></features></cascade>
</opencv_storage>
