<?xml version="1.0"?>
<opencv_storage>
<cascade>
  <stageType>BOOST</stageType>
  <featureType>HAAR</featureType>
  <height>10</height>
  <width>50</width>
  <stageParams>
    <boostType>GAB</boostType>
    <minHitRate>9.9900001287460327e-01</minHitRate>
    <maxFalseAlarm>5.0000000000000000e-01</maxFalseAlarm>
    <weightTrimRate>9.4999999999999996e-01</weightTrimRate>
    <maxDepth>1</maxDepth>
    <maxWeakCount>100</maxWeakCount></stageParams>
  <featureParams>
    <maxCatCount>0</maxCatCount>
    <featSize>1</featSize>
    <mode>ALL</mode></featureParams>
  <stageNum>20</stageNum>
  <stages>
    <!-- stage 0 -->
    <_>
      <maxWeakCount>3</maxWeakCount>
      <stageThreshold>-7.6151609420776367e-01</stageThreshold>
      <weakClassifiers>
        <_>
          <internalNodes>
            0 -1 103 -3.6853004246950150e-02</internalNodes>
          <leafValues>
            7.1681416034698486e-01 -9.3103450536727905e-01</leafValues></_>
        <_>
          <internalNodes>
            0 -1 13 2.1734145283699036e-01</internalNodes>
          <leafValues>
            -7.0503920316696167e-01 8.0869185924530029e-01</leafValues></_>
        <_>
          <internalNodes>
            0 -1 151 2.6383753865957260e-02</internalNodes>
          <leafValues>
            -4.2761126160621643e-01 8.7455755472183228e-01</leafValues></_></weakClassifiers></_>
    <!-- stage 1 -->
    <_>
      <maxWeakCount>5</maxWeakCount>
      <stageThreshold>-1.2984019517898560e+00</stageThreshold>
      <weakClassifiers>
        <_>
          <internalNodes>
            0 -1 155 -2.5047667324542999e-02</internalNodes>
          <leafValues>
            8.6910992860794067e-01 -5.3721684217453003e-01</leafValues></_>
        <_>
          <internalNodes>
            0 -1 140 -2.0942900329828262e-02</internalNodes>
          <leafValues>
            6.0506325960159302e-01 -5.5699998140335083e-01</leafValues></_>
        <_>
          <internalNodes>
            0 -1 99 1.6650596633553505e-02</internalNodes>
          <leafValues>
            -3.7216770648956299e-01 7.0600819587707520e-01</leafValues></_>
        <_>
          <internalNodes>
            0 -1 21 1.0812494158744812e-01</internalNodes>
          <leafValues>
            -3.4215980768203735e-01 7.0451986789703369e-01</leafValues></_>
        <_>
          <internalNodes>
            0 -1 180 1.2765680439770222e-03</internalNodes>
          <leafValues>
            -5.6803351640701294e-01 5.2374231815338135e-01</leafValues></_></weakClassifiers></_>
    <!-- stage 2 -->
    <_>
      <maxWeakCount>8</maxWeakCount>
      <stageThreshold>-8.9581209421157837e-01</stageThreshold>
      <weakClassifiers>
        <_>
          <internalNodes>
            0 -1 146 4.4148191809654236e-02</internalNodes>
          <leafValues>
            -4.5371776819229126e-01 8.7683284282684326e-01</leafValues></_>
        <_>
          <internalNodes>
            0 -1 213 1.6856409609317780e-02</internalNodes>
          <leafValues>
            -6.8668669462203979e-01 4.2137920856475830e-01</leafValues></_>
        <_>
          <internalNodes>
            0 -1 24 3.6144278943538666e-02</internalNodes>
          <leafValues>
            -2.8311547636985779e-01 7.5368219614028931e-01</leafValues></_>
        <_>
          <internalNodes>
            0 -1 57 6.5581500530242920e-02</internalNodes>
          <leafValues>
            -3.0591943860054016e-01 7.0230537652969360e-01</leafValues></_>
        <_>
          <internalNodes>
            0 -1 242 6.8872496485710144e-03</internalNodes>
          <leafValues>
            2.5607606768608093e-01 -8.8951683044433594e-01</leafValues></_>
        <_>
          <internalNodes>
            0 -1 17 -7.8804662916809320e-04</internalNodes>
          <leafValues>
            -7.6755213737487793e-01 2.4684804677963257e-01</leafValues></_>
        <_>
          <internalNodes>
            0 -1 134 4.2271308600902557e-02</internalNodes>
          <leafValues>
            -2.9797756671905518e-01 7.1047848463058472e-01</leafValues></_>
        <_>
          <internalNodes>
            0 -1 167 -1.5001961030066013e-02</internalNodes>
          <leafValues>
            7.5997573137283325e-01 -4.0217277407646179e-01</leafValues></_></weakClassifiers></_>
    <!-- stage 3 -->
    <_>
      <maxWeakCount>10</maxWeakCount>
      <stageThreshold>-1.3352214097976685e+00</stageThreshold>
      <weakClassifiers>
        <_>
          <internalNodes>
            0 -1 146 5.1413878798484802e-02</internalNodes>
          <leafValues>
            -3.7370753288269043e-01 7.8328174352645874e-01</leafValues></_>
        <_>
          <internalNodes>
            0 -1 179 2.0443266257643700e-03</internalNodes>
          <leafValues>
            -3.2167255878448486e-01 5.6585347652435303e-01</leafValues></_>
        <_>
          <internalNodes>
            0 -1 134 4.3606642633676529e-02</internalNodes>
          <leafValues>
            -2.9942277073860168e-01 8.1448435783386230e-01</leafValues></_>
        <_>
          <internalNodes>
            0 -1 75 -1.4287939295172691e-02</internalNodes>
          <leafValues>
            -8.4751385450363159e-01 2.3008146882057190e-01</leafValues></_>
        <_>
          <internalNodes>
            0 -1 104 8.6801853030920029e-03</internalNodes>
          <leafValues>
            2.5499722361564636e-01 -7.7061516046524048e-01</leafValues></_>
        <_>
          <internalNodes>
            0 -1 26 1.1931764334440231e-01</internalNodes>
          <leafValues>
            -3.5088700056076050e-01 5.9346061944961548e-01</leafValues></_>
        <_>
          <internalNodes>
            0 -1 112 -5.3571291267871857e-02</internalNodes>
          <leafValues>
            6.3709288835525513e-01 -2.8611919283866882e-01</leafValues></_>
        <_>
          <internalNodes>
            0 -1 131 -3.5645614843815565e-03</internalNodes>
          <leafValues>
            -8.8397163152694702e-01 2.4968808889389038e-01</leafValues></_>
        <_>
          <internalNodes>
            0 -1 174 1.3796832412481308e-02</internalNodes>
          <leafValues>
            -2.7739807963371277e-01 9.0041208267211914e-01</leafValues></_>
        <_>
          <internalNodes>
            0 -1 154 -3.4315258264541626e-02</internalNodes>
          <leafValues>
            6.9628256559371948e-01 -1.6078104078769684e-01</leafValues></_></weakClassifiers></_>
    <!-- stage 4 -->
    <_>
      <maxWeakCount>8</maxWeakCount>
      <stageThreshold>-9.6276867389678955e-01</stageThreshold>
      <weakClassifiers>
        <_>
          <internalNodes>
            0 -1 130 5.5283658206462860e-02</internalNodes>
          <leafValues>
            -3.9103555679321289e-01 7.1671390533447266e-01</leafValues></_>
        <_>
          <internalNodes>
            0 -1 84 -3.5568922758102417e-02</internalNodes>
          <leafValues>
            4.3842506408691406e-01 -4.5314678549766541e-01</leafValues></_>
        <_>
          <internalNodes>
            0 -1 4 4.0371965616941452e-02</internalNodes>
          <leafValues>
            -3.0946376919746399e-01 5.9964275360107422e-01</leafValues></_>
        <_>
          <internalNodes>
            0 -1 128 -6.1719142831861973e-04</internalNodes>
          <leafValues>
            -8.7706691026687622e-01 2.1985407173633575e-01</leafValues></_>
        <_>
          <internalNodes>
            0 -1 17 7.8258157009258866e-04</internalNodes>
          <leafValues>
            2.4896645545959473e-01 -6.9237703084945679e-01</leafValues></_>
        <_>
          <internalNodes>
            0 -1 206 -5.7540563866496086e-03</internalNodes>
          <leafValues>
            6.6311794519424438e-01 -2.5358536839485168e-01</leafValues></_>
        <_>
          <internalNodes>
            0 -1 214 4.1162583976984024e-02</internalNodes>
          <leafValues>
            -2.1752426028251648e-01 8.5053896903991699e-01</leafValues></_>
        <_>
          <internalNodes>
            0 -1 201 1.2856076937168837e-03</internalNodes>
          <leafValues>
            3.0827063322067261e-01 -6.9840532541275024e-01</leafValues></_></weakClassifiers></_>
    <!-- stage 5 -->
    <_>
      <maxWeakCount>6</maxWeakCount>
      <stageThreshold>-1.4234900474548340e+00</stageThreshold>
      <weakClassifiers>
        <_>
          <internalNodes>
            0 -1 155 -3.2057046890258789e-02</internalNodes>
          <leafValues>
            5.9366756677627563e-01 -3.6231884360313416e-01</leafValues></_>
        <_>
          <internalNodes>
            0 -1 132 3.0063465237617493e-02</internalNodes>
          <leafValues>
            -3.1299495697021484e-01 7.2744470834732056e-01</leafValues></_>
        <_>
          <internalNodes>
            0 -1 18 1.5787589550018311e-01</internalNodes>
          <leafValues>
            -3.1136354804039001e-01 6.3627833127975464e-01</leafValues></_>
        <_>
          <internalNodes>
            0 -1 202 -6.8251596530899405e-04</internalNodes>
          <leafValues>
            -7.3339456319808960e-01 2.8348821401596069e-01</leafValues></_>
        <_>
          <internalNodes>
            0 -1 121 3.0261739157140255e-03</internalNodes>
          <leafValues>
            -1.8291765451431274e-01 8.5503977537155151e-01</leafValues></_>
        <_>
          <internalNodes>
            0 -1 141 -7.3838122189044952e-03</internalNodes>
          <leafValues>
            3.6301743984222412e-01 -5.5845791101455688e-01</leafValues></_></weakClassifiers></_>
    <!-- stage 6 -->
    <_>
      <maxWeakCount>11</maxWeakCount>
      <stageThreshold>-1.4646546840667725e+00</stageThreshold>
      <weakClassifiers>
        <_>
          <internalNodes>
            0 -1 10 1.0185825824737549e-01</internalNodes>
          <leafValues>
            -6.3106793165206909e-01 4.4217687845230103e-01</leafValues></_>
        <_>
          <internalNodes>
            0 -1 177 -4.6707573346793652e-04</internalNodes>
          <leafValues>
            3.3789700269699097e-01 -5.7075315713882446e-01</leafValues></_>
        <_>
          <internalNodes>
            0 -1 101 -2.1261055022478104e-02</internalNodes>
          <leafValues>
            1.8242247402667999e-01 -8.4720218181610107e-01</leafValues></_>
        <_>
          <internalNodes>
            0 -1 83 3.6308784037828445e-03</internalNodes>
          <leafValues>
            -2.4489590525627136e-01 7.4438792467117310e-01</leafValues></_>
        <_>
          <internalNodes>
            0 -1 98 3.9540905505418777e-02</internalNodes>
          <leafValues>
            -2.5259563326835632e-01 7.2073191404342651e-01</leafValues></_>
        <_>
          <internalNodes>
            0 -1 58 -6.2301829457283020e-03</internalNodes>
          <leafValues>
            7.7818137407302856e-01 -2.0158210396766663e-01</leafValues></_>
        <_>
          <internalNodes>
            0 -1 32 8.5765615105628967e-02</internalNodes>
          <leafValues>
            -2.3037981986999512e-01 6.0453933477401733e-01</leafValues></_>
        <_>
          <internalNodes>
            0 -1 76 1.7248064279556274e-02</internalNodes>
          <leafValues>
            -2.7904751896858215e-01 6.4663499593734741e-01</leafValues></_>
        <_>
          <internalNodes>
            0 -1 189 -5.9043224900960922e-03</internalNodes>
          <leafValues>
            -7.9092389345169067e-01 2.3084963858127594e-01</leafValues></_>
        <_>
          <internalNodes>
            0 -1 2 -4.7634309157729149e-03</internalNodes>
          <leafValues>
            -6.9849187135696411e-01 2.1609210968017578e-01</leafValues></_>
        <_>
          <internalNodes>
            0 -1 160 4.8828655853867531e-03</internalNodes>
          <leafValues>
            -4.0896424651145935e-01 3.6616447567939758e-01</leafValues></_></weakClassifiers></_>
    <!-- stage 7 -->
    <_>
      <maxWeakCount>9</maxWeakCount>
      <stageThreshold>-8.8061487674713135e-01</stageThreshold>
      <weakClassifiers>
        <_>
          <internalNodes>
            0 -1 173 -1.2930503115057945e-02</internalNodes>
          <leafValues>
            7.2995781898498535e-01 -2.2673656046390533e-01</leafValues></_>
        <_>
          <internalNodes>
            0 -1 186 1.5728457365185022e-03</internalNodes>
          <leafValues>
            1.8607093393802643e-01 -8.8592386245727539e-01</leafValues></_>
        <_>
          <internalNodes>
            0 -1 185 -5.6077796034514904e-04</internalNodes>
          <leafValues>
            -7.0219200849533081e-01 2.4297620356082916e-01</leafValues></_>
        <_>
          <internalNodes>
            0 -1 28 4.8472613096237183e-02</internalNodes>
          <leafValues>
            -4.3271237611770630e-01 3.4857901930809021e-01</leafValues></_>
        <_>
          <internalNodes>
            0 -1 193 -5.3629516623914242e-03</internalNodes>
          <leafValues>
            6.5309774875640869e-01 -3.0116763710975647e-01</leafValues></_>
        <_>
          <internalNodes>
            0 -1 66 -3.6641340702772141e-02</internalNodes>
          <leafValues>
            4.0013879537582397e-01 -4.3469485640525818e-01</leafValues></_>
        <_>
          <internalNodes>
            0 -1 215 1.5573281794786453e-02</internalNodes>
          <leafValues>
            -2.1514703333377838e-01 7.2489666938781738e-01</leafValues></_>
        <_>
          <internalNodes>
            0 -1 61 5.4183270782232285e-02</internalNodes>
          <leafValues>
            -1.8531028926372528e-01 7.6117682456970215e-01</leafValues></_>
        <_>
          <internalNodes>
            0 -1 115 2.0706754177808762e-02</internalNodes>
          <leafValues>
            -1.7475967109203339e-01 7.3907601833343506e-01</leafValues></_></weakClassifiers></_>
    <!-- stage 8 -->
    <_>
      <maxWeakCount>13</maxWeakCount>
      <stageThreshold>-1.2820810079574585e+00</stageThreshold>
      <weakClassifiers>
        <_>
          <internalNodes>
            0 -1 147 9.0302377939224243e-03</internalNodes>
          <leafValues>
            -8.6440676450729370e-01 1.8590521812438965e-01</leafValues></_>
        <_>
          <internalNodes>
            0 -1 179 1.0437979362905025e-03</internalNodes>
          <leafValues>
            -5.0155103206634521e-01 2.5627583265304565e-01</leafValues></_>
        <_>
          <internalNodes>
            0 -1 133 -1.2302281334996223e-02</internalNodes>
          <leafValues>
            -8.0522239208221436e-01 2.0015422999858856e-01</leafValues></_>
        <_>
          <internalNodes>
            0 -1 81 -4.6354541555047035e-03</internalNodes>
          <leafValues>
            -3.4784072637557983e-01 4.2931205034255981e-01</leafValues></_>
        <_>
          <internalNodes>
            0 -1 122 -3.8910657167434692e-02</internalNodes>
          <leafValues>
            4.7534698247909546e-01 -2.8685528039932251e-01</leafValues></_>
        <_>
          <internalNodes>
            0 -1 30 8.3855271339416504e-02</internalNodes>
          <leafValues>
            -3.2522717118263245e-01 7.1732968091964722e-01</leafValues></_>
        <_>
          <internalNodes>
            0 -1 170 1.8562990007922053e-03</internalNodes>
          <leafValues>
            2.4554689228534698e-01 -6.8187654018402100e-01</leafValues></_>
        <_>
          <internalNodes>
            0 -1 106 7.2335027158260345e-02</internalNodes>
          <leafValues>
            -2.2874648869037628e-01 6.0441184043884277e-01</leafValues></_>
        <_>
          <internalNodes>
            0 -1 190 -4.2560780420899391e-03</internalNodes>
          <leafValues>
            7.8813970088958740e-01 -1.9525602459907532e-01</leafValues></_>
        <_>
          <internalNodes>
            0 -1 180 3.6244260263629258e-04</internalNodes>
          <leafValues>
            -5.0781780481338501e-01 2.8891193866729736e-01</leafValues></_>
        <_>
          <internalNodes>
            0 -1 46 -4.4059298932552338e-02</internalNodes>
          <leafValues>
            6.1345273256301880e-01 -2.4494840204715729e-01</leafValues></_>
        <_>
          <internalNodes>
            0 -1 165 -1.8060326110571623e-03</internalNodes>
          <leafValues>
            -6.6581594944000244e-01 2.4576576054096222e-01</leafValues></_>
        <_>
          <internalNodes>
            0 -1 256 -5.8243668172508478e-04</internalNodes>
          <leafValues>
            -7.2216886281967163e-01 1.5651838481426239e-01</leafValues></_></weakClassifiers></_>
    <!-- stage 9 -->
    <_>
      <maxWeakCount>12</maxWeakCount>
      <stageThreshold>-9.9937242269515991e-01</stageThreshold>
      <weakClassifiers>
        <_>
          <internalNodes>
            0 -1 198 -1.0803199838846922e-03</internalNodes>
          <leafValues>
            3.7142857909202576e-01 -4.7272726893424988e-01</leafValues></_>
        <_>
          <internalNodes>
            0 -1 156 6.5274864435195923e-02</internalNodes>
          <leafValues>
            -1.7323410511016846e-01 7.6556098461151123e-01</leafValues></_>
        <_>
          <internalNodes>
            0 -1 42 -3.7309758365154266e-02</internalNodes>
          <leafValues>
            7.1182548999786377e-01 -2.0608571171760559e-01</leafValues></_>
        <_>
          <internalNodes>
            0 -1 54 3.3933143131434917e-03</internalNodes>
          <leafValues>
            -1.7372392117977142e-01 5.8620417118072510e-01</leafValues></_>
        <_>
          <internalNodes>
            0 -1 224 -8.2575939595699310e-03</internalNodes>
          <leafValues>
            4.8448815941810608e-01 -2.3693014681339264e-01</leafValues></_>
        <_>
          <internalNodes>
            0 -1 139 8.3378683775663376e-03</internalNodes>
          <leafValues>
            1.5956714749336243e-01 -7.8550952672958374e-01</leafValues></_>
        <_>
          <internalNodes>
            0 -1 90 -2.7165585756301880e-01</internalNodes>
          <leafValues>
            -9.3170082569122314e-01 7.7998660504817963e-02</leafValues></_>
        <_>
          <internalNodes>
            0 -1 205 -1.3193038757890463e-03</internalNodes>
          <leafValues>
            -9.2664098739624023e-01 1.5706059336662292e-01</leafValues></_>
        <_>
          <internalNodes>
            0 -1 118 2.0192619413137436e-02</internalNodes>
          <leafValues>
            -1.9061566889286041e-01 6.4121979475021362e-01</leafValues></_>
        <_>
          <internalNodes>
            0 -1 52 -4.4166438281536102e-02</internalNodes>
          <leafValues>
            5.6078338623046875e-01 -2.2425939142704010e-01</leafValues></_>
        <_>
          <internalNodes>
            0 -1 31 1.1426134966313839e-02</internalNodes>
          <leafValues>
            -1.9211845099925995e-01 5.9230989217758179e-01</leafValues></_>
        <_>
          <internalNodes>
            0 -1 204 2.9320716857910156e-02</internalNodes>
          <leafValues>
            -1.4294207096099854e-01 6.7316007614135742e-01</leafValues></_></weakClassifiers></_>
    <!-- stage 10 -->
    <_>
      <maxWeakCount>15</maxWeakCount>
      <stageThreshold>-1.2623689174652100e+00</stageThreshold>
      <weakClassifiers>
        <_>
          <internalNodes>
            0 -1 143 -3.8746226346120238e-04</internalNodes>
          <leafValues>
            -7.0370370149612427e-01 1.6399507224559784e-01</leafValues></_>
        <_>
          <internalNodes>
            0 -1 16 1.9695669412612915e-02</internalNodes>
          <leafValues>
            -2.8678053617477417e-01 4.1865441203117371e-01</leafValues></_>
        <_>
          <internalNodes>
            0 -1 153 -4.4860965572297573e-03</internalNodes>
          <leafValues>
            -7.7248418331146240e-01 2.1038784086704254e-01</leafValues></_>
        <_>
          <internalNodes>
            0 -1 210 -2.6993141509592533e-03</internalNodes>
          <leafValues>
            4.5884549617767334e-01 -2.5162097811698914e-01</leafValues></_>
        <_>
          <internalNodes>
            0 -1 124 1.2384681403636932e-01</internalNodes>
          <leafValues>
            -1.7763017117977142e-01 7.7795219421386719e-01</leafValues></_>
        <_>
          <internalNodes>
            0 -1 114 -1.0301042348146439e-02</internalNodes>
          <leafValues>
            -7.6706761121749878e-01 1.5191750228404999e-01</leafValues></_>
        <_>
          <internalNodes>
            0 -1 249 -2.1618999540805817e-02</internalNodes>
          <leafValues>
            3.4734296798706055e-01 -2.6493588089942932e-01</leafValues></_>
        <_>
          <internalNodes>
            0 -1 87 1.3617899967357516e-03</internalNodes>
          <leafValues>
            -3.6749914288520813e-01 2.7372485399246216e-01</leafValues></_>
        <_>
          <internalNodes>
            0 -1 79 -1.6151466406881809e-03</internalNodes>
          <leafValues>
            -5.7126039266586304e-01 1.8036463856697083e-01</leafValues></_>
        <_>
          <internalNodes>
            0 -1 214 4.3933402746915817e-02</internalNodes>
          <leafValues>
            -1.6987472772598267e-01 5.4629570245742798e-01</leafValues></_>
        <_>
          <internalNodes>
            0 -1 191 -1.3875578530132771e-02</internalNodes>
          <leafValues>
            4.6434754133224487e-01 -2.2821505367755890e-01</leafValues></_>
        <_>
          <internalNodes>
            0 -1 207 -7.5510619208216667e-03</internalNodes>
          <leafValues>
            -6.0605782270431519e-01 1.4063017070293427e-01</leafValues></_>
        <_>
          <internalNodes>
            0 -1 149 -1.3095712289214134e-02</internalNodes>
          <leafValues>
            -8.9060306549072266e-01 1.0308692604303360e-01</leafValues></_>
        <_>
          <internalNodes>
            0 -1 94 2.7176039293408394e-03</internalNodes>
          <leafValues>
            -2.0896892249584198e-01 4.7033455967903137e-01</leafValues></_>
        <_>
          <internalNodes>
            0 -1 107 -1.2414974160492420e-02</internalNodes>
          <leafValues>
            6.5587955713272095e-01 -1.4682468771934509e-01</leafValues></_></weakClassifiers></_>
    <!-- stage 11 -->
    <_>
      <maxWeakCount>15</maxWeakCount>
      <stageThreshold>-1.1889771223068237e+00</stageThreshold>
      <weakClassifiers>
        <_>
          <internalNodes>
            0 -1 181 2.0259474404156208e-03</internalNodes>
          <leafValues>
            -3.8069215416908264e-01 4.6341463923454285e-01</leafValues></_>
        <_>
          <internalNodes>
            0 -1 129 -3.1936133746057749e-03</internalNodes>
          <leafValues>
            5.5681663751602173e-01 -1.9403301179409027e-01</leafValues></_>
        <_>
          <internalNodes>
            0 -1 34 9.9147483706474304e-04</internalNodes>
          <leafValues>
            -6.0248458385467529e-01 1.8546862900257111e-01</leafValues></_>
        <_>
          <internalNodes>
            0 -1 200 2.5994604220613837e-04</internalNodes>
          <leafValues>
            1.6579419374465942e-01 -5.6934142112731934e-01</leafValues></_>
        <_>
          <internalNodes>
            0 -1 177 -3.4276460064575076e-04</internalNodes>
          <leafValues>
            2.4090413749217987e-01 -4.2723342776298523e-01</leafValues></_>
        <_>
          <internalNodes>
            0 -1 145 1.1791256256401539e-03</internalNodes>
          <leafValues>
            -4.3369659781455994e-01 2.3572726547718048e-01</leafValues></_>
        <_>
          <internalNodes>
            0 -1 190 -1.8266341648995876e-03</internalNodes>
          <leafValues>
            5.8983016014099121e-01 -1.5131622552871704e-01</leafValues></_>
        <_>
          <internalNodes>
            0 -1 192 -1.9851956516504288e-02</internalNodes>
          <leafValues>
            3.4682795405387878e-01 -3.1382760405540466e-01</leafValues></_>
        <_>
          <internalNodes>
            0 -1 113 3.9441091939806938e-03</internalNodes>
          <leafValues>
            -1.5308368206024170e-01 6.1855709552764893e-01</leafValues></_>
        <_>
          <internalNodes>
            0 -1 241 -6.6702878102660179e-03</internalNodes>
          <leafValues>
            3.5524180531501770e-01 -2.4285563826560974e-01</leafValues></_>
        <_>
          <internalNodes>
            0 -1 212 1.0865726508200169e-03</internalNodes>
          <leafValues>
            1.0832282900810242e-01 -7.4673861265182495e-01</leafValues></_>
        <_>
          <internalNodes>
            0 -1 248 -6.8085659295320511e-03</internalNodes>
          <leafValues>
            8.0905342102050781e-01 -1.1561323702335358e-01</leafValues></_>
        <_>
          <internalNodes>
            0 -1 125 -1.3303086161613464e-02</internalNodes>
          <leafValues>
            8.7701499462127686e-01 -8.1296622753143311e-02</leafValues></_>
        <_>
          <internalNodes>
            0 -1 109 -3.3186953514814377e-03</internalNodes>
          <leafValues>
            -6.2470752000808716e-01 1.5514536201953888e-01</leafValues></_>
        <_>
          <internalNodes>
            0 -1 92 -3.1507965177297592e-03</internalNodes>
          <leafValues>
            6.1882001161575317e-01 -1.4709806442260742e-01</leafValues></_></weakClassifiers></_>
    <!-- stage 12 -->
    <_>
      <maxWeakCount>19</maxWeakCount>
      <stageThreshold>-1.1486761569976807e+00</stageThreshold>
      <weakClassifiers>
        <_>
          <internalNodes>
            0 -1 62 -1.9665922969579697e-02</internalNodes>
          <leafValues>
            1.8112245202064514e-01 -6.5740740299224854e-01</leafValues></_>
        <_>
          <internalNodes>
            0 -1 181 1.0635391809046268e-03</internalNodes>
          <leafValues>
            -4.1930010914802551e-01 3.1167489290237427e-01</leafValues></_>
        <_>
          <internalNodes>
            0 -1 78 -1.5850793570280075e-02</internalNodes>
          <leafValues>
            -8.8885945081710815e-01 1.4438287913799286e-01</leafValues></_>
        <_>
          <internalNodes>
            0 -1 123 2.9757108539342880e-02</internalNodes>
          <leafValues>
            -2.1837534010410309e-01 4.9121659994125366e-01</leafValues></_>
        <_>
          <internalNodes>
            0 -1 105 -1.8876928370445967e-03</internalNodes>
          <leafValues>
            4.7366210818290710e-01 -1.9854037463665009e-01</leafValues></_>
        <_>
          <internalNodes>
            0 -1 169 3.0286810360848904e-03</internalNodes>
          <leafValues>
            1.0392419248819351e-01 -8.0049079656600952e-01</leafValues></_>
        <_>
          <internalNodes>
            0 -1 195 -2.5484533980488777e-03</internalNodes>
          <leafValues>
            -6.9337296485900879e-01 1.0953711718320847e-01</leafValues></_>
        <_>
          <internalNodes>
            0 -1 158 1.3870717026293278e-02</internalNodes>
          <leafValues>
            -1.6491177678108215e-01 6.0340577363967896e-01</leafValues></_>
        <_>
          <internalNodes>
            0 -1 38 -1.5133554115891457e-03</internalNodes>
          <leafValues>
            -6.2751024961471558e-01 1.0869195312261581e-01</leafValues></_>
        <_>
          <internalNodes>
            0 -1 36 4.9151247367262840e-03</internalNodes>
          <leafValues>
            -2.1188814938068390e-01 4.0035066008567810e-01</leafValues></_>
        <_>
          <internalNodes>
            0 -1 1 -3.7111192941665649e-02</internalNodes>
          <leafValues>
            -8.2483792304992676e-01 1.1934041231870651e-01</leafValues></_>
        <_>
          <internalNodes>
            0 -1 183 -6.3964677974581718e-04</internalNodes>
          <leafValues>
            -7.9263931512832642e-01 7.4438787996768951e-02</leafValues></_>
        <_>
          <internalNodes>
            0 -1 117 -2.9892548918724060e-02</internalNodes>
          <leafValues>
            8.2501076161861420e-02 -7.8033351898193359e-01</leafValues></_>
        <_>
          <internalNodes>
            0 -1 86 1.5714119654148817e-03</internalNodes>
          <leafValues>
            -2.2418610751628876e-01 4.2296603322029114e-01</leafValues></_>
        <_>
          <internalNodes>
            0 -1 253 7.0635937154293060e-03</internalNodes>
          <leafValues>
            1.4569404721260071e-01 -6.8240821361541748e-01</leafValues></_>
        <_>
          <internalNodes>
            0 -1 29 1.3575700111687183e-02</internalNodes>
          <leafValues>
            -2.8136214613914490e-01 3.4622642397880554e-01</leafValues></_>
        <_>
          <internalNodes>
            0 -1 9 1.0109217837452888e-03</internalNodes>
          <leafValues>
            -3.3215716481208801e-01 2.7204257249832153e-01</leafValues></_>
        <_>
          <internalNodes>
            0 -1 178 5.4935691878199577e-03</internalNodes>
          <leafValues>
            1.3235642015933990e-01 -7.2730517387390137e-01</leafValues></_>
        <_>
          <internalNodes>
            0 -1 211 -2.9447890119627118e-04</internalNodes>
          <leafValues>
            2.5915431976318359e-01 -4.7039011120796204e-01</leafValues></_></weakClassifiers></_>
    <!-- stage 13 -->
    <_>
      <maxWeakCount>16</maxWeakCount>
      <stageThreshold>-1.0589025020599365e+00</stageThreshold>
      <weakClassifiers>
        <_>
          <internalNodes>
            0 -1 237 4.6961918473243713e-02</internalNodes>
          <leafValues>
            -2.0809248089790344e-01 4.6753245592117310e-01</leafValues></_>
        <_>
          <internalNodes>
            0 -1 111 -1.2364101596176624e-02</internalNodes>
          <leafValues>
            5.9219336509704590e-01 -1.5721584856510162e-01</leafValues></_>
        <_>
          <internalNodes>
            0 -1 222 -2.9635406099259853e-03</internalNodes>
          <leafValues>
            4.0713131427764893e-01 -2.0261579751968384e-01</leafValues></_>
        <_>
          <internalNodes>
            0 -1 228 -1.4423733577132225e-02</internalNodes>
          <leafValues>
            5.2359914779663086e-01 -1.9803301990032196e-01</leafValues></_>
        <_>
          <internalNodes>
            0 -1 194 -5.2162744104862213e-03</internalNodes>
          <leafValues>
            5.3275269269943237e-01 -1.5641105175018311e-01</leafValues></_>
        <_>
          <internalNodes>
            0 -1 234 -2.0587362814694643e-03</internalNodes>
          <leafValues>
            -7.6854562759399414e-01 1.0449967533349991e-01</leafValues></_>
        <_>
          <internalNodes>
            0 -1 255 -2.3362881620414555e-05</internalNodes>
          <leafValues>
            2.3664665222167969e-01 -3.1714236736297607e-01</leafValues></_>
        <_>
          <internalNodes>
            0 -1 176 3.5615735687315464e-03</internalNodes>
          <leafValues>
            -2.2948224842548370e-01 3.4590497612953186e-01</leafValues></_>
        <_>
          <internalNodes>
            0 -1 187 2.2670470643788576e-03</internalNodes>
          <leafValues>
            -3.7768426537513733e-01 3.0953559279441833e-01</leafValues></_>
        <_>
          <internalNodes>
            0 -1 182 2.3272628895938396e-03</internalNodes>
          <leafValues>
            -4.6865907311439514e-01 2.1127443015575409e-01</leafValues></_>
        <_>
          <internalNodes>
            0 -1 184 2.3258214350789785e-03</internalNodes>
          <leafValues>
            9.7308591008186340e-02 -9.2724066972732544e-01</leafValues></_>
        <_>
          <internalNodes>
            0 -1 208 1.0868126992136240e-03</internalNodes>
          <leafValues>
            -2.3655009269714355e-01 4.5847663283348083e-01</leafValues></_>
        <_>
          <internalNodes>
            0 -1 37 -5.1680486649274826e-03</internalNodes>
          <leafValues>
            -4.6658572554588318e-01 1.8387041985988617e-01</leafValues></_>
        <_>
          <internalNodes>
            0 -1 233 1.4870151877403259e-02</internalNodes>
          <leafValues>
            -1.8716178834438324e-01 4.6988117694854736e-01</leafValues></_>
        <_>
          <internalNodes>
            0 -1 64 1.3554858043789864e-02</internalNodes>
          <leafValues>
            2.0949257910251617e-01 -5.5988848209381104e-01</leafValues></_>
        <_>
          <internalNodes>
            0 -1 246 1.0377854108810425e-02</internalNodes>
          <leafValues>
            -1.7034646868705750e-01 6.6980379819869995e-01</leafValues></_></weakClassifiers></_>
    <!-- stage 14 -->
    <_>
      <maxWeakCount>19</maxWeakCount>
      <stageThreshold>-8.9047420024871826e-01</stageThreshold>
      <weakClassifiers>
        <_>
          <internalNodes>
            0 -1 142 5.6095509789884090e-03</internalNodes>
          <leafValues>
            -2.8673836588859558e-01 3.6199095845222473e-01</leafValues></_>
        <_>
          <internalNodes>
            0 -1 137 3.3401681575924158e-03</internalNodes>
          <leafValues>
            -2.0757420361042023e-01 3.8608884811401367e-01</leafValues></_>
        <_>
          <internalNodes>
            0 -1 171 -2.4580112658441067e-03</internalNodes>
          <leafValues>
            -5.2791005373001099e-01 1.5652343630790710e-01</leafValues></_>
        <_>
          <internalNodes>
            0 -1 180 6.8722805008292198e-04</internalNodes>
          <leafValues>
            -4.5190495252609253e-01 1.9388009607791901e-01</leafValues></_>
        <_>
          <internalNodes>
            0 -1 203 -2.2683939896523952e-03</internalNodes>
          <leafValues>
            -3.3379656076431274e-01 3.0419468879699707e-01</leafValues></_>
        <_>
          <internalNodes>
            0 -1 22 -1.3407217338681221e-02</internalNodes>
          <leafValues>
            4.3070015311241150e-01 -1.5731115639209747e-01</leafValues></_>
        <_>
          <internalNodes>
            0 -1 147 8.8036470115184784e-03</internalNodes>
          <leafValues>
            -8.5080838203430176e-01 6.8956553936004639e-02</leafValues></_>
        <_>
          <internalNodes>
            0 -1 197 -1.9299187697470188e-03</internalNodes>
          <leafValues>
            -6.5657055377960205e-01 1.0670577734708786e-01</leafValues></_>
        <_>
          <internalNodes>
            0 -1 70 1.2996992096304893e-02</internalNodes>
          <leafValues>
            -2.2100096940994263e-01 3.3781397342681885e-01</leafValues></_>
        <_>
          <internalNodes>
            0 -1 20 2.5380916893482208e-02</internalNodes>
          <leafValues>
            -1.5480472147464752e-01 4.6189060807228088e-01</leafValues></_>
        <_>
          <internalNodes>
            0 -1 96 -6.4136256696656346e-04</internalNodes>
          <leafValues>
            -4.7485196590423584e-01 1.6944594681262970e-01</leafValues></_>
        <_>
          <internalNodes>
            0 -1 159 -7.8832876170054078e-04</internalNodes>
          <leafValues>
            2.5054925680160522e-01 -3.0837562680244446e-01</leafValues></_>
        <_>
          <internalNodes>
            0 -1 12 7.8953757882118225e-02</internalNodes>
          <leafValues>
            -1.6769991815090179e-01 5.8867716789245605e-01</leafValues></_>
        <_>
          <internalNodes>
            0 -1 172 -4.5372443273663521e-03</internalNodes>
          <leafValues>
            -4.2332714796066284e-01 1.9032599031925201e-01</leafValues></_>
        <_>
          <internalNodes>
            0 -1 35 -9.5363751053810120e-02</internalNodes>
          <leafValues>
            8.3146220445632935e-01 -8.2129791378974915e-02</leafValues></_>
        <_>
          <internalNodes>
            0 -1 252 -2.0227381028234959e-03</internalNodes>
          <leafValues>
            2.8004977107048035e-01 -2.7457448840141296e-01</leafValues></_>
        <_>
          <internalNodes>
            0 -1 232 -7.1882018819451332e-03</internalNodes>
          <leafValues>
            4.9967116117477417e-01 -1.7737957835197449e-01</leafValues></_>
        <_>
          <internalNodes>
            0 -1 59 -4.4139390811324120e-03</internalNodes>
          <leafValues>
            3.7757045030593872e-01 -1.8787716329097748e-01</leafValues></_>
        <_>
          <internalNodes>
            0 -1 231 -6.2641585245728493e-03</internalNodes>
          <leafValues>
            6.5276396274566650e-01 -1.0761830955743790e-01</leafValues></_></weakClassifiers></_>
    <!-- stage 15 -->
    <_>
      <maxWeakCount>20</maxWeakCount>
      <stageThreshold>-9.8106259107589722e-01</stageThreshold>
      <weakClassifiers>
        <_>
          <internalNodes>
            0 -1 11 1.3487614691257477e-02</internalNodes>
          <leafValues>
            -2.6605504751205444e-01 3.1868132948875427e-01</leafValues></_>
        <_>
          <internalNodes>
            0 -1 100 -3.5131365060806274e-02</internalNodes>
          <leafValues>
            1.9359786808490753e-01 -4.4686672091484070e-01</leafValues></_>
        <_>
          <internalNodes>
            0 -1 89 6.4648361876606941e-03</internalNodes>
          <leafValues>
            -4.2789825797080994e-01 1.6946242749691010e-01</leafValues></_>
        <_>
          <internalNodes>
            0 -1 198 -7.5670203659683466e-04</internalNodes>
          <leafValues>
            1.8979802727699280e-01 -3.7979406118392944e-01</leafValues></_>
        <_>
          <internalNodes>
            0 -1 168 2.3884268011897802e-03</internalNodes>
          <leafValues>
            -8.6218588054180145e-02 7.8470712900161743e-01</leafValues></_>
        <_>
          <internalNodes>
            0 -1 211 -4.9247713759541512e-03</internalNodes>
          <leafValues>
            -9.3804061412811279e-01 7.9598061740398407e-02</leafValues></_>
        <_>
          <internalNodes>
            0 -1 63 -6.0081016272306442e-04</internalNodes>
          <leafValues>
            2.9826071858406067e-01 -2.6059642434120178e-01</leafValues></_>
        <_>
          <internalNodes>
            0 -1 126 -2.5476412847638130e-03</internalNodes>
          <leafValues>
            2.7706333994865417e-01 -2.7505809068679810e-01</leafValues></_>
        <_>
          <internalNodes>
            0 -1 254 -7.1754269301891327e-03</internalNodes>
          <leafValues>
            3.8385170698165894e-01 -1.9993962347507477e-01</leafValues></_>
        <_>
          <internalNodes>
            0 -1 229 -8.6828814819455147e-03</internalNodes>
          <leafValues>
            4.9644345045089722e-01 -1.8313245475292206e-01</leafValues></_>
        <_>
          <internalNodes>
            0 -1 227 -2.1937855053693056e-03</internalNodes>
          <leafValues>
            -4.9923267960548401e-01 2.0229464769363403e-01</leafValues></_>
        <_>
          <internalNodes>
            0 -1 14 -3.9496896788477898e-03</internalNodes>
          <leafValues>
            2.7850040793418884e-01 -3.2223671674728394e-01</leafValues></_>
        <_>
          <internalNodes>
            0 -1 116 -2.0786054432392120e-02</internalNodes>
          <leafValues>
            -6.5873962640762329e-01 1.1454557627439499e-01</leafValues></_>
        <_>
          <internalNodes>
            0 -1 15 5.3406953811645508e-03</internalNodes>
          <leafValues>
            -2.1604105830192566e-01 3.8960459828376770e-01</leafValues></_>
        <_>
          <internalNodes>
            0 -1 80 -5.4015807807445526e-02</internalNodes>
          <leafValues>
            4.9804526567459106e-01 -1.4635209739208221e-01</leafValues></_>
        <_>
          <internalNodes>
            0 -1 51 -1.4565408229827881e-02</internalNodes>
          <leafValues>
            4.4800558686256409e-01 -1.7578107118606567e-01</leafValues></_>
        <_>
          <internalNodes>
            0 -1 259 6.3681672327220440e-04</internalNodes>
          <leafValues>
            1.1739947646856308e-01 -6.7136383056640625e-01</leafValues></_>
        <_>
          <internalNodes>
            0 -1 88 4.0938621386885643e-03</internalNodes>
          <leafValues>
            -2.5202858448028564e-01 3.8233363628387451e-01</leafValues></_>
        <_>
          <internalNodes>
            0 -1 135 -8.9200399816036224e-03</internalNodes>
          <leafValues>
            9.0301014482975006e-02 -9.1842526197433472e-01</leafValues></_>
        <_>
          <internalNodes>
            0 -1 120 -9.0386783704161644e-03</internalNodes>
          <leafValues>
            6.5862023830413818e-01 -1.3385948538780212e-01</leafValues></_></weakClassifiers></_>
    <!-- stage 16 -->
    <_>
      <maxWeakCount>17</maxWeakCount>
      <stageThreshold>-9.0583968162536621e-01</stageThreshold>
      <weakClassifiers>
        <_>
          <internalNodes>
            0 -1 166 -4.5427754521369934e-03</internalNodes>
          <leafValues>
            -9.0361446142196655e-01 8.1788443028926849e-02</leafValues></_>
        <_>
          <internalNodes>
            0 -1 136 -2.8668222948908806e-03</internalNodes>
          <leafValues>
            -6.6366243362426758e-01 1.2830623984336853e-01</leafValues></_>
        <_>
          <internalNodes>
            0 -1 161 2.1649845875799656e-03</internalNodes>
          <leafValues>
            -3.6710059642791748e-01 2.0740169286727905e-01</leafValues></_>
        <_>
          <internalNodes>
            0 -1 5 5.8481656014919281e-02</internalNodes>
          <leafValues>
            -4.5277121663093567e-01 1.7119203507900238e-01</leafValues></_>
        <_>
          <internalNodes>
            0 -1 196 3.3423257991671562e-03</internalNodes>
          <leafValues>
            -1.0675149410963058e-01 6.4551687240600586e-01</leafValues></_>
        <_>
          <internalNodes>
            0 -1 157 -7.7372165396809578e-03</internalNodes>
          <leafValues>
            2.8414118289947510e-01 -3.5058733820915222e-01</leafValues></_>
        <_>
          <internalNodes>
            0 -1 257 -7.3701940709725022e-04</internalNodes>
          <leafValues>
            -5.8565872907638550e-01 1.1804112792015076e-01</leafValues></_>
        <_>
          <internalNodes>
            0 -1 164 -5.4595321416854858e-03</internalNodes>
          <leafValues>
            -2.7022927999496460e-01 2.7367377281188965e-01</leafValues></_>
        <_>
          <internalNodes>
            0 -1 25 -7.7782925218343735e-03</internalNodes>
          <leafValues>
            6.0554122924804688e-01 -1.3747873902320862e-01</leafValues></_>
        <_>
          <internalNodes>
            0 -1 236 -6.1954755801707506e-04</internalNodes>
          <leafValues>
            -4.9725535511970520e-01 1.4139999449253082e-01</leafValues></_>
        <_>
          <internalNodes>
            0 -1 85 -4.0685683488845825e-02</internalNodes>
          <leafValues>
            4.8714053630828857e-01 -1.7049713432788849e-01</leafValues></_>
        <_>
          <internalNodes>
            0 -1 127 4.6666376292705536e-03</internalNodes>
          <leafValues>
            -2.7479153871536255e-01 3.2844945788383484e-01</leafValues></_>
        <_>
          <internalNodes>
            0 -1 247 -4.5116948895156384e-03</internalNodes>
          <leafValues>
            5.7057893276214600e-01 -1.3371121883392334e-01</leafValues></_>
        <_>
          <internalNodes>
            0 -1 2 6.3140159472823143e-03</internalNodes>
          <leafValues>
            1.2689043581485748e-01 -6.1987370252609253e-01</leafValues></_>
        <_>
          <internalNodes>
            0 -1 244 4.5148869976401329e-03</internalNodes>
          <leafValues>
            -1.9466683268547058e-01 3.9481985569000244e-01</leafValues></_>
        <_>
          <internalNodes>
            0 -1 48 -1.3053361326456070e-02</internalNodes>
          <leafValues>
            -2.9604458808898926e-01 2.3914310336112976e-01</leafValues></_>
        <_>
          <internalNodes>
            0 -1 163 -8.1609806511551142e-04</internalNodes>
          <leafValues>
            -5.6010776758193970e-01 1.1856292188167572e-01</leafValues></_></weakClassifiers></_>
    <!-- stage 17 -->
    <_>
      <maxWeakCount>21</maxWeakCount>
      <stageThreshold>-9.4445616006851196e-01</stageThreshold>
      <weakClassifiers>
        <_>
          <internalNodes>
            0 -1 177 -5.8622879441827536e-04</internalNodes>
          <leafValues>
            2.1286369860172272e-01 -4.0057638287544250e-01</leafValues></_>
        <_>
          <internalNodes>
            0 -1 73 5.1589948125183582e-03</internalNodes>
          <leafValues>
            -1.9296403229236603e-01 3.4286299347877502e-01</leafValues></_>
        <_>
          <internalNodes>
            0 -1 258 5.5960949975997210e-04</internalNodes>
          <leafValues>
            1.5100377798080444e-01 -4.5202216506004333e-01</leafValues></_>
        <_>
          <internalNodes>
            0 -1 39 -6.2909629195928574e-03</internalNodes>
          <leafValues>
            5.9437215328216553e-01 -9.5018245279788971e-02</leafValues></_>
        <_>
          <internalNodes>
            0 -1 53 -2.1821018890477717e-04</internalNodes>
          <leafValues>
            -4.6154746413230896e-01 1.5833383798599243e-01</leafValues></_>
        <_>
          <internalNodes>
            0 -1 47 -9.0696592815220356e-04</internalNodes>
          <leafValues>
            -4.5883384346961975e-01 2.3619511723518372e-01</leafValues></_>
        <_>
          <internalNodes>
            0 -1 7 -2.7275800704956055e-02</internalNodes>
          <leafValues>
            -4.9240484833717346e-01 1.0179441422224045e-01</leafValues></_>
        <_>
          <internalNodes>
            0 -1 239 -2.9050325974822044e-03</internalNodes>
          <leafValues>
            3.9347049593925476e-01 -1.5187875926494598e-01</leafValues></_>
        <_>
          <internalNodes>
            0 -1 216 -8.6285956203937531e-03</internalNodes>
          <leafValues>
            4.5933106541633606e-01 -1.6563381254673004e-01</leafValues></_>
        <_>
          <internalNodes>
            0 -1 217 1.4251071959733963e-02</internalNodes>
          <leafValues>
            -1.3192331790924072e-01 4.9318844079971313e-01</leafValues></_>
        <_>
          <internalNodes>
            0 -1 226 -2.0134611986577511e-03</internalNodes>
          <leafValues>
            4.3368798494338989e-01 -2.1220587193965912e-01</leafValues></_>
        <_>
          <internalNodes>
            0 -1 162 4.4242144213058054e-04</internalNodes>
          <leafValues>
            1.9059427082538605e-01 -4.6133187413215637e-01</leafValues></_>
        <_>
          <internalNodes>
            0 -1 221 -5.3390162065625191e-03</internalNodes>
          <leafValues>
            4.2950448393821716e-01 -1.8458411097526550e-01</leafValues></_>
        <_>
          <internalNodes>
            0 -1 209 -3.6997832357883453e-03</internalNodes>
          <leafValues>
            3.5871005058288574e-01 -2.3752890527248383e-01</leafValues></_>
        <_>
          <internalNodes>
            0 -1 82 1.6486921813338995e-03</internalNodes>
          <leafValues>
            -2.0520792901515961e-01 3.5601767897605896e-01</leafValues></_>
        <_>
          <internalNodes>
            0 -1 77 4.4107794761657715e-02</internalNodes>
          <leafValues>
            -1.2150967866182327e-01 7.1040242910385132e-01</leafValues></_>
        <_>
          <internalNodes>
            0 -1 74 -2.8316203504800797e-02</internalNodes>
          <leafValues>
            -6.9394379854202271e-01 1.1903619021177292e-01</leafValues></_>
        <_>
          <internalNodes>
            0 -1 68 -2.7606177609413862e-03</internalNodes>
          <leafValues>
            4.3188494443893433e-01 -1.7893999814987183e-01</leafValues></_>
        <_>
          <internalNodes>
            0 -1 60 2.4554437026381493e-02</internalNodes>
          <leafValues>
            8.1349767744541168e-02 -8.0032634735107422e-01</leafValues></_>
        <_>
          <internalNodes>
            0 -1 225 2.0260298624634743e-03</internalNodes>
          <leafValues>
            3.5472631454467773e-01 -2.0053398609161377e-01</leafValues></_>
        <_>
          <internalNodes>
            0 -1 0 1.0134959593415260e-02</internalNodes>
          <leafValues>
            9.7140319645404816e-02 -8.4460872411727905e-01</leafValues></_></weakClassifiers></_>
    <!-- stage 18 -->
    <_>
      <maxWeakCount>26</maxWeakCount>
      <stageThreshold>-1.2588007450103760e+00</stageThreshold>
      <weakClassifiers>
        <_>
          <internalNodes>
            0 -1 180 1.4066300354897976e-03</internalNodes>
          <leafValues>
            -4.1721853613853455e-01 1.8051576614379883e-01</leafValues></_>
        <_>
          <internalNodes>
            0 -1 243 1.1743017239496112e-03</internalNodes>
          <leafValues>
            -3.0909556150436401e-01 2.2357226908206940e-01</leafValues></_>
        <_>
          <internalNodes>
            0 -1 138 1.7396876588463783e-02</internalNodes>
          <leafValues>
            -8.3085671067237854e-02 5.9754335880279541e-01</leafValues></_>
        <_>
          <internalNodes>
            0 -1 175 -4.9475413106847554e-05</internalNodes>
          <leafValues>
            3.1685709953308105e-01 -2.3345302045345306e-01</leafValues></_>
        <_>
          <internalNodes>
            0 -1 56 3.6413348279893398e-03</internalNodes>
          <leafValues>
            -1.6281275451183319e-01 4.6054753661155701e-01</leafValues></_>
        <_>
          <internalNodes>
            0 -1 6 3.1460776925086975e-02</internalNodes>
          <leafValues>
            -1.1789104342460632e-01 5.2486473321914673e-01</leafValues></_>
        <_>
          <internalNodes>
            0 -1 44 4.1287969797849655e-03</internalNodes>
          <leafValues>
            -1.9342583417892456e-01 3.5589820146560669e-01</leafValues></_>
        <_>
          <internalNodes>
            0 -1 152 2.8221211396157742e-03</internalNodes>
          <leafValues>
            1.3303555548191071e-01 -6.5888988971710205e-01</leafValues></_>
        <_>
          <internalNodes>
            0 -1 144 1.7637138953432441e-03</internalNodes>
          <leafValues>
            -2.1227702498435974e-01 3.4566399455070496e-01</leafValues></_>
        <_>
          <internalNodes>
            0 -1 33 3.0160343740135431e-03</internalNodes>
          <leafValues>
            -1.6735380887985229e-01 3.3615410327911377e-01</leafValues></_>
        <_>
          <internalNodes>
            0 -1 235 9.2789006885141134e-04</internalNodes>
          <leafValues>
            1.6173905134201050e-01 -4.6670955419540405e-01</leafValues></_>
        <_>
          <internalNodes>
            0 -1 251 -8.1181507557630539e-03</internalNodes>
          <leafValues>
            2.4882817268371582e-01 -2.7704271674156189e-01</leafValues></_>
        <_>
          <internalNodes>
            0 -1 222 -4.2394008487462997e-03</internalNodes>
          <leafValues>
            3.7845179438591003e-01 -1.7589522898197174e-01</leafValues></_>
        <_>
          <internalNodes>
            0 -1 240 -5.4692113772034645e-03</internalNodes>
          <leafValues>
            4.1469886898994446e-01 -1.4525990188121796e-01</leafValues></_>
        <_>
          <internalNodes>
            0 -1 49 4.6598490327596664e-02</internalNodes>
          <leafValues>
            8.3255402743816376e-02 -7.7359879016876221e-01</leafValues></_>
        <_>
          <internalNodes>
            0 -1 41 -3.0376482754945755e-04</internalNodes>
          <leafValues>
            -4.5502075552940369e-01 1.1866961419582367e-01</leafValues></_>
        <_>
          <internalNodes>
            0 -1 97 2.3243061732500792e-03</internalNodes>
          <leafValues>
            -1.8249884247779846e-01 4.0958070755004883e-01</leafValues></_>
        <_>
          <internalNodes>
            0 -1 218 7.5299101881682873e-03</internalNodes>
          <leafValues>
            8.9193925261497498e-02 -7.5150793790817261e-01</leafValues></_>
        <_>
          <internalNodes>
            0 -1 50 2.4218140169978142e-03</internalNodes>
          <leafValues>
            -1.5723109245300293e-01 5.2097684144973755e-01</leafValues></_>
        <_>
          <internalNodes>
            0 -1 245 -5.8635333552956581e-03</internalNodes>
          <leafValues>
            6.7762303352355957e-01 -8.2487903535366058e-02</leafValues></_>
        <_>
          <internalNodes>
            0 -1 23 1.0758475400507450e-03</internalNodes>
          <leafValues>
            -1.5325453877449036e-01 3.8036674261093140e-01</leafValues></_>
        <_>
          <internalNodes>
            0 -1 19 1.5492102829739451e-03</internalNodes>
          <leafValues>
            2.7895799279212952e-01 -2.5888821482658386e-01</leafValues></_>
        <_>
          <internalNodes>
            0 -1 148 -2.6572765782475471e-03</internalNodes>
          <leafValues>
            6.1919629573822021e-01 -1.2505342066287994e-01</leafValues></_>
        <_>
          <internalNodes>
            0 -1 91 6.3347518444061279e-03</internalNodes>
          <leafValues>
            -2.8200966119766235e-01 3.2952284812927246e-01</leafValues></_>
        <_>
          <internalNodes>
            0 -1 3 4.2416276410222054e-03</internalNodes>
          <leafValues>
            -1.7959025502204895e-01 3.4919881820678711e-01</leafValues></_>
        <_>
          <internalNodes>
            0 -1 72 2.3762043565511703e-03</internalNodes>
          <leafValues>
            -2.2201876342296600e-01 2.9316467046737671e-01</leafValues></_></weakClassifiers></_>
    <!-- stage 19 -->
    <_>
      <maxWeakCount>27</maxWeakCount>
      <stageThreshold>-9.1386795043945312e-01</stageThreshold>
      <weakClassifiers>
        <_>
          <internalNodes>
            0 -1 45 1.4191611111164093e-01</internalNodes>
          <leafValues>
            -1.1218335479497910e-01 5.4385966062545776e-01</leafValues></_>
        <_>
          <internalNodes>
            0 -1 220 -2.2736624814569950e-03</internalNodes>
          <leafValues>
            -6.0415190458297729e-01 1.0530406981706619e-01</leafValues></_>
        <_>
          <internalNodes>
            0 -1 119 1.4362302608788013e-02</internalNodes>
          <leafValues>
            -1.0600084066390991e-01 5.9624546766281128e-01</leafValues></_>
        <_>
          <internalNodes>
            0 -1 160 7.9737510532140732e-03</internalNodes>
          <leafValues>
            -1.4558014273643494e-01 3.5187789797782898e-01</leafValues></_>
        <_>
          <internalNodes>
            0 -1 67 -2.8164300601929426e-04</internalNodes>
          <leafValues>
            -4.2432689666748047e-01 1.0736820846796036e-01</leafValues></_>
        <_>
          <internalNodes>
            0 -1 93 1.2255642563104630e-02</internalNodes>
          <leafValues>
            -1.8317012488842010e-01 5.4138797521591187e-01</leafValues></_>
        <_>
          <internalNodes>
            0 -1 43 -2.6361469645053148e-04</internalNodes>
          <leafValues>
            -3.9376726746559143e-01 1.9815111160278320e-01</leafValues></_>
        <_>
          <internalNodes>
            0 -1 65 2.1774980705231428e-03</internalNodes>
          <leafValues>
            9.2006266117095947e-02 -6.8282592296600342e-01</leafValues></_>
        <_>
          <internalNodes>
            0 -1 110 7.9959194408729672e-05</internalNodes>
          <leafValues>
            3.4320417046546936e-01 -1.6763857007026672e-01</leafValues></_>
        <_>
          <internalNodes>
            0 -1 150 1.2032669968903065e-02</internalNodes>
          <leafValues>
            -3.8695952296257019e-01 1.7249384522438049e-01</leafValues></_>
        <_>
          <internalNodes>
            0 -1 238 2.1379822865128517e-03</internalNodes>
          <leafValues>
            -2.2076664865016937e-01 2.9551839828491211e-01</leafValues></_>
        <_>
          <internalNodes>
            0 -1 71 2.4849046021699905e-03</internalNodes>
          <leafValues>
            -1.9469477236270905e-01 3.6225682497024536e-01</leafValues></_>
        <_>
          <internalNodes>
            0 -1 108 -5.6429877877235413e-03</internalNodes>
          <leafValues>
            4.0440019965171814e-01 -1.6924893856048584e-01</leafValues></_>
        <_>
          <internalNodes>
            0 -1 95 2.0783312618732452e-02</internalNodes>
          <leafValues>
            -7.4722841382026672e-02 6.6173177957534790e-01</leafValues></_>
        <_>
          <internalNodes>
            0 -1 230 -1.3881413033232093e-03</internalNodes>
          <leafValues>
            -7.2948235273361206e-01 8.9207194745540619e-02</leafValues></_>
        <_>
          <internalNodes>
            0 -1 69 -1.8633140716701746e-03</internalNodes>
          <leafValues>
            4.0503638982772827e-01 -1.6281113028526306e-01</leafValues></_>
        <_>
          <internalNodes>
            0 -1 223 1.7645611660555005e-03</internalNodes>
          <leafValues>
            -1.6337418556213379e-01 3.6524605751037598e-01</leafValues></_>
        <_>
          <internalNodes>
            0 -1 199 -1.0283337906002998e-03</internalNodes>
          <leafValues>
            -7.4962663650512695e-01 9.8727136850357056e-02</leafValues></_>
        <_>
          <internalNodes>
            0 -1 188 -1.3413818087428808e-03</internalNodes>
          <leafValues>
            4.4445078819990158e-02 -9.0862202644348145e-01</leafValues></_>
        <_>
          <internalNodes>
            0 -1 102 1.4634341001510620e-02</internalNodes>
          <leafValues>
            6.0769073665142059e-02 -7.7601748704910278e-01</leafValues></_>
        <_>
          <internalNodes>
            0 -1 40 2.2923087235540152e-03</internalNodes>
          <leafValues>
            -2.2160503268241882e-01 2.7307218313217163e-01</leafValues></_>
        <_>
          <internalNodes>
            0 -1 8 4.1341660544276237e-03</internalNodes>
          <leafValues>
            -1.7232502996921539e-01 3.6083710193634033e-01</leafValues></_>
        <_>
          <internalNodes>
            0 -1 219 -4.3726535513997078e-03</internalNodes>
          <leafValues>
            -5.5045193433761597e-01 1.1908004432916641e-01</leafValues></_>
        <_>
          <internalNodes>
            0 -1 55 1.8092254176735878e-03</internalNodes>
          <leafValues>
            -1.7253571748733521e-01 4.0704733133316040e-01</leafValues></_>
        <_>
          <internalNodes>
            0 -1 239 -6.0220453888177872e-03</internalNodes>
          <leafValues>
            4.4351780414581299e-01 -1.4594505727291107e-01</leafValues></_>
        <_>
          <internalNodes>
            0 -1 27 -4.2819583904929459e-04</internalNodes>
          <leafValues>
            -4.8506850004196167e-01 1.2872840464115143e-01</leafValues></_>
        <_>
          <internalNodes>
            0 -1 250 -3.4983814693987370e-03</internalNodes>
          <leafValues>
            5.5385494232177734e-01 -1.2081080675125122e-01</leafValues></_></weakClassifiers></_></stages>
  <features>
    <_>
      <rects>
        <_>
          0 0 1 8 -1.</_>
        <_>
          0 4 1 4 2.</_></rects>
      <tilted>0</tilted></_>
    <_>
      <rects>
        <_>
          0 0 3 10 -1.</_>
        <_>
          0 5 3 5 2.</_></rects>
      <tilted>0</tilted></_>
    <_>
      <rects>
        <_>
          0 2 1 8 -1.</_>
        <_>
          0 6 1 4 2.</_></rects>
      <tilted>0</tilted></_>
    <_>
      <rects>
        <_>
          0 2 21 1 -1.</_>
        <_>
          7 2 7 1 3.</_></rects>
      <tilted>0</tilted></_>
    <_>
      <rects>
        <_>
          0 4 42 1 -1.</_>
        <_>
          14 4 14 1 3.</_></rects>
      <tilted>0</tilted></_>
    <_>
      <rects>
        <_>
          1 1 48 5 -1.</_>
        <_>
          13 1 24 5 2.</_></rects>
      <tilted>0</tilted></_>
    <_>
      <rects>
        <_>
          1 2 12 4 -1.</_>
        <_>
          7 2 6 4 2.</_></rects>
      <tilted>0</tilted></_>
    <_>
      <rects>
        <_>
          1 4 38 6 -1.</_>
        <_>
          1 6 38 2 3.</_></rects>
      <tilted>0</tilted></_>
    <_>
      <rects>
        <_>
          1 5 14 2 -1.</_>
        <_>
          1 5 7 1 2.</_>
        <_>
          8 6 7 1 2.</_></rects>
      <tilted>0</tilted></_>
    <_>
      <rects>
        <_>
          2 0 21 1 -1.</_>
        <_>
          9 0 7 1 3.</_></rects>
      <tilted>0</tilted></_>
    <_>
      <rects>
        <_>
          2 1 48 4 -1.</_>
        <_>
          18 1 16 4 3.</_></rects>
      <tilted>0</tilted></_>
    <_>
      <rects>
        <_>
          2 3 20 6 -1.</_>
        <_>
          2 5 20 2 3.</_></rects>
      <tilted>0</tilted></_>
    <_>
      <rects>
        <_>
          2 6 24 4 -1.</_>
        <_>
          8 6 12 4 2.</_></rects>
      <tilted>0</tilted></_>
    <_>
      <rects>
        <_>
          4 0 39 6 -1.</_>
        <_>
          17 2 13 2 9.</_></rects>
      <tilted>0</tilted></_>
    <_>
      <rects>
        <_>
          5 5 16 2 -1.</_>
        <_>
          9 5 8 2 2.</_></rects>
      <tilted>0</tilted></_>
    <_>
      <rects>
        <_>
          6 3 10 4 -1.</_>
        <_>
          6 3 5 2 2.</_>
        <_>
          11 5 5 2 2.</_></rects>
      <tilted>0</tilted></_>
    <_>
      <rects>
        <_>
          6 4 14 6 -1.</_>
        <_>
          6 6 14 2 3.</_></rects>
      <tilted>0</tilted></_>
    <_>
      <rects>
        <_>
          7 2 3 1 -1.</_>
        <_>
          8 2 1 1 3.</_></rects>
      <tilted>0</tilted></_>
    <_>
      <rects>
        <_>
          8 1 30 3 -1.</_>
        <_>
          18 2 10 1 9.</_></rects>
      <tilted>0</tilted></_>
    <_>
      <rects>
        <_>
          8 2 35 4 -1.</_>
        <_>
          8 3 35 2 2.</_></rects>
      <tilted>0</tilted></_>
    <_>
      <rects>
        <_>
          8 3 8 4 -1.</_>
        <_>
          8 5 8 2 2.</_></rects>
      <tilted>0</tilted></_>
    <_>
      <rects>
        <_>
          8 3 42 2 -1.</_>
        <_>
          22 3 14 2 3.</_></rects>
      <tilted>0</tilted></_>
    <_>
      <rects>
        <_>
          8 6 14 4 -1.</_>
        <_>
          8 6 7 2 2.</_>
        <_>
          15 8 7 2 2.</_></rects>
      <tilted>0</tilted></_>
    <_>
      <rects>
        <_>
          9 2 3 4 -1.</_>
        <_>
          9 3 3 2 2.</_></rects>
      <tilted>0</tilted></_>
    <_>
      <rects>
        <_>
          9 2 12 6 -1.</_>
        <_>
          9 5 12 3 2.</_></rects>
      <tilted>0</tilted></_>
    <_>
      <rects>
        <_>
          10 0 4 3 -1.</_>
        <_>
          10 1 4 1 3.</_></rects>
      <tilted>0</tilted></_>
    <_>
      <rects>
        <_>
          10 2 36 4 -1.</_>
        <_>
          19 2 18 4 2.</_></rects>
      <tilted>0</tilted></_>
    <_>
      <rects>
        <_>
          10 3 2 1 -1.</_>
        <_>
          11 3 1 1 2.</_></rects>
      <tilted>0</tilted></_>
    <_>
      <rects>
        <_>
          10 3 40 2 -1.</_>
        <_>
          20 3 20 2 2.</_></rects>
      <tilted>0</tilted></_>
    <_>
      <rects>
        <_>
          10 4 12 6 -1.</_>
        <_>
          10 6 12 2 3.</_></rects>
      <tilted>0</tilted></_>
    <_>
      <rects>
        <_>
          11 0 24 6 -1.</_>
        <_>
          11 0 12 3 2.</_>
        <_>
          23 3 12 3 2.</_></rects>
      <tilted>0</tilted></_>
    <_>
      <rects>
        <_>
          11 6 10 2 -1.</_>
        <_>
          16 6 5 2 2.</_></rects>
      <tilted>0</tilted></_>
    <_>
      <rects>
        <_>
          12 0 28 8 -1.</_>
        <_>
          12 0 14 4 2.</_>
        <_>
          26 4 14 4 2.</_></rects>
      <tilted>0</tilted></_>
    <_>
      <rects>
        <_>
          12 2 4 4 -1.</_>
        <_>
          11 3 4 2 2.</_></rects>
      <tilted>1</tilted></_>
    <_>
      <rects>
        <_>
          12 2 32 3 -1.</_>
        <_>
          20 2 16 3 2.</_></rects>
      <tilted>0</tilted></_>
    <_>
      <rects>
        <_>
          12 4 7 6 -1.</_>
        <_>
          12 7 7 3 2.</_></rects>
      <tilted>0</tilted></_>
    <_>
      <rects>
        <_>
          12 6 10 1 -1.</_>
        <_>
          17 6 5 1 2.</_></rects>
      <tilted>0</tilted></_>
    <_>
      <rects>
        <_>
          13 0 24 9 -1.</_>
        <_>
          21 0 8 9 3.</_></rects>
      <tilted>0</tilted></_>
    <_>
      <rects>
        <_>
          13 2 3 3 -1.</_>
        <_>
          14 2 1 3 3.</_></rects>
      <tilted>0</tilted></_>
    <_>
      <rects>
        <_>
          13 4 2 3 -1.</_>
        <_>
          13 5 2 1 3.</_></rects>
      <tilted>0</tilted></_>
    <_>
      <rects>
        <_>
          13 6 16 1 -1.</_>
        <_>
          17 6 8 1 2.</_></rects>
      <tilted>0</tilted></_>
    <_>
      <rects>
        <_>
          14 3 2 1 -1.</_>
        <_>
          15 3 1 1 2.</_></rects>
      <tilted>0</tilted></_>
    <_>
      <rects>
        <_>
          14 4 12 4 -1.</_>
        <_>
          14 4 6 2 2.</_>
        <_>
          20 6 6 2 2.</_></rects>
      <tilted>0</tilted></_>
    <_>
      <rects>
        <_>
          14 5 2 1 -1.</_>
        <_>
          15 5 1 1 2.</_></rects>
      <tilted>0</tilted></_>
    <_>
      <rects>
        <_>
          14 5 15 2 -1.</_>
        <_>
          19 5 5 2 3.</_></rects>
      <tilted>0</tilted></_>
    <_>
      <rects>
        <_>
          15 0 22 6 -1.</_>
        <_>
          15 0 11 3 2.</_>
        <_>
          26 3 11 3 2.</_></rects>
      <tilted>0</tilted></_>
    <_>
      <rects>
        <_>
          15 1 20 4 -1.</_>
        <_>
          15 1 10 2 2.</_>
        <_>
          25 3 10 2 2.</_></rects>
      <tilted>0</tilted></_>
    <_>
      <rects>
        <_>
          15 3 3 2 -1.</_>
        <_>
          16 3 1 2 3.</_></rects>
      <tilted>0</tilted></_>
    <_>
      <rects>
        <_>
          15 4 23 3 -1.</_>
        <_>
          15 5 23 1 3.</_></rects>
      <tilted>0</tilted></_>
    <_>
      <rects>
        <_>
          15 6 24 2 -1.</_>
        <_>
          23 6 8 2 3.</_></rects>
      <tilted>0</tilted></_>
    <_>
      <rects>
        <_>
          15 8 9 1 -1.</_>
        <_>
          18 8 3 1 3.</_></rects>
      <tilted>0</tilted></_>
    <_>
      <rects>
        <_>
          16 0 14 2 -1.</_>
        <_>
          23 0 7 2 2.</_></rects>
      <tilted>0</tilted></_>
    <_>
      <rects>
        <_>
          16 3 15 3 -1.</_>
        <_>
          21 4 5 1 9.</_></rects>
      <tilted>0</tilted></_>
    <_>
      <rects>
        <_>
          16 4 2 1 -1.</_>
        <_>
          17 4 1 1 2.</_></rects>
      <tilted>0</tilted></_>
    <_>
      <rects>
        <_>
          16 7 8 1 -1.</_>
        <_>
          20 7 4 1 2.</_></rects>
      <tilted>0</tilted></_>
    <_>
      <rects>
        <_>
          16 8 9 1 -1.</_>
        <_>
          19 8 3 1 3.</_></rects>
      <tilted>0</tilted></_>
    <_>
      <rects>
        <_>
          16 9 12 1 -1.</_>
        <_>
          20 9 4 1 3.</_></rects>
      <tilted>0</tilted></_>
    <_>
      <rects>
        <_>
          17 0 8 6 -1.</_>
        <_>
          17 2 8 2 3.</_></rects>
      <tilted>0</tilted></_>
    <_>
      <rects>
        <_>
          17 1 6 4 -1.</_>
        <_>
          17 2 6 2 2.</_></rects>
      <tilted>0</tilted></_>
    <_>
      <rects>
        <_>
          17 2 4 2 -1.</_>
        <_>
          18 3 2 2 2.</_></rects>
      <tilted>1</tilted></_>
    <_>
      <rects>
        <_>
          17 2 9 7 -1.</_>
        <_>
          20 2 3 7 3.</_></rects>
      <tilted>0</tilted></_>
    <_>
      <rects>
        <_>
          17 2 16 4 -1.</_>
        <_>
          17 2 8 2 2.</_>
        <_>
          25 4 8 2 2.</_></rects>
      <tilted>0</tilted></_>
    <_>
      <rects>
        <_>
          17 2 14 8 -1.</_>
        <_>
          17 6 14 4 2.</_></rects>
      <tilted>0</tilted></_>
    <_>
      <rects>
        <_>
          17 3 12 2 -1.</_>
        <_>
          20 3 6 2 2.</_></rects>
      <tilted>0</tilted></_>
    <_>
      <rects>
        <_>
          17 3 18 3 -1.</_>
        <_>
          17 4 18 1 3.</_></rects>
      <tilted>0</tilted></_>
    <_>
      <rects>
        <_>
          17 4 3 2 -1.</_>
        <_>
          18 4 1 2 3.</_></rects>
      <tilted>0</tilted></_>
    <_>
      <rects>
        <_>
          17 4 18 3 -1.</_>
        <_>
          23 5 6 1 9.</_></rects>
      <tilted>0</tilted></_>
    <_>
      <rects>
        <_>
          17 5 2 1 -1.</_>
        <_>
          18 5 1 1 2.</_></rects>
      <tilted>0</tilted></_>
    <_>
      <rects>
        <_>
          17 6 6 4 -1.</_>
        <_>
          17 6 3 2 2.</_>
        <_>
          20 8 3 2 2.</_></rects>
      <tilted>0</tilted></_>
    <_>
      <rects>
        <_>
          17 7 6 2 -1.</_>
        <_>
          17 7 3 1 2.</_>
        <_>
          20 8 3 1 2.</_></rects>
      <tilted>0</tilted></_>
    <_>
      <rects>
        <_>
          17 7 33 1 -1.</_>
        <_>
          28 7 11 1 3.</_></rects>
      <tilted>0</tilted></_>
    <_>
      <rects>
        <_>
          17 8 6 1 -1.</_>
        <_>
          20 8 3 1 2.</_></rects>
      <tilted>0</tilted></_>
    <_>
      <rects>
        <_>
          17 8 8 1 -1.</_>
        <_>
          21 8 4 1 2.</_></rects>
      <tilted>0</tilted></_>
    <_>
      <rects>
        <_>
          18 0 5 2 -1.</_>
        <_>
          18 1 5 1 2.</_></rects>
      <tilted>0</tilted></_>
    <_>
      <rects>
        <_>
          18 0 15 8 -1.</_>
        <_>
          18 2 15 4 2.</_></rects>
      <tilted>0</tilted></_>
    <_>
      <rects>
        <_>
          18 1 9 9 -1.</_>
        <_>
          21 1 3 9 3.</_></rects>
      <tilted>0</tilted></_>
    <_>
      <rects>
        <_>
          18 1 5 4 -1.</_>
        <_>
          18 3 5 2 2.</_></rects>
      <tilted>0</tilted></_>
    <_>
      <rects>
        <_>
          18 2 2 6 -1.</_>
        <_>
          18 2 2 3 2.</_></rects>
      <tilted>1</tilted></_>
    <_>
      <rects>
        <_>
          18 2 9 7 -1.</_>
        <_>
          21 2 3 7 3.</_></rects>
      <tilted>0</tilted></_>
    <_>
      <rects>
        <_>
          18 3 3 3 -1.</_>
        <_>
          19 3 1 3 3.</_></rects>
      <tilted>0</tilted></_>
    <_>
      <rects>
        <_>
          18 3 6 6 -1.</_>
        <_>
          20 5 2 2 9.</_></rects>
      <tilted>0</tilted></_>
    <_>
      <rects>
        <_>
          18 3 17 4 -1.</_>
        <_>
          18 4 17 2 2.</_></rects>
      <tilted>0</tilted></_>
    <_>
      <rects>
        <_>
          18 4 2 2 -1.</_>
        <_>
          18 5 2 1 2.</_></rects>
      <tilted>0</tilted></_>
    <_>
      <rects>
        <_>
          18 4 4 2 -1.</_>
        <_>
          18 5 4 1 2.</_></rects>
      <tilted>0</tilted></_>
    <_>
      <rects>
        <_>
          18 4 15 3 -1.</_>
        <_>
          23 5 5 1 9.</_></rects>
      <tilted>0</tilted></_>
    <_>
      <rects>
        <_>
          18 5 12 3 -1.</_>
        <_>
          22 6 4 1 9.</_></rects>
      <tilted>0</tilted></_>
    <_>
      <rects>
        <_>
          18 7 4 2 -1.</_>
        <_>
          20 7 2 2 2.</_></rects>
      <tilted>0</tilted></_>
    <_>
      <rects>
        <_>
          18 7 12 2 -1.</_>
        <_>
          22 7 4 2 3.</_></rects>
      <tilted>0</tilted></_>
    <_>
      <rects>
        <_>
          18 8 8 2 -1.</_>
        <_>
          22 8 4 2 2.</_></rects>
      <tilted>0</tilted></_>
    <_>
      <rects>
        <_>
          19 0 7 4 -1.</_>
        <_>
          19 2 7 2 2.</_></rects>
      <tilted>0</tilted></_>
    <_>
      <rects>
        <_>
          19 0 16 10 -1.</_>
        <_>
          19 5 16 5 2.</_></rects>
      <tilted>0</tilted></_>
    <_>
      <rects>
        <_>
          19 1 6 2 -1.</_>
        <_>
          19 2 6 1 2.</_></rects>
      <tilted>0</tilted></_>
    <_>
      <rects>
        <_>
          19 2 12 2 -1.</_>
        <_>
          23 2 4 2 3.</_></rects>
      <tilted>0</tilted></_>
    <_>
      <rects>
        <_>
          19 3 2 3 -1.</_>
        <_>
          19 3 1 3 2.</_></rects>
      <tilted>1</tilted></_>
    <_>
      <rects>
        <_>
          19 4 3 2 -1.</_>
        <_>
          19 5 3 1 2.</_></rects>
      <tilted>0</tilted></_>
    <_>
      <rects>
        <_>
          19 4 10 2 -1.</_>
        <_>
          19 4 5 1 2.</_>
        <_>
          24 5 5 1 2.</_></rects>
      <tilted>0</tilted></_>
    <_>
      <rects>
        <_>
          19 5 2 1 -1.</_>
        <_>
          20 5 1 1 2.</_></rects>
      <tilted>0</tilted></_>
    <_>
      <rects>
        <_>
          19 9 6 1 -1.</_>
        <_>
          22 9 3 1 2.</_></rects>
      <tilted>0</tilted></_>
    <_>
      <rects>
        <_>
          20 0 3 6 -1.</_>
        <_>
          20 2 3 2 3.</_></rects>
      <tilted>0</tilted></_>
    <_>
      <rects>
        <_>
          20 0 5 4 -1.</_>
        <_>
          20 2 5 2 2.</_></rects>
      <tilted>0</tilted></_>
    <_>
      <rects>
        <_>
          20 0 5 10 -1.</_>
        <_>
          20 5 5 5 2.</_></rects>
      <tilted>0</tilted></_>
    <_>
      <rects>
        <_>
          20 0 10 10 -1.</_>
        <_>
          20 5 10 5 2.</_></rects>
      <tilted>0</tilted></_>
    <_>
      <rects>
        <_>
          20 1 8 7 -1.</_>
        <_>
          22 1 4 7 2.</_></rects>
      <tilted>0</tilted></_>
    <_>
      <rects>
        <_>
          20 1 10 8 -1.</_>
        <_>
          20 5 10 4 2.</_></rects>
      <tilted>0</tilted></_>
    <_>
      <rects>
        <_>
          20 2 6 6 -1.</_>
        <_>
          22 2 2 6 3.</_></rects>
      <tilted>0</tilted></_>
    <_>
      <rects>
        <_>
          20 2 4 3 -1.</_>
        <_>
          20 3 4 1 3.</_></rects>
      <tilted>0</tilted></_>
    <_>
      <rects>
        <_>
          20 2 15 3 -1.</_>
        <_>
          25 3 5 1 9.</_></rects>
      <tilted>0</tilted></_>
    <_>
      <rects>
        <_>
          20 3 1 6 -1.</_>
        <_>
          20 5 1 2 3.</_></rects>
      <tilted>0</tilted></_>
    <_>
      <rects>
        <_>
          20 3 1 6 -1.</_>
        <_>
          20 3 1 3 2.</_></rects>
      <tilted>1</tilted></_>
    <_>
      <rects>
        <_>
          20 3 4 5 -1.</_>
        <_>
          21 3 2 5 2.</_></rects>
      <tilted>0</tilted></_>
    <_>
      <rects>
        <_>
          20 3 9 1 -1.</_>
        <_>
          23 3 3 1 3.</_></rects>
      <tilted>0</tilted></_>
    <_>
      <rects>
        <_>
          20 3 6 2 -1.</_>
        <_>
          20 3 3 1 2.</_>
        <_>
          23 4 3 1 2.</_></rects>
      <tilted>0</tilted></_>
    <_>
      <rects>
        <_>
          20 3 15 3 -1.</_>
        <_>
          25 4 5 1 9.</_></rects>
      <tilted>0</tilted></_>
    <_>
      <rects>
        <_>
          20 4 3 4 -1.</_>
        <_>
          20 5 3 2 2.</_></rects>
      <tilted>0</tilted></_>
    <_>
      <rects>
        <_>
          21 0 8 7 -1.</_>
        <_>
          23 0 4 7 2.</_></rects>
      <tilted>0</tilted></_>
    <_>
      <rects>
        <_>
          21 1 6 1 -1.</_>
        <_>
          23 3 2 1 3.</_></rects>
      <tilted>1</tilted></_>
    <_>
      <rects>
        <_>
          21 1 15 6 -1.</_>
        <_>
          26 1 5 6 3.</_></rects>
      <tilted>0</tilted></_>
    <_>
      <rects>
        <_>
          21 1 8 8 -1.</_>
        <_>
          21 5 8 4 2.</_></rects>
      <tilted>0</tilted></_>
    <_>
      <rects>
        <_>
          21 2 3 4 -1.</_>
        <_>
          21 3 3 2 2.</_></rects>
      <tilted>0</tilted></_>
    <_>
      <rects>
        <_>
          21 3 2 3 -1.</_>
        <_>
          21 4 2 1 3.</_></rects>
      <tilted>0</tilted></_>
    <_>
      <rects>
        <_>
          21 3 4 2 -1.</_>
        <_>
          21 3 2 1 2.</_>
        <_>
          23 4 2 1 2.</_></rects>
      <tilted>0</tilted></_>
    <_>
      <rects>
        <_>
          21 3 3 2 -1.</_>
        <_>
          21 4 3 1 2.</_></rects>
      <tilted>0</tilted></_>
    <_>
      <rects>
        <_>
          21 3 12 3 -1.</_>
        <_>
          25 4 4 1 9.</_></rects>
      <tilted>0</tilted></_>
    <_>
      <rects>
        <_>
          21 3 10 4 -1.</_>
        <_>
          21 3 5 2 2.</_>
        <_>
          26 5 5 2 2.</_></rects>
      <tilted>0</tilted></_>
    <_>
      <rects>
        <_>
          21 3 18 3 -1.</_>
        <_>
          27 4 6 1 9.</_></rects>
      <tilted>0</tilted></_>
    <_>
      <rects>
        <_>
          21 4 2 2 -1.</_>
        <_>
          21 5 2 1 2.</_></rects>
      <tilted>0</tilted></_>
    <_>
      <rects>
        <_>
          21 4 15 1 -1.</_>
        <_>
          26 4 5 1 3.</_></rects>
      <tilted>0</tilted></_>
    <_>
      <rects>
        <_>
          21 5 9 3 -1.</_>
        <_>
          24 6 3 1 9.</_></rects>
      <tilted>0</tilted></_>
    <_>
      <rects>
        <_>
          21 7 2 1 -1.</_>
        <_>
          22 7 1 1 2.</_></rects>
      <tilted>0</tilted></_>
    <_>
      <rects>
        <_>
          22 0 1 2 -1.</_>
        <_>
          22 0 1 1 2.</_></rects>
      <tilted>1</tilted></_>
    <_>
      <rects>
        <_>
          22 0 5 6 -1.</_>
        <_>
          22 2 5 2 3.</_></rects>
      <tilted>0</tilted></_>
    <_>
      <rects>
        <_>
          22 1 2 7 -1.</_>
        <_>
          23 1 1 7 2.</_></rects>
      <tilted>0</tilted></_>
    <_>
      <rects>
        <_>
          22 1 3 6 -1.</_>
        <_>
          22 3 3 2 3.</_></rects>
      <tilted>0</tilted></_>
    <_>
      <rects>
        <_>
          22 1 9 8 -1.</_>
        <_>
          25 1 3 8 3.</_></rects>
      <tilted>0</tilted></_>
    <_>
      <rects>
        <_>
          22 1 4 6 -1.</_>
        <_>
          22 3 4 2 3.</_></rects>
      <tilted>0</tilted></_>
    <_>
      <rects>
        <_>
          22 1 9 8 -1.</_>
        <_>
          22 5 9 4 2.</_></rects>
      <tilted>0</tilted></_>
    <_>
      <rects>
        <_>
          22 2 4 6 -1.</_>
        <_>
          23 2 2 6 2.</_></rects>
      <tilted>0</tilted></_>
    <_>
      <rects>
        <_>
          22 2 2 2 -1.</_>
        <_>
          22 3 2 1 2.</_></rects>
      <tilted>0</tilted></_>
    <_>
      <rects>
        <_>
          22 2 2 4 -1.</_>
        <_>
          22 3 2 2 2.</_></rects>
      <tilted>0</tilted></_>
    <_>
      <rects>
        <_>
          22 2 6 5 -1.</_>
        <_>
          24 2 2 5 3.</_></rects>
      <tilted>0</tilted></_>
    <_>
      <rects>
        <_>
          22 3 6 4 -1.</_>
        <_>
          22 5 6 2 2.</_></rects>
      <tilted>0</tilted></_>
    <_>
      <rects>
        <_>
          22 4 6 3 -1.</_>
        <_>
          24 5 2 1 9.</_></rects>
      <tilted>0</tilted></_>
    <_>
      <rects>
        <_>
          22 5 6 3 -1.</_>
        <_>
          24 6 2 1 9.</_></rects>
      <tilted>0</tilted></_>
    <_>
      <rects>
        <_>
          22 7 2 1 -1.</_>
        <_>
          23 7 1 1 2.</_></rects>
      <tilted>0</tilted></_>
    <_>
      <rects>
        <_>
          22 8 8 2 -1.</_>
        <_>
          22 8 4 1 2.</_>
        <_>
          26 9 4 1 2.</_></rects>
      <tilted>0</tilted></_>
    <_>
      <rects>
        <_>
          23 0 3 8 -1.</_>
        <_>
          23 2 3 4 2.</_></rects>
      <tilted>0</tilted></_>
    <_>
      <rects>
        <_>
          23 0 4 6 -1.</_>
        <_>
          23 2 4 2 3.</_></rects>
      <tilted>0</tilted></_>
    <_>
      <rects>
        <_>
          23 0 8 2 -1.</_>
        <_>
          23 0 4 2 2.</_></rects>
      <tilted>1</tilted></_>
    <_>
      <rects>
        <_>
          23 1 2 4 -1.</_>
        <_>
          23 2 2 2 2.</_></rects>
      <tilted>0</tilted></_>
    <_>
      <rects>
        <_>
          23 1 8 8 -1.</_>
        <_>
          25 1 4 8 2.</_></rects>
      <tilted>0</tilted></_>
    <_>
      <rects>
        <_>
          23 1 8 1 -1.</_>
        <_>
          23 1 4 1 2.</_></rects>
      <tilted>1</tilted></_>
    <_>
      <rects>
        <_>
          23 1 4 6 -1.</_>
        <_>
          23 3 4 2 3.</_></rects>
      <tilted>0</tilted></_>
    <_>
      <rects>
        <_>
          23 2 2 6 -1.</_>
        <_>
          24 2 1 6 2.</_></rects>
      <tilted>0</tilted></_>
    <_>
      <rects>
        <_>
          23 2 3 7 -1.</_>
        <_>
          24 2 1 7 3.</_></rects>
      <tilted>0</tilted></_>
    <_>
      <rects>
        <_>
          23 2 3 6 -1.</_>
        <_>
          23 4 3 2 3.</_></rects>
      <tilted>0</tilted></_>
    <_>
      <rects>
        <_>
          23 2 4 4 -1.</_>
        <_>
          23 4 4 2 2.</_></rects>
      <tilted>0</tilted></_>
    <_>
      <rects>
        <_>
          23 2 14 4 -1.</_>
        <_>
          23 2 7 2 2.</_>
        <_>
          30 4 7 2 2.</_></rects>
      <tilted>0</tilted></_>
    <_>
      <rects>
        <_>
          23 3 6 3 -1.</_>
        <_>
          25 4 2 1 9.</_></rects>
      <tilted>0</tilted></_>
    <_>
      <rects>
        <_>
          23 3 8 2 -1.</_>
        <_>
          23 3 4 1 2.</_>
        <_>
          27 4 4 1 2.</_></rects>
      <tilted>0</tilted></_>
    <_>
      <rects>
        <_>
          23 5 2 2 -1.</_>
        <_>
          23 5 1 2 2.</_></rects>
      <tilted>1</tilted></_>
    <_>
      <rects>
        <_>
          23 5 6 3 -1.</_>
        <_>
          25 6 2 1 9.</_></rects>
      <tilted>0</tilted></_>
    <_>
      <rects>
        <_>
          23 5 4 2 -1.</_>
        <_>
          23 6 4 1 2.</_></rects>
      <tilted>0</tilted></_>
    <_>
      <rects>
        <_>
          23 7 2 1 -1.</_>
        <_>
          24 7 1 1 2.</_></rects>
      <tilted>0</tilted></_>
    <_>
      <rects>
        <_>
          23 8 4 1 -1.</_>
        <_>
          25 8 2 1 2.</_></rects>
      <tilted>0</tilted></_>
    <_>
      <rects>
        <_>
          24 1 2 8 -1.</_>
        <_>
          24 3 2 4 2.</_></rects>
      <tilted>0</tilted></_>
    <_>
      <rects>
        <_>
          24 2 3 4 -1.</_>
        <_>
          25 2 1 4 3.</_></rects>
      <tilted>0</tilted></_>
    <_>
      <rects>
        <_>
          24 2 4 5 -1.</_>
        <_>
          25 2 2 5 2.</_></rects>
      <tilted>0</tilted></_>
    <_>
      <rects>
        <_>
          24 2 2 6 -1.</_>
        <_>
          24 4 2 2 3.</_></rects>
      <tilted>0</tilted></_>
    <_>
      <rects>
        <_>
          24 3 1 2 -1.</_>
        <_>
          24 4 1 1 2.</_></rects>
      <tilted>0</tilted></_>
    <_>
      <rects>
        <_>
          24 3 4 4 -1.</_>
        <_>
          25 3 2 4 2.</_></rects>
      <tilted>0</tilted></_>
    <_>
      <rects>
        <_>
          24 3 2 5 -1.</_>
        <_>
          25 3 1 5 2.</_></rects>
      <tilted>0</tilted></_>
    <_>
      <rects>
        <_>
          24 3 3 6 -1.</_>
        <_>
          25 3 1 6 3.</_></rects>
      <tilted>0</tilted></_>
    <_>
      <rects>
        <_>
          24 3 8 5 -1.</_>
        <_>
          26 3 4 5 2.</_></rects>
      <tilted>0</tilted></_>
    <_>
      <rects>
        <_>
          24 3 3 2 -1.</_>
        <_>
          24 4 3 1 2.</_></rects>
      <tilted>0</tilted></_>
    <_>
      <rects>
        <_>
          24 3 3 3 -1.</_>
        <_>
          24 4 3 1 3.</_></rects>
      <tilted>0</tilted></_>
    <_>
      <rects>
        <_>
          24 4 2 1 -1.</_>
        <_>
          24 4 1 1 2.</_></rects>
      <tilted>1</tilted></_>
    <_>
      <rects>
        <_>
          24 5 3 3 -1.</_>
        <_>
          25 6 1 1 9.</_></rects>
      <tilted>0</tilted></_>
    <_>
      <rects>
        <_>
          24 5 2 1 -1.</_>
        <_>
          24 5 1 1 2.</_></rects>
      <tilted>1</tilted></_>
    <_>
      <rects>
        <_>
          24 5 1 4 -1.</_>
        <_>
          24 7 1 2 2.</_></rects>
      <tilted>0</tilted></_>
    <_>
      <rects>
        <_>
          24 5 2 2 -1.</_>
        <_>
          24 6 2 1 2.</_></rects>
      <tilted>0</tilted></_>
    <_>
      <rects>
        <_>
          24 5 2 4 -1.</_>
        <_>
          24 7 2 2 2.</_></rects>
      <tilted>0</tilted></_>
    <_>
      <rects>
        <_>
          24 5 3 3 -1.</_>
        <_>
          24 6 3 1 3.</_></rects>
      <tilted>0</tilted></_>
    <_>
      <rects>
        <_>
          24 5 4 4 -1.</_>
        <_>
          24 7 4 2 2.</_></rects>
      <tilted>0</tilted></_>
    <_>
      <rects>
        <_>
          24 6 1 2 -1.</_>
        <_>
          24 7 1 1 2.</_></rects>
      <tilted>0</tilted></_>
    <_>
      <rects>
        <_>
          24 6 4 2 -1.</_>
        <_>
          25 6 2 2 2.</_></rects>
      <tilted>0</tilted></_>
    <_>
      <rects>
        <_>
          24 7 2 1 -1.</_>
        <_>
          25 7 1 1 2.</_></rects>
      <tilted>0</tilted></_>
    <_>
      <rects>
        <_>
          24 7 3 1 -1.</_>
        <_>
          25 7 1 1 3.</_></rects>
      <tilted>0</tilted></_>
    <_>
      <rects>
        <_>
          25 0 1 8 -1.</_>
        <_>
          25 2 1 4 2.</_></rects>
      <tilted>0</tilted></_>
    <_>
      <rects>
        <_>
          25 0 3 10 -1.</_>
        <_>
          25 5 3 5 2.</_></rects>
      <tilted>0</tilted></_>
    <_>
      <rects>
        <_>
          25 0 8 2 -1.</_>
        <_>
          25 0 8 1 2.</_></rects>
      <tilted>1</tilted></_>
    <_>
      <rects>
        <_>
          25 1 3 4 -1.</_>
        <_>
          25 2 3 2 2.</_></rects>
      <tilted>0</tilted></_>
    <_>
      <rects>
        <_>
          25 2 6 3 -1.</_>
        <_>
          27 3 2 1 9.</_></rects>
      <tilted>0</tilted></_>
    <_>
      <rects>
        <_>
          25 2 2 6 -1.</_>
        <_>
          25 4 2 2 3.</_></rects>
      <tilted>0</tilted></_>
    <_>
      <rects>
        <_>
          25 2 4 3 -1.</_>
        <_>
          25 3 4 1 3.</_></rects>
      <tilted>0</tilted></_>
    <_>
      <rects>
        <_>
          25 2 5 3 -1.</_>
        <_>
          25 3 5 1 3.</_></rects>
      <tilted>0</tilted></_>
    <_>
      <rects>
        <_>
          25 3 3 3 -1.</_>
        <_>
          26 3 1 3 3.</_></rects>
      <tilted>0</tilted></_>
    <_>
      <rects>
        <_>
          25 3 2 2 -1.</_>
        <_>
          25 4 2 1 2.</_></rects>
      <tilted>0</tilted></_>
    <_>
      <rects>
        <_>
          25 4 2 5 -1.</_>
        <_>
          26 4 1 5 2.</_></rects>
      <tilted>0</tilted></_>
    <_>
      <rects>
        <_>
          25 5 2 1 -1.</_>
        <_>
          25 5 1 1 2.</_></rects>
      <tilted>1</tilted></_>
    <_>
      <rects>
        <_>
          25 6 1 2 -1.</_>
        <_>
          25 7 1 1 2.</_></rects>
      <tilted>0</tilted></_>
    <_>
      <rects>
        <_>
          25 6 2 1 -1.</_>
        <_>
          25 6 1 1 2.</_></rects>
      <tilted>1</tilted></_>
    <_>
      <rects>
        <_>
          25 6 3 2 -1.</_>
        <_>
          26 6 1 2 3.</_></rects>
      <tilted>0</tilted></_>
    <_>
      <rects>
        <_>
          25 7 3 1 -1.</_>
        <_>
          26 7 1 1 3.</_></rects>
      <tilted>0</tilted></_>
    <_>
      <rects>
        <_>
          26 1 4 5 -1.</_>
        <_>
          27 2 2 5 2.</_></rects>
      <tilted>1</tilted></_>
    <_>
      <rects>
        <_>
          26 1 2 6 -1.</_>
        <_>
          26 3 2 2 3.</_></rects>
      <tilted>0</tilted></_>
    <_>
      <rects>
        <_>
          26 1 5 4 -1.</_>
        <_>
          26 1 5 2 2.</_></rects>
      <tilted>1</tilted></_>
    <_>
      <rects>
        <_>
          26 2 3 4 -1.</_>
        <_>
          26 3 3 2 2.</_></rects>
      <tilted>0</tilted></_>
    <_>
      <rects>
        <_>
          26 3 9 5 -1.</_>
        <_>
          29 3 3 5 3.</_></rects>
      <tilted>0</tilted></_>
    <_>
      <rects>
        <_>
          26 4 2 2 -1.</_>
        <_>
          26 5 2 1 2.</_></rects>
      <tilted>0</tilted></_>
    <_>
      <rects>
        <_>
          26 4 2 3 -1.</_>
        <_>
          26 5 2 1 3.</_></rects>
      <tilted>0</tilted></_>
    <_>
      <rects>
        <_>
          26 4 10 2 -1.</_>
        <_>
          26 4 5 1 2.</_>
        <_>
          31 5 5 1 2.</_></rects>
      <tilted>0</tilted></_>
    <_>
      <rects>
        <_>
          26 5 2 1 -1.</_>
        <_>
          26 5 1 1 2.</_></rects>
      <tilted>1</tilted></_>
    <_>
      <rects>
        <_>
          26 6 3 1 -1.</_>
        <_>
          27 6 1 1 3.</_></rects>
      <tilted>0</tilted></_>
    <_>
      <rects>
        <_>
          27 0 2 8 -1.</_>
        <_>
          27 0 2 4 2.</_></rects>
      <tilted>1</tilted></_>
    <_>
      <rects>
        <_>
          27 0 3 6 -1.</_>
        <_>
          27 2 3 2 3.</_></rects>
      <tilted>0</tilted></_>
    <_>
      <rects>
        <_>
          27 1 3 4 -1.</_>
        <_>
          27 2 3 2 2.</_></rects>
      <tilted>0</tilted></_>
    <_>
      <rects>
        <_>
          27 1 5 3 -1.</_>
        <_>
          27 2 5 1 3.</_></rects>
      <tilted>0</tilted></_>
    <_>
      <rects>
        <_>
          27 1 6 2 -1.</_>
        <_>
          27 2 6 1 2.</_></rects>
      <tilted>0</tilted></_>
    <_>
      <rects>
        <_>
          27 2 4 6 -1.</_>
        <_>
          29 2 2 6 2.</_></rects>
      <tilted>0</tilted></_>
    <_>
      <rects>
        <_>
          27 3 8 5 -1.</_>
        <_>
          29 3 4 5 2.</_></rects>
      <tilted>0</tilted></_>
    <_>
      <rects>
        <_>
          27 4 3 3 -1.</_>
        <_>
          28 4 1 3 3.</_></rects>
      <tilted>0</tilted></_>
    <_>
      <rects>
        <_>
          27 4 8 2 -1.</_>
        <_>
          27 4 4 1 2.</_>
        <_>
          31 5 4 1 2.</_></rects>
      <tilted>0</tilted></_>
    <_>
      <rects>
        <_>
          27 4 10 2 -1.</_>
        <_>
          27 4 5 1 2.</_>
        <_>
          32 5 5 1 2.</_></rects>
      <tilted>0</tilted></_>
    <_>
      <rects>
        <_>
          27 8 8 2 -1.</_>
        <_>
          27 8 4 1 2.</_>
        <_>
          31 9 4 1 2.</_></rects>
      <tilted>0</tilted></_>
    <_>
      <rects>
        <_>
          28 0 10 4 -1.</_>
        <_>
          28 1 10 2 2.</_></rects>
      <tilted>0</tilted></_>
    <_>
      <rects>
        <_>
          28 1 1 4 -1.</_>
        <_>
          27 2 1 2 2.</_></rects>
      <tilted>1</tilted></_>
    <_>
      <rects>
        <_>
          28 2 1 3 -1.</_>
        <_>
          28 3 1 1 3.</_></rects>
      <tilted>0</tilted></_>
    <_>
      <rects>
        <_>
          28 2 3 6 -1.</_>
        <_>
          29 2 1 6 3.</_></rects>
      <tilted>0</tilted></_>
    <_>
      <rects>
        <_>
          28 3 2 4 -1.</_>
        <_>
          28 5 2 2 2.</_></rects>
      <tilted>0</tilted></_>
    <_>
      <rects>
        <_>
          28 3 12 2 -1.</_>
        <_>
          28 3 6 1 2.</_>
        <_>
          34 4 6 1 2.</_></rects>
      <tilted>0</tilted></_>
    <_>
      <rects>
        <_>
          28 4 3 1 -1.</_>
        <_>
          29 4 1 1 3.</_></rects>
      <tilted>0</tilted></_>
    <_>
      <rects>
        <_>
          28 6 6 2 -1.</_>
        <_>
          28 6 3 1 2.</_>
        <_>
          31 7 3 1 2.</_></rects>
      <tilted>0</tilted></_>
    <_>
      <rects>
        <_>
          29 0 3 3 -1.</_>
        <_>
          29 1 3 1 3.</_></rects>
      <tilted>0</tilted></_>
    <_>
      <rects>
        <_>
          29 1 1 6 -1.</_>
        <_>
          27 3 1 2 3.</_></rects>
      <tilted>1</tilted></_>
    <_>
      <rects>
        <_>
          29 3 3 2 -1.</_>
        <_>
          30 3 1 2 3.</_></rects>
      <tilted>0</tilted></_>
    <_>
      <rects>
        <_>
          29 4 3 1 -1.</_>
        <_>
          30 4 1 1 3.</_></rects>
      <tilted>0</tilted></_>
    <_>
      <rects>
        <_>
          29 4 2 3 -1.</_>
        <_>
          30 4 1 3 2.</_></rects>
      <tilted>0</tilted></_>
    <_>
      <rects>
        <_>
          30 0 9 9 -1.</_>
        <_>
          30 3 9 3 3.</_></rects>
      <tilted>0</tilted></_>
    <_>
      <rects>
        <_>
          30 9 20 1 -1.</_>
        <_>
          35 9 10 1 2.</_></rects>
      <tilted>0</tilted></_>
    <_>
      <rects>
        <_>
          31 4 10 2 -1.</_>
        <_>
          31 4 5 1 2.</_>
        <_>
          36 5 5 1 2.</_></rects>
      <tilted>0</tilted></_>
    <_>
      <rects>
        <_>
          32 5 15 1 -1.</_>
        <_>
          37 5 5 1 3.</_></rects>
      <tilted>0</tilted></_>
    <_>
      <rects>
        <_>
          32 5 18 1 -1.</_>
        <_>
          41 5 9 1 2.</_></rects>
      <tilted>0</tilted></_>
    <_>
      <rects>
        <_>
          33 1 4 6 -1.</_>
        <_>
          35 1 2 6 2.</_></rects>
      <tilted>0</tilted></_>
    <_>
      <rects>
        <_>
          33 3 1 6 -1.</_>
        <_>
          33 3 1 3 2.</_></rects>
      <tilted>1</tilted></_>
    <_>
      <rects>
        <_>
          33 5 3 4 -1.</_>
        <_>
          33 7 3 2 2.</_></rects>
      <tilted>0</tilted></_>
    <_>
      <rects>
        <_>
          33 6 6 2 -1.</_>
        <_>
          33 6 3 1 2.</_>
        <_>
          36 7 3 1 2.</_></rects>
      <tilted>0</tilted></_>
    <_>
      <rects>
        <_>
          34 1 1 4 -1.</_>
        <_>
          33 2 1 2 2.</_></rects>
      <tilted>1</tilted></_>
    <_>
      <rects>
        <_>
          35 5 1 3 -1.</_>
        <_>
          34 6 1 1 3.</_></rects>
      <tilted>1</tilted></_>
    <_>
      <rects>
        <_>
          36 4 2 3 -1.</_>
        <_>
          36 5 2 1 3.</_></rects>
      <tilted>0</tilted></_>
    <_>
      <rects>
        <_>
          38 0 12 9 -1.</_>
        <_>
          44 0 6 9 2.</_></rects>
      <tilted>0</tilted></_>
    <_>
      <rects>
        <_>
          40 2 3 1 -1.</_>
        <_>
          41 3 1 1 3.</_></rects>
      <tilted>1</tilted></_>
    <_>
      <rects>
        <_>
          40 2 10 5 -1.</_>
        <_>
          45 2 5 5 2.</_></rects>
      <tilted>0</tilted></_>
    <_>
      <rects>
        <_>
          42 6 8 4 -1.</_>
        <_>
          46 6 4 4 2.</_></rects>
      <tilted>0</tilted></_>
    <_>
      <rects>
        <_>
          43 2 2 4 -1.</_>
        <_>
          43 2 1 4 2.</_></rects>
      <tilted>1</tilted></_>
    <_>
      <rects>
        <_>
          44 0 6 8 -1.</_>
        <_>
          47 0 3 8 2.</_></rects>
      <tilted>0</tilted></_>
    <_>
      <rects>
        <_>
          44 7 6 3 -1.</_>
        <_>
          47 7 3 3 2.</_></rects>
      <tilted>0</tilted></_>
    <_>
      <rects>
        <_>
          48 0 1 2 -1.</_>
        <_>
          48 1 1 1 2.</_></rects>
      <tilted>0</tilted></_>
    <_>
      <rects>
        <_>
          48 2 1 2 -1.</_>
        <_>
          48 3 1 1 2.</_></rects>
      <tilted>0</tilted></_>
    <_>
      <rects>
        <_>
          49 2 1 2 -1.</_>
        <_>
          49 3 1 1 2.</_></rects>
      <tilted>0</tilted></_>
    <_>
      <rects>
        <_>
          49 8 1 2 -1.</_>
        <_>
          49 9 1 1 2.</_></rects>
      <tilted>0</tilted></_></features></cascade>
</opencv_storage>
